{"learner":{"attributes":{"scikit_learn":"{\"_estimator_type\": \"classifier\"}"},"feature_names":["Gender","Married","Dependent_No","Education","Self_Employed","Applicant_Income","CoApplicant_Income","Loan_Amount","Loan_Amount_Term","Credit History","Property_District"],"feature_types":["int","int","int","int","int","int","int","int","int","int","int"],"gradient_booster":{"model":{"gbtree_model_param":{"num_parallel_tree":"1","num_trees":"100"},"iteration_indptr":[0,1,2,3,4,5,6,7,8,9,10,11,12,13,14,15,16,17,18,19,20,21,22,23,24,25,26,27,28,29,30,31,32,33,34,35,36,37,38,39,40,41,42,43,44,45,46,47,48,49,50,51,52,53,54,55,56,57,58,59,60,61,62,63,64,65,66,67,68,69,70,71,72,73,74,75,76,77,78,79,80,81,82,83,84,85,86,87,88,89,90,91,92,93,94,95,96,97,98,99,100],"tree_info":[0,0,0,0,0,0,0,0,0,0,0,0,0,0,0,0,0,0,0,0,0,0,0,0,0,0,0,0,0,0,0,0,0,0,0,0,0,0,0,0,0,0,0,0,0,0,0,0,0,0,0,0,0,0,0,0,0,0,0,0,0,0,0,0,0,0,0,0,0,0,0,0,0,0,0,0,0,0,0,0,0,0,0,0,0,0,0,0,0,0,0,0,0,0,0,0,0,0,0,0],"trees":[{"base_weights":[-7.6294E-1,-4.3857676E-1,-9.6082115E-1,2.4295971E-1,-7.831841E-1,-1.0192839E0,3.5987508E-2,2.9093752E-2,-2.7939627E-1,-1.332047E0,-5.657267E-1,-1.454839E0,-7.829034E-1,1.7916152E-1,-4.4571303E-2,-1.9728635E-2,-9.081292E-2,-3.388138E-2,-7.089671E-1,-1.5865892E0,9.273562E-3,-4.8072463E-1,-1.3032587E0,-2.3900243E-2,3.8112935E-2,-3.0309832E-2,3.8112935E-2,-6.0483735E-2,-3.8252628E-1,-1.8601594E0,-7.79955E-1,-5.841248E-1,2.3520896E-2,-1.3473879E-2,-1.6333445E0,-6.928268E-1,1.1432494E-2,-1.0366114E-1,-7.1423906E-1,1.4300776E-3,-1.1237085E0,-3.4902643E-2,1.7711902E-3,-1.2594679E-1,-8.653803E-1,-1.1237085E0,-4.070624E-3,-6.339627E-2,9.273562E-3,-7.560571E-2,-8.625761E-3,-2.0310353E-1,-7.565133E-2,-3.2291827E-3,-8.591342E-2,-7.1423906E-1,3.3496838E-2,9.273562E-3,-6.339627E-2],"categories":[],"categories_nodes":[],"categories_segments":[],"categories_sizes":[],"default_left":[0,0,0,0,0,0,0,0,0,0,0,0,0,0,0,0,0,0,0,0,0,0,0,0,0,0,0,0,0,0,0,0,0,0,0,0,0,0,0,0,0,0,0,0,0,0,0,0,0,0,0,0,0,0,0,0,0,0,0],"id":0,"left_children":[1,3,5,7,9,11,-1,-1,13,15,17,19,21,23,-1,-1,-1,25,27,29,-1,31,33,-1,-1,-1,-1,-1,35,37,39,41,-1,-1,43,45,-1,-1,47,-1,49,-1,-1,-1,51,53,-1,-1,-1,-1,-1,55,-1,-1,-1,57,-1,-1,-1],"loss_changes":[4.754036E0,7.797913E0,5.5715485E0,2.2234855E0,1.8424444E0,3.8028297E0,0E0,0E0,1.6349574E0,1.7499876E0,1.2951937E0,3.6916351E0,4.6062317E0,1.8349316E0,0E0,0E0,0E0,2.6147451E0,1.7589335E0,1.7833939E0,0E0,2.5011249E0,3.5322895E0,0E0,0E0,0E0,0E0,0E0,1.9961822E0,1.0150795E0,1.5424542E0,1.497375E0,0E0,0E0,3.6869087E0,1.6671221E0,0E0,0E0,1.7935292E0,0E0,1.1569643E0,0E0,0E0,0E0,2.3276887E0,2.305666E0,0E0,0E0,0E0,0E0,0E0,2.349316E0,0E0,0E0,0E0,1.7935292E0,0E0,0E0,0E0],"parents":[2147483647,0,0,1,1,2,2,3,3,4,4,5,5,8,8,9,9,10,10,11,11,12,12,13,13,17,17,18,18,19,19,21,21,22,22,28,28,29,29,30,30,31,31,34,34,35,35,38,38,40,40,44,44,45,45,51,51,55,55],"right_children":[2,4,6,8,10,12,-1,-1,14,16,18,20,22,24,-1,-1,-1,26,28,30,-1,32,34,-1,-1,-1,-1,-1,36,38,40,42,-1,-1,44,46,-1,-1,48,-1,50,-1,-1,-1,52,54,-1,-1,-1,-1,-1,56,-1,-1,-1,58,-1,-1,-1],"split_conditions":[1E0,2E0,2E0,3E0,1E0,1E0,3.5987508E-2,2.9093752E-2,3E0,1E0,1E0,2E0,4E0,1E0,-4.4571303E-2,-1.9728635E-2,-9.081292E-2,2E0,1E0,4E0,9.273562E-3,3E0,2E0,-2.3900243E-2,3.8112935E-2,-3.0309832E-2,3.8112935E-2,-6.0483735E-2,2E0,5E0,1E0,5E0,2.3520896E-2,-1.3473879E-2,5E0,2E0,1.1432494E-2,-1.0366114E-1,2E0,1.4300776E-3,2E0,-3.4902643E-2,1.7711902E-3,-1.2594679E-1,3E0,4E0,-4.070624E-3,-6.339627E-2,9.273562E-3,-7.560571E-2,-8.625761E-3,2E0,-7.565133E-2,-3.2291827E-3,-8.591342E-2,1E0,3.3496838E-2,9.273562E-3,-6.339627E-2],"split_indices":[4,8,1,2,2,9,0,0,7,3,10,3,8,8,0,0,0,5,0,8,0,6,7,0,0,0,0,0,10,7,6,7,0,0,8,6,0,0,2,0,5,0,0,0,2,2,0,0,0,0,0,5,0,0,0,5,0,0,0],"split_type":[0,0,0,0,0,0,0,0,0,0,0,0,0,0,0,0,0,0,0,0,0,0,0,0,0,0,0,0,0,0,0,0,0,0,0,0,0,0,0,0,0,0,0,0,0,0,0,0,0,0,0,0,0,0,0,0,0,0,0],"sum_hessian":[7.963244E1,3.1391851E1,4.8240585E1,1.0641306E1,2.0750546E1,4.69991E1,1.2414857E0,6.3847833E0,4.256522E0,4.4338775E0,1.631667E1,1.4720473E1,3.227863E1,2.8376815E0,1.4188408E0,2.128261E0,2.3056161E0,3.724457E0,1.2592212E1,1.36563425E1,1.0641305E0,2.1637321E1,1.0641306E1,1.4188408E0,1.4188408E0,2.3056161E0,1.4188408E0,3.901812E0,8.6904E0,9.222465E0,4.4338775E0,1.9863771E1,1.773551E0,3.0150366E0,7.6262693E0,5.675363E0,3.0150366E0,7.094204E0,2.128261E0,1.5961958E0,2.8376815E0,1.667138E1,3.1923916E0,2.4829714E0,5.1432977E0,2.8376815E0,2.8376815E0,1.0641305E0,1.0641305E0,1.5961958E0,1.2414857E0,3.1923916E0,1.950906E0,1.4188408E0,1.4188408E0,2.128261E0,1.0641305E0,1.0641305E0,1.0641305E0],"tree_param":{"num_deleted":"0","num_feature":"11","num_nodes":"59","size_leaf_vector":"1"}},{"base_weights":[-4.4917482E-1,-5.952779E-1,-1.8970938E-1,-8.4149873E-1,-1.4021225E-1,-8.122787E-2,-6.512925E-2,-1.1735107E0,-5.26581E-1,4.0355757E-1,-3.9931542E-1,2.139086E-1,-2.8816363E-1,-6.4068365E-1,-1.731963E0,-8.5736823E-1,2.3307289E-1,-3.105369E-2,3.650434E-2,9.915423E-2,-8.554053E-1,3.6486298E-2,-1.6955386E-1,1.258145E-1,-6.60916E-1,1.2890557E-2,-9.2420894E-1,-1.22920595E-1,-4.1835792E-2,-3.3184534E-1,-1.20037E0,-6.231937E-2,3.8956974E-2,-3.9878394E-2,2.7648991E-2,-2.302518E-3,-5.8783747E-2,3.037879E-1,-7.4736416E-1,-2.3961443E-2,4.1264755E-1,-7.41991E-2,-6.946546E-2,9.898177E-3,-5.6794602E-2,-5.261726E-2,3.219653E-1,-1.6964698E0,-2.7661426E-2,-2.0404004E-2,3.382249E-2,-2.3633491E-2,3.556712E-2,-5.776378E-2,9.789392E-3,-1.5813943E-2,3.4761067E-2,3.6637533E-2,-3.879222E-1,4.551966E-2,-3.8846206E-2,-1.0549604E-1,-1.4116528E-2,2.0881033E-2,-4.137225E-2],"categories":[],"categories_nodes":[],"categories_segments":[],"categories_sizes":[],"default_left":[0,0,0,0,0,0,0,0,0,0,0,0,0,0,0,0,0,0,0,0,0,0,0,0,0,0,0,0,0,0,0,0,0,0,0,0,0,0,0,0,0,0,0,0,0,0,0,0,0,0,0,0,0,0,0,0,0,0,0,0,0,0,0,0,0],"id":1,"left_children":[1,3,5,7,9,11,-1,13,15,17,19,21,23,25,27,29,31,-1,-1,33,35,-1,37,39,41,-1,43,-1,-1,45,47,49,-1,-1,-1,-1,-1,51,53,-1,55,-1,57,-1,-1,-1,59,61,-1,-1,-1,-1,-1,-1,-1,-1,-1,-1,63,-1,-1,-1,-1,-1,-1],"loss_changes":[3.127781E0,5.957552E0,3.789301E0,3.0400276E0,3.0124834E0,1.9222522E0,0E0,3.7157574E0,5.167462E0,2.8049643E0,3.3152394E0,2.7208748E0,2.9123483E0,2.7566419E0,2.710619E0,2.122675E0,1.1427155E0,0E0,0E0,3.5686173E0,1.8961453E0,0E0,2.50884E0,1.8511076E0,4.6712136E0,0E0,2.061719E0,0E0,0E0,3.591754E0,1.6556435E0,1.6369972E0,0E0,0E0,0E0,0E0,0E0,2.0124688E0,1.7827301E0,0E0,1.6617731E0,0E0,2.010158E0,0E0,0E0,0E0,3.5433545E0,1.7956676E0,0E0,0E0,0E0,0E0,0E0,0E0,0E0,0E0,0E0,0E0,2.2892718E0,0E0,0E0,0E0,0E0,0E0,0E0],"parents":[2147483647,0,0,1,1,2,2,3,3,4,4,5,5,7,7,8,8,9,9,10,10,11,11,12,12,13,13,14,14,15,15,16,16,19,19,20,20,22,22,23,23,24,24,26,26,29,29,30,30,31,31,37,37,38,38,40,40,42,42,46,46,47,47,58,58],"right_children":[2,4,6,8,10,12,-1,14,16,18,20,22,24,26,28,30,32,-1,-1,34,36,-1,38,40,42,-1,44,-1,-1,46,48,50,-1,-1,-1,-1,-1,52,54,-1,56,-1,58,-1,-1,-1,60,62,-1,-1,-1,-1,-1,-1,-1,-1,-1,-1,64,-1,-1,-1,-1,-1,-1],"split_conditions":[4E0,2E0,2E0,2E0,1E0,1E0,-6.512925E-2,2E0,4E0,1E0,2E0,2E0,1E0,1E0,1E0,2E0,2E0,-3.105369E-2,3.650434E-2,1E0,1E0,3.6486298E-2,2E0,2E0,2E0,1.2890557E-2,1E0,-1.22920595E-1,-4.1835792E-2,1E0,2E0,3E0,3.8956974E-2,-3.9878394E-2,2.7648991E-2,-2.302518E-3,-5.8783747E-2,1E0,2E0,-2.3961443E-2,1E0,-7.41991E-2,1E0,9.898177E-3,-5.6794602E-2,-5.261726E-2,2E0,2E0,-2.7661426E-2,-2.0404004E-2,3.382249E-2,-2.3633491E-2,3.556712E-2,-5.776378E-2,9.789392E-3,-1.5813943E-2,3.4761067E-2,3.6637533E-2,2E0,4.551966E-2,-3.8846206E-2,-1.0549604E-1,-1.4116528E-2,2.0881033E-2,-4.137225E-2],"split_indices":[7,5,3,2,4,4,0,7,8,7,7,2,1,3,9,8,10,0,0,10,0,0,6,8,2,0,8,0,0,3,7,7,0,0,0,0,0,5,10,0,0,0,6,0,0,0,6,10,0,0,0,0,0,0,0,0,0,0,8,0,0,0,0,0,0],"split_type":[0,0,0,0,0,0,0,0,0,0,0,0,0,0,0,0,0,0,0,0,0,0,0,0,0,0,0,0,0,0,0,0,0,0,0,0,0,0,0,0,0,0,0,0,0,0,0,0,0,0,0,0,0,0,0,0,0,0,0,0,0,0,0,0,0],"sum_hessian":[8.448724E1,5.3223328E1,3.1263912E1,3.398565E1,1.923768E1,2.9464724E1,1.7991893E0,1.5216632E1,1.8769014E1,6.028462E0,1.3209218E1,1.213039E1,1.7334333E1,8.88581E0,6.3308225E0,1.2985792E1,5.783223E0,1.2388787E0,4.789583E0,6.6853094E0,6.5239086E0,4.787482E0,7.3429084E0,8.526874E0,8.80746E0,2.1531491E0,6.7326603E0,2.530984E0,3.7998388E0,5.905412E0,7.0803795E0,4.3279266E0,1.4552968E0,1.9919492E0,4.6933603E0,2.1739347E0,4.3499737E0,4.297029E0,3.0458796E0,2.5265758E0,6.000298E0,3.0516756E0,5.755784E0,1.0787598E0,5.6539006E0,2.519436E0,3.3859763E0,3.0900552E0,3.9903243E0,3.253048E0,1.0748783E0,1.4241054E0,2.8729234E0,1.9692665E0,1.0766131E0,1.6429276E0,4.3573704E0,1.2659129E0,4.489871E0,2.3168788E0,1.0690975E0,2.0102901E0,1.0797652E0,1.6025685E0,2.8873026E0],"tree_param":{"num_deleted":"0","num_feature":"11","num_nodes":"65","size_leaf_vector":"1"}},{"base_weights":[-6.270002E-1,-5.009024E-1,-1.0857037E0,-6.5676266E-1,-6.623968E-2,-6.879246E-1,-1.0791147E-1,-7.6211345E-1,-1.8999624E-1,-6.7651117E-1,3.3490518E-1,-1.1489761E0,4.9246807E-2,-5.974037E-1,-6.568607E-2,-5.4090333E-1,2.5261346E-2,2.499291E-2,-1.0948389E0,-3.3960767E-2,5.50873E-1,-1.4777824E0,-3.1518412E-3,-4.8681432E-1,4.330842E-2,-1.4998294E-1,-8.01757E-1,2.0676039E-3,-8.083661E-1,-5.539958E-3,-1.328912E0,-6.8139383E-3,7.182037E-1,-1.0921731E-1,-4.649052E-1,1.4861546E-2,-4.370145E-2,-3.8365554E-2,3.9694297E-1,-1.2530547E0,-5.8272445E-1,-6.556528E-2,6.0386304E-3,-8.7737404E-2,-2.280199E-2,4.4066552E-2,-7.721959E-3,-4.571634E-2,1.4913638E-2,-2.967448E-1,4.018298E-2,-9.590981E-2,-1.4541774E-2,-1.7448919E-1,-9.004892E-1,3.3411805E-2,-5.2348565E-2,-5.162388E-2,1.6781281E-1,-2.253902E-3,-1.0461682E0,-3.8440332E-1,4.604023E-2,-4.660642E-1,-1.4142507E0,-5.0587174E-2,6.0583972E-3,-4.769161E-2,1.8297685E-2,-1.2308119E-2,-8.628618E-2],"categories":[],"categories_nodes":[],"categories_segments":[],"categories_sizes":[],"default_left":[0,0,0,0,0,0,0,0,0,0,0,0,0,0,0,0,0,0,0,0,0,0,0,0,0,0,0,0,0,0,0,0,0,0,0,0,0,0,0,0,0,0,0,0,0,0,0,0,0,0,0,0,0,0,0,0,0,0,0,0,0,0,0,0,0,0,0,0,0,0,0],"id":2,"left_children":[1,3,5,7,9,11,-1,13,15,17,19,21,23,25,-1,27,-1,-1,29,-1,31,33,-1,35,-1,37,39,-1,41,-1,43,-1,45,-1,47,-1,-1,-1,49,51,53,-1,-1,-1,-1,-1,-1,-1,-1,55,-1,-1,-1,57,59,-1,-1,-1,61,-1,63,65,-1,67,69,-1,-1,-1,-1,-1,-1],"loss_changes":[4.5283165E0,4.742031E0,6.216673E0,2.4064808E0,5.0630445E0,5.030927E0,0E0,3.0307884E0,2.9289715E0,4.566209E0,3.131474E0,3.1366215E0,3.3077621E0,3.0043373E0,0E0,1.2352564E0,0E0,0E0,1.3126106E0,0E0,1.354773E0,3.9215183E0,0E0,1.6622322E0,0E0,4.337535E0,1.5659876E0,0E0,2.6522708E0,0E0,1.0690622E0,0E0,1.4101806E0,0E0,1.6807485E0,0E0,0E0,0E0,2.2113366E0,3.7435637E0,2.114091E0,0E0,0E0,0E0,0E0,0E0,0E0,0E0,0E0,3.09942E0,0E0,0E0,0E0,2.7881622E0,1.1497326E0,0E0,0E0,0E0,3.358058E0,0E0,1.083662E0,1.668283E0,0E0,2.2402253E0,1.2131395E0,0E0,0E0,0E0,0E0,0E0,0E0],"parents":[2147483647,0,0,1,1,2,2,3,3,4,4,5,5,7,7,8,8,9,9,10,10,11,11,12,12,13,13,15,15,18,18,20,20,21,21,23,23,25,25,26,26,28,28,30,30,32,32,34,34,38,38,39,39,40,40,49,49,53,53,54,54,58,58,60,60,61,61,63,63,64,64],"right_children":[2,4,6,8,10,12,-1,14,16,18,20,22,24,26,-1,28,-1,-1,30,-1,32,34,-1,36,-1,38,40,-1,42,-1,44,-1,46,-1,48,-1,-1,-1,50,52,54,-1,-1,-1,-1,-1,-1,-1,-1,56,-1,-1,-1,58,60,-1,-1,-1,62,-1,64,66,-1,68,70,-1,-1,-1,-1,-1,-1],"split_conditions":[4E0,3E0,5E0,5E0,1E0,2E0,-1.0791147E-1,4E0,2E0,1E0,1E0,4E0,2E0,1E0,-6.568607E-2,1E0,2.5261346E-2,2.499291E-2,1E0,-3.3960767E-2,1E0,1E0,-3.1518412E-3,4E0,4.330842E-2,1E0,1E0,2.0676039E-3,2E0,-5.539958E-3,1E0,-6.8139383E-3,5E0,-1.0921731E-1,1E0,1.4861546E-2,-4.370145E-2,-3.8365554E-2,1E0,3E0,3E0,-6.556528E-2,6.0386304E-3,-8.7737404E-2,-2.280199E-2,4.4066552E-2,-7.721959E-3,-4.571634E-2,1.4913638E-2,1E0,4.018298E-2,-9.590981E-2,-1.4541774E-2,1E0,1E0,3.3411805E-2,-5.2348565E-2,-5.162388E-2,2E0,-2.253902E-3,2E0,1E0,4.604023E-2,2E0,4E0,-5.0587174E-2,6.0583972E-3,-4.769161E-2,1.8297685E-2,-1.2308119E-2,-8.628618E-2],"split_indices":[2,2,8,8,3,5,0,8,5,6,8,7,10,4,0,10,0,0,5,0,7,1,0,7,0,1,6,0,2,0,1,0,7,0,6,0,0,0,9,7,7,0,0,0,0,0,0,0,0,8,0,0,0,10,10,0,0,0,5,0,5,0,0,2,7,0,0,0,0,0,0],"split_type":[0,0,0,0,0,0,0,0,0,0,0,0,0,0,0,0,0,0,0,0,0,0,0,0,0,0,0,0,0,0,0,0,0,0,0,0,0,0,0,0,0,0,0,0,0,0,0,0,0,0,0,0,0,0,0,0,0,0,0,0,0,0,0,0,0,0,0,0,0,0,0],"sum_hessian":[8.6690414E1,6.96387E1,1.7051716E1,5.088244E1,1.8756264E1,1.3635849E1,3.4158683E0,4.099661E1,9.885828E0,7.166794E0,1.158947E1,8.045376E0,5.590473E0,3.3173923E1,7.8226876E0,6.7173057E0,3.1685228E0,1.828898E0,5.337896E0,1.6581776E0,9.931292E0,5.898549E0,2.1468263E0,3.6194735E0,1.9709995E0,1.0944799E1,2.2229122E1,2.3804834E0,4.3368225E0,1.3088524E0,4.029043E0,1.981155E0,7.950137E0,2.7933714E0,3.1051779E0,1.2734125E0,2.346061E0,4.952192E0,5.9926076E0,5.72088E0,1.6508242E1,2.5468876E0,1.7899345E0,2.0289118E0,2.0001316E0,6.6896524E0,1.2604846E0,1.8296677E0,1.2755101E0,2.3148446E0,3.6777632E0,2.795179E0,2.9257011E0,7.9035697E0,8.604672E0,1.0603081E0,1.2545365E0,1.6789536E0,6.224616E0,1.442704E0,7.161968E0,3.8734617E0,2.351154E0,3.6599789E0,3.5019894E0,1.2817762E0,2.5916858E0,2.2150211E0,1.4449575E0,1.1141205E0,2.387869E0],"tree_param":{"num_deleted":"0","num_feature":"11","num_nodes":"71","size_leaf_vector":"1"}},{"base_weights":[-4.9048337E-1,-1.7816828E-1,-6.798967E-1,-3.816924E-1,2.977301E-1,-8.3136165E-1,-4.0753093E-1,-6.314047E-1,1.5294062E-1,5.685561E-1,-5.131455E-2,-3.2758963E-1,-5.179314E-2,-5.492677E-1,4.3390194E-1,-1.0731859E0,-2.960957E-1,4.0696636E-2,-1.18968666E-1,4.862223E-2,5.2123517E-2,-6.982186E-1,1.9199928E-2,-1.0120558E0,-2.4346408E-1,4.0862244E-2,-1.2571535E-2,-4.1167438E-1,-1.4987392E0,-5.5104252E-2,3.0567816E-1,-6.279548E-1,2.3397278E-2,3.608436E-2,-4.60915E-2,-5.4736983E-2,-5.8499216E-3,-4.053064E-1,-8.7397285E-2,-4.210681E-2,1.4266934E-1,1.4879713E-2,-4.115034E-2,-2.180581E-2,-9.693393E-2,3.0494986E-2,-3.6786415E-2,-6.412696E-2,7.696873E-3,1.9017203E-2,-6.0548335E-2,3.1771574E-2,-3.7510237E-1,-4.863038E-2,3.6939576E-2],"categories":[],"categories_nodes":[],"categories_segments":[],"categories_sizes":[],"default_left":[0,0,0,0,0,0,0,0,0,0,0,0,0,0,0,0,0,0,0,0,0,0,0,0,0,0,0,0,0,0,0,0,0,0,0,0,0,0,0,0,0,0,0,0,0,0,0,0,0,0,0,0,0,0,0],"id":3,"left_children":[1,3,5,7,9,11,13,15,17,19,-1,21,-1,23,25,27,29,-1,31,33,-1,35,-1,37,39,-1,-1,41,43,-1,45,47,-1,-1,-1,-1,-1,49,-1,-1,51,-1,-1,-1,-1,-1,-1,-1,-1,-1,-1,-1,53,-1,-1],"loss_changes":[5.266512E0,3.5750742E0,1.9853001E0,3.4969878E0,4.6236734E0,3.2913666E0,2.8733802E0,2.2829218E0,1.6989534E0,2.4127011E0,0E0,3.3374705E0,0E0,2.4921627E0,1.189069E0,1.4083033E0,5.8477073E0,0E0,2.441242E0,4.464243E0,0E0,1.7172935E0,0E0,2.587801E0,3.1180017E0,0E0,0E0,1.4688253E0,1.0241566E0,0E0,2.7576783E0,2.3863401E0,0E0,0E0,0E0,0E0,0E0,3.8457677E0,0E0,0E0,2.4679277E0,0E0,0E0,0E0,0E0,0E0,0E0,0E0,0E0,0E0,0E0,0E0,3.9731421E0,0E0,0E0],"parents":[2147483647,0,0,1,1,2,2,3,3,4,4,5,5,6,6,7,7,8,8,9,9,11,11,13,13,14,14,15,15,16,16,18,18,19,19,21,21,23,23,24,24,27,27,28,28,30,30,31,31,37,37,40,40,52,52],"right_children":[2,4,6,8,10,12,14,16,18,20,-1,22,-1,24,26,28,30,-1,32,34,-1,36,-1,38,40,-1,-1,42,44,-1,46,48,-1,-1,-1,-1,-1,50,-1,-1,52,-1,-1,-1,-1,-1,-1,-1,-1,-1,-1,-1,54,-1,-1],"split_conditions":[1E0,2E0,3E0,4E0,2E0,1E0,3E0,2E0,2E0,1E0,-5.131455E-2,2E0,-5.179314E-2,1E0,2E0,1E0,1E0,4.0696636E-2,2E0,2E0,5.2123517E-2,2E0,1.9199928E-2,2E0,1E0,4.0862244E-2,-1.2571535E-2,1E0,3E0,-5.5104252E-2,3E0,2E0,2.3397278E-2,3.608436E-2,-4.60915E-2,-5.4736983E-2,-5.8499216E-3,2E0,-8.7397285E-2,-4.210681E-2,3E0,1.4879713E-2,-4.115034E-2,-2.180581E-2,-9.693393E-2,3.0494986E-2,-3.6786415E-2,-6.412696E-2,7.696873E-3,1.9017203E-2,-6.0548335E-2,3.1771574E-2,2E0,-4.863038E-2,3.6939576E-2],"split_indices":[4,5,2,7,3,0,6,2,8,1,0,5,0,3,5,2,3,0,6,6,0,6,0,5,5,0,0,3,8,0,6,2,0,0,0,0,0,6,0,0,8,0,0,0,0,0,0,0,0,0,0,0,6,0,0],"split_type":[0,0,0,0,0,0,0,0,0,0,0,0,0,0,0,0,0,0,0,0,0,0,0,0,0,0,0,0,0,0,0,0,0,0,0,0,0,0,0,0,0,0,0,0,0,0,0,0,0,0,0,0,0,0,0],"sum_hessian":[9.0074295E1,3.473763E1,5.533667E1,2.4470467E1,1.0267159E1,3.4242016E1,2.1094654E1,1.6556417E1,7.914049E0,8.997353E0,1.2698071E0,1.063802E1,2.3603996E1,1.835075E1,2.7439036E0,6.19444E0,1.0361979E1,1.7256701E0,6.188379E0,4.8161387E0,4.181214E0,7.0071507E0,3.6308687E0,6.382418E0,1.1968332E1,1.6362071E0,1.1076965E0,3.1951108E0,2.9993293E0,4.074021E0,6.287957E0,3.2767642E0,2.911615E0,2.9951606E0,1.8209784E0,3.640204E0,3.366947E0,4.3481174E0,2.0343008E0,4.2296376E0,7.738695E0,1.2743077E0,1.9208031E0,1.4612229E0,1.5381064E0,5.18704E0,1.1009175E0,1.4350594E0,1.8417046E0,2.4686704E0,1.879447E0,3.8486764E0,3.890019E0,2.6144426E0,1.2755762E0],"tree_param":{"num_deleted":"0","num_feature":"11","num_nodes":"55","size_leaf_vector":"1"}},{"base_weights":[-6.2086356E-1,-1.1250186E0,-4.657731E-1,-1.2308806E0,-3.3721176E-1,-1.3999637E-2,-6.4572704E-1,-8.1537306E-1,-7.818531E-2,-5.9640456E-2,3.7284736E-2,4.6361342E-1,-1.1197295E0,-1.5239377E-1,-9.4006556E-1,7.950755E-3,-6.0256988E-2,6.094685E-1,-1.0258413E-2,-8.287127E-3,-1.461874E0,2.135275E-2,-8.019563E-2,-1.0503826E0,-4.4932774E-1,7.8179735E-1,8.09599E-2,-9.62756E-2,-6.1587947E-3,-5.946527E-1,3.9085254E-1,-1.4436969E0,-7.7468824E-1,1.09472364E-1,-6.008017E-2,-5.153503E-3,5.1058628E-2,3.4003466E-2,-1.6641537E-2,-7.096376E-2,9.6318E-3,-3.4694654E-1,7.0969945E-1,-5.207654E-1,-1.0351478E-1,-1.0913507E0,-3.045178E-1,-3.4139473E-2,4.9935797E-1,-3.423322E-2,3.4529574E-2,2.2090998E-1,-4.746705E-2,-1.3828305E-2,8.803524E-1,8.3434265E-3,-4.9033448E-2,-3.8949737E-1,-6.9297336E-2,-3.4487598E-2,1.3041817E-2,-7.899646E-3,4.2428456E-2,3.3508655E-2,-1.7433258E-2,5.476869E-2,-2.5159959E-3,-4.0523496E-2,1.5825566E-2],"categories":[],"categories_nodes":[],"categories_segments":[],"categories_sizes":[],"default_left":[0,0,0,0,0,0,0,0,0,0,0,0,0,0,0,0,0,0,0,0,0,0,0,0,0,0,0,0,0,0,0,0,0,0,0,0,0,0,0,0,0,0,0,0,0,0,0,0,0,0,0,0,0,0,0,0,0,0,0,0,0,0,0,0,0,0,0,0,0],"id":4,"left_children":[1,3,5,7,9,11,13,15,-1,-1,-1,17,19,21,23,-1,-1,25,-1,-1,27,29,-1,31,33,35,37,-1,-1,39,41,43,45,47,-1,49,-1,-1,-1,-1,-1,51,53,55,-1,57,59,-1,61,-1,-1,63,-1,-1,65,-1,-1,67,-1,-1,-1,-1,-1,-1,-1,-1,-1,-1,-1],"loss_changes":[6.492859E0,1.2867298E0,5.70916E0,1.1604538E0,4.405226E0,1.1640118E1,7.15744E0,3.959928E0,0E0,0E0,0E0,1.62852E0,1.9266243E0,5.0734835E0,1.2223225E0,0E0,0E0,1.1120911E0,0E0,0E0,2.7190647E0,4.5188866E0,0E0,1.5712814E0,3.280837E0,1.8167944E0,1.2895707E0,0E0,0E0,5.114888E0,3.1573243E0,4.1636047E0,2.1601315E0,1.9518628E0,0E0,2.0035903E0,0E0,0E0,0E0,0E0,0E0,1.7168196E0,1.7530336E0,1.7452967E0,0E0,1.4485054E0,1.949357E0,0E0,1.0689737E0,0E0,0E0,1.0215824E0,0E0,0E0,1.6330299E0,0E0,0E0,1.5148954E0,0E0,0E0,0E0,0E0,0E0,0E0,0E0,0E0,0E0,0E0,0E0],"parents":[2147483647,0,0,1,1,2,2,3,3,4,4,5,5,6,6,7,7,11,11,12,12,13,13,14,14,17,17,20,20,21,21,23,23,24,24,25,25,26,26,29,29,30,30,31,31,32,32,33,33,35,35,41,41,42,42,43,43,45,45,46,46,48,48,51,51,54,54,57,57],"right_children":[2,4,6,8,10,12,14,16,-1,-1,-1,18,20,22,24,-1,-1,26,-1,-1,28,30,-1,32,34,36,38,-1,-1,40,42,44,46,48,-1,50,-1,-1,-1,-1,-1,52,54,56,-1,58,60,-1,62,-1,-1,64,-1,-1,66,-1,-1,68,-1,-1,-1,-1,-1,-1,-1,-1,-1,-1,-1],"split_conditions":[1E0,5E0,1E0,3E0,2E0,2E0,1E0,1E0,-7.818531E-2,-5.9640456E-2,3.7284736E-2,5E0,1E0,2E0,5E0,7.950755E-3,-6.0256988E-2,5E0,-1.0258413E-2,-8.287127E-3,4E0,1E0,-8.019563E-2,1E0,4E0,1E0,1E0,-9.62756E-2,-6.1587947E-3,1E0,2E0,3E0,3E0,2E0,-6.008017E-2,2E0,5.1058628E-2,3.4003466E-2,-1.6641537E-2,-7.096376E-2,9.6318E-3,3E0,1E0,1E0,-1.0351478E-1,2E0,3E0,-3.4139473E-2,2E0,-3.423322E-2,3.4529574E-2,4E0,-4.746705E-2,-1.3828305E-2,5E0,8.3434265E-3,-4.9033448E-2,1E0,-6.9297336E-2,-3.4487598E-2,1.3041817E-2,-7.899646E-3,4.2428456E-2,3.3508655E-2,-1.7433258E-2,5.476869E-2,-2.5159959E-3,-4.0523496E-2,1.5825566E-2],"split_indices":[2,8,6,8,6,10,4,0,0,0,0,7,5,3,7,0,0,8,0,0,7,3,0,9,8,5,0,0,0,9,2,8,8,2,0,7,0,0,0,0,0,8,8,0,0,7,7,0,8,0,0,7,0,0,7,0,0,1,0,0,0,0,0,0,0,0,0,0,0],"split_type":[0,0,0,0,0,0,0,0,0,0,0,0,0,0,0,0,0,0,0,0,0,0,0,0,0,0,0,0,0,0,0,0,0,0,0,0,0,0,0,0,0,0,0,0,0,0,0,0,0,0,0,0,0,0,0,0,0,0,0,0,0,0,0,0,0,0,0,0,0],"sum_hessian":[8.8741516E1,1.9405571E1,6.9335945E1,1.661104E1,2.7945313E0,2.0058065E1,4.9277878E1,8.922201E0,7.688839E0,1.5044146E0,1.2901169E0,1.4413125E1,5.6449413E0,1.8981396E1,3.0296482E1,2.7184072E0,6.2037945E0,1.1905364E1,2.507761E0,1.8819642E0,3.7629774E0,1.7832176E1,1.1492188E0,2.380479E1,6.491691E0,8.616547E0,3.288817E0,2.4693935E0,1.2935838E0,6.4574313E0,1.1374745E1,8.063937E0,1.5740854E1,4.215122E0,2.2765691E0,2.2378948E0,6.378652E0,1.0806624E0,2.2081547E0,2.7618618E0,3.6955695E0,3.4057786E0,7.968966E0,4.0013523E0,4.062585E0,8.616447E0,7.124407E0,1.1424223E0,3.0726998E0,1.140213E0,1.0976818E0,2.0791323E0,1.3266463E0,1.0839262E0,6.8850403E0,1.858999E0,2.142353E0,3.233948E0,5.3824997E0,4.106315E0,3.0180914E0,1.2559974E0,1.8167024E0,1.063588E0,1.0155444E0,5.449113E0,1.435927E0,1.933248E0,1.3007E0],"tree_param":{"num_deleted":"0","num_feature":"11","num_nodes":"69","size_leaf_vector":"1"}},{"base_weights":[-5.4437697E-1,-1.0224979E0,-4.0624318E-1,-1.329268E0,3.4293205E-1,-6.9155294E-1,-1.0405307E-1,-1.01258196E-1,-9.734412E-1,-7.752137E-3,3.9384898E-2,-2.8891978E-1,-1.1353698E0,4.6950483E-1,-4.801981E-1,-6.394812E-1,-7.769852E-2,-6.445434E-1,-6.9879316E-2,-5.3524363E-1,-9.396413E-2,-1.9377394E-2,6.355176E-1,2.9185432E-1,-6.2425727E-1,-1.2990884E-1,-8.794506E-1,-9.6366763E-1,2.0132547E-2,-3.3044112E-1,2.2719108E-2,-5.358454E-2,-9.4191897E-1,-5.0062346E-1,3.6295418E-2,-7.935301E-3,4.485019E-2,4.1291796E-2,-1.9436266E-2,-5.923101E-2,-3.819347E-1,3.5080902E-2,-3.229757E-2,-6.457265E-4,-1.1371748E0,-9.16198E-3,-1.2565444E0,-5.3943294E-1,2.2029907E-2,2.0526512E-2,-2.6503298E-2,-8.648181E-2,-6.982728E-2,1.1335902E-2,-4.7179285E-2,1.9249547E-3,-6.3133025E-1,-8.934091E-2,-2.5706723E-2,-8.939172E-3,-8.007588E-2,-9.261964E-2,-5.8262866E-2,2.2970129E-2,-3.5154987E-2,1.8811627E-1,-1.0115603E0,-4.9214774E-1,3.721492E-2,-1.455377E-2,3.5181653E-2,-8.336229E-2,-4.1812757E-1,-4.3993935E-2,5.083339E-3,1.4968601E-2,-3.8371675E-2],"categories":[],"categories_nodes":[],"categories_segments":[],"categories_sizes":[],"default_left":[0,0,0,0,0,0,0,0,0,0,0,0,0,0,0,0,0,0,0,0,0,0,0,0,0,0,0,0,0,0,0,0,0,0,0,0,0,0,0,0,0,0,0,0,0,0,0,0,0,0,0,0,0,0,0,0,0,0,0,0,0,0,0,0,0,0,0,0,0,0,0,0,0,0,0,0,0],"id":5,"left_children":[1,3,5,7,9,11,13,-1,15,-1,-1,17,19,21,23,25,-1,27,29,31,-1,33,35,37,39,41,43,45,-1,47,-1,49,51,53,-1,-1,-1,-1,-1,-1,55,-1,-1,-1,57,-1,59,61,-1,-1,-1,-1,63,-1,-1,-1,65,-1,-1,-1,-1,67,-1,-1,-1,69,71,73,-1,-1,-1,-1,75,-1,-1,-1,-1],"loss_changes":[5.517809E0,8.614487E0,6.080412E0,2.0176182E0,1.0895932E0,6.1992283E0,7.9557123E0,0E0,1.4461136E0,0E0,0E0,1.5513276E0,6.5986786E0,1.2051456E0,2.6439686E0,1.0704455E0,0E0,2.9578342E0,2.03578E0,2.0701573E0,0E0,2.0477262E0,2.4270477E0,1.83357E0,2.1237383E0,2.2876496E0,1.417552E0,1.1842341E0,0E0,1.8168364E0,0E0,1.5481129E0,3.8702726E0,1.3239647E0,0E0,0E0,0E0,0E0,0E0,0E0,1.5678024E0,0E0,0E0,0E0,1.0773969E0,0E0,1.323206E0,2.173726E0,0E0,0E0,0E0,0E0,1.5963154E0,0E0,0E0,0E0,3.0870545E0,0E0,0E0,0E0,0E0,2.3213933E0,0E0,0E0,0E0,1.1410203E0,1.8348746E0,1.1392752E0,0E0,0E0,0E0,0E0,1.4203516E0,0E0,0E0,0E0,0E0],"parents":[2147483647,0,0,1,1,2,2,3,3,4,4,5,5,6,6,8,8,11,11,12,12,13,13,14,14,15,15,17,17,18,18,19,19,21,21,22,22,23,23,24,24,25,25,26,26,27,27,29,29,31,31,32,32,33,33,40,40,44,44,46,46,47,47,52,52,56,56,61,61,65,65,66,66,67,67,72,72],"right_children":[2,4,6,8,10,12,14,-1,16,-1,-1,18,20,22,24,26,-1,28,30,32,-1,34,36,38,40,42,44,46,-1,48,-1,50,52,54,-1,-1,-1,-1,-1,-1,56,-1,-1,-1,58,-1,60,62,-1,-1,-1,-1,64,-1,-1,-1,66,-1,-1,-1,-1,68,-1,-1,-1,70,72,74,-1,-1,-1,-1,76,-1,-1,-1,-1],"split_conditions":[1E0,5E0,1E0,1E0,2E0,3E0,1E0,-1.01258196E-1,4E0,-7.752137E-3,3.9384898E-2,1E0,2E0,1E0,1E0,1E0,-7.769852E-2,5E0,2E0,4E0,-9.396413E-2,2E0,2E0,1E0,1E0,2E0,1E0,1E0,2.0132547E-2,2E0,2.2719108E-2,3E0,3E0,2E0,3.6295418E-2,-7.935301E-3,4.485019E-2,4.1291796E-2,-1.9436266E-2,-5.923101E-2,2E0,3.5080902E-2,-3.229757E-2,-6.457265E-4,1E0,-9.16198E-3,2E0,4E0,2.2029907E-2,2.0526512E-2,-2.6503298E-2,-8.648181E-2,1E0,1.1335902E-2,-4.7179285E-2,1.9249547E-3,1E0,-8.934091E-2,-2.5706723E-2,-8.939172E-3,-8.007588E-2,3E0,-5.8262866E-2,2.2970129E-2,-3.5154987E-2,4E0,1E0,2E0,3.721492E-2,-1.455377E-2,3.5181653E-2,-8.336229E-2,3E0,-4.3993935E-2,5.083339E-3,1.4968601E-2,-3.8371675E-2],"split_indices":[2,8,1,10,6,2,4,0,7,0,0,9,6,3,7,3,0,8,5,2,0,6,2,0,5,7,8,0,0,10,0,7,7,8,0,0,0,0,0,0,8,0,0,0,6,0,2,8,0,0,0,0,6,0,0,0,10,0,0,0,0,8,0,0,0,8,9,6,0,0,0,0,8,0,0,0,0],"split_type":[0,0,0,0,0,0,0,0,0,0,0,0,0,0,0,0,0,0,0,0,0,0,0,0,0,0,0,0,0,0,0,0,0,0,0,0,0,0,0,0,0,0,0,0,0,0,0,0,0,0,0,0,0,0,0,0,0,0,0,0,0,0,0,0,0,0,0,0,0,0,0,0,0,0,0,0,0],"sum_hessian":[8.883608E1,1.8477589E1,7.035849E1,1.5109445E1,3.3681443E0,3.552729E1,3.48312E1,3.5247009E0,1.15847435E1,1.8963422E0,1.4718022E0,1.9493587E1,1.6033703E1,1.369715E1,2.1134052E1,8.6882305E0,2.8965137E0,6.6897883E0,1.2803799E1,9.826228E0,6.207475E0,3.696069E0,1.00010805E1,3.1620147E0,1.7972036E1,3.2750518E0,5.4131784E0,5.1884203E0,1.5013678E0,8.79989E0,4.003908E0,5.0165167E0,4.809711E0,2.4453418E0,1.250727E0,2.5744996E0,7.4265814E0,1.65224E0,1.5097747E0,4.2516437E0,1.3720393E1,1.1164477E0,2.1586041E0,1.4816372E0,3.931541E0,1.8593822E0,3.3290381E0,7.159637E0,1.6402531E0,2.6113524E0,2.4051642E0,2.0104508E0,2.7992601E0,1.1103427E0,1.3349992E0,5.423324E0,8.29707E0,1.0102519E0,2.9212892E0,1.1753328E0,2.1537054E0,4.847041E0,2.3125956E0,1.6744605E0,1.1247995E0,2.7898426E0,5.5072265E0,3.5596752E0,1.2873662E0,1.6714969E0,1.1183457E0,1.7567236E0,3.750503E0,1.8620864E0,1.6975887E0,1.2748404E0,2.4756627E0],"tree_param":{"num_deleted":"0","num_feature":"11","num_nodes":"77","size_leaf_vector":"1"}},{"base_weights":[-4.6892443E-1,-1.666968E-1,-5.9050924E-1,-2.2063728E-2,-6.246112E-1,-2.6089647E-1,-7.769248E-1,-3.8543308E-1,3.5811037E-1,-7.692779E-3,-6.636298E-2,-8.439449E-1,-7.4190214E-2,-8.5163677E-1,3.7919573E-2,-9.645882E-1,1.2905548E-3,-2.7197033E-1,3.167732E-2,-8.244438E-4,-6.89453E-2,-6.201626E-1,1.0438919E-1,-6.104012E-1,-1.2748814E0,-7.287895E-2,2.0344467E-4,-3.292535E-2,3.7657425E-1,-3.745679E-2,1.7225182E-2,1.7525103E-2,-1.128616E0,2.9486397E-2,-5.1468015E-3,-8.2928306E-1,1.0879765E-3,-6.594044E-1,-9.165251E-2,-3.211017E-3,4.2777862E-2,-7.807288E-3,-8.138974E-2,-7.023042E-2,-1.0325365E0,-5.120155E-2,1.7588556E-2,-7.367964E-2,1.8222205E-1,-2.605387E-2,1.7252007E-2,-2.1211386E-1,-6.42676E-2,3.9418887E-2,-1.7770544E-2,-4.549971E-2,1.7389577E-2],"categories":[],"categories_nodes":[],"categories_segments":[],"categories_sizes":[],"default_left":[0,0,0,0,0,0,0,0,0,0,0,0,0,0,0,0,0,0,0,0,0,0,0,0,0,0,0,0,0,0,0,0,0,0,0,0,0,0,0,0,0,0,0,0,0,0,0,0,0,0,0,0,0,0,0,0,0],"id":6,"left_children":[1,3,5,7,9,11,13,15,17,-1,-1,19,21,23,-1,25,27,29,-1,-1,-1,31,33,35,37,-1,-1,-1,39,-1,-1,-1,41,-1,-1,43,45,47,-1,-1,-1,-1,-1,49,51,-1,-1,-1,53,-1,-1,55,-1,-1,-1,-1,-1],"loss_changes":[3.0600834E0,1.7116532E0,3.5394516E0,3.0163126E0,1.8521862E0,2.4962902E0,5.0501194E0,2.4951406E0,2.0293708E0,0E0,0E0,2.4584517E0,1.9076144E0,3.0082626E0,0E0,2.135538E0,2.1484563E0,1.4213442E0,0E0,0E0,0E0,2.7658858E0,1.5799825E0,3.419303E0,3.1009598E0,0E0,0E0,0E0,1.2222291E0,0E0,0E0,0E0,1.3908281E0,0E0,0E0,2.8293734E0,3.1394444E0,5.427042E0,0E0,0E0,0E0,0E0,0E0,1.1244797E0,2.7895308E0,0E0,0E0,0E0,1.7765477E0,0E0,0E0,2.143374E0,0E0,0E0,0E0,0E0,0E0],"parents":[2147483647,0,0,1,1,2,2,3,3,4,4,5,5,6,6,7,7,8,8,11,11,12,12,13,13,15,15,16,16,17,17,21,21,22,22,23,23,24,24,28,28,32,32,35,35,36,36,37,37,43,43,44,44,48,48,51,51],"right_children":[2,4,6,8,10,12,14,16,18,-1,-1,20,22,24,-1,26,28,30,-1,-1,-1,32,34,36,38,-1,-1,-1,40,-1,-1,-1,42,-1,-1,44,46,48,-1,-1,-1,-1,-1,50,52,-1,-1,-1,54,-1,-1,56,-1,-1,-1,-1,-1],"split_conditions":[2E0,4E0,1E0,2E0,2E0,1E0,2E0,1E0,1E0,-7.692779E-3,-6.636298E-2,4E0,2E0,4E0,3.7919573E-2,2E0,1E0,3E0,3.167732E-2,-8.244438E-4,-6.89453E-2,1E0,1E0,5E0,1E0,-7.287895E-2,2.0344467E-4,-3.292535E-2,3E0,-3.745679E-2,1.7225182E-2,1.7525103E-2,2E0,2.9486397E-2,-5.1468015E-3,1E0,1E0,5E0,-9.165251E-2,-3.211017E-3,4.2777862E-2,-7.807288E-3,-8.138974E-2,1E0,1E0,-5.120155E-2,1.7588556E-2,-7.367964E-2,2E0,-2.605387E-2,1.7252007E-2,1E0,-6.42676E-2,3.9418887E-2,-1.7770544E-2,-4.549971E-2,1.7389577E-2],"split_indices":[7,2,4,2,10,2,1,7,5,0,0,8,8,8,0,6,10,8,0,0,0,0,10,7,1,0,0,0,8,0,0,0,2,0,0,2,2,8,0,0,0,0,0,3,10,0,0,0,6,0,0,5,0,0,0,0,0],"split_type":[0,0,0,0,0,0,0,0,0,0,0,0,0,0,0,0,0,0,0,0,0,0,0,0,0,0,0,0,0,0,0,0,0,0,0,0,0,0,0,0,0,0,0,0,0,0,0,0,0,0,0,0,0,0,0,0,0],"sum_hessian":[8.495476E1,2.5052334E1,5.9902424E1,1.9835453E1,5.21688E0,2.2506624E1,3.7395798E1,1.0134804E1,9.70065E0,3.853861E0,1.3630186E0,4.6052194E0,1.7901405E1,3.6085117E1,1.3106809E0,3.4595475E0,6.675256E0,2.9545279E0,6.7461224E0,2.213025E0,2.3921943E0,3.8026807E0,1.4098724E1,2.4540201E1,1.1544917E1,1.9581964E0,1.5013512E0,2.1465867E0,4.528669E0,1.5441356E0,1.4103923E0,1.413976E0,2.3887048E0,3.6678944E0,1.043083E1,1.7809235E1,6.7309656E0,6.5280232E0,5.016894E0,2.8092859E0,1.7193832E0,1.2555407E0,1.1331639E0,4.0457726E0,1.3763462E1,1.2262582E0,5.504708E0,2.9364338E0,3.5915895E0,1.8176327E0,2.22814E0,3.675368E0,1.0088094E1,1.4689882E0,2.1226013E0,1.3577588E0,2.3176093E0],"tree_param":{"num_deleted":"0","num_feature":"11","num_nodes":"57","size_leaf_vector":"1"}},{"base_weights":[-4.8166797E-1,-2.644843E-1,-5.9264374E-1,-1.24296725E-1,-6.7604285E-1,-6.1590695E-1,1.5176425E-2,-5.980411E-1,4.8336346E-2,-9.5508236E-1,4.1960154E-2,-2.336859E-1,-3.365388E-2,1.8556446E-1,-5.5916037E-2,3.0692104E-1,-3.5947633E-1,-8.413018E-2,-1.8592428E-1,3.294033E-2,-2.5824105E-2,3.7699822E-2,-7.916237E-1,4.0879644E-2,-3.3894412E-2,-2.333518E-1,2.6952246E-2,2.899442E-1,-4.0234394E-2,-4.2096626E-2,3.674124E-2,1.3530088E-2,-5.330327E-2,-6.9386125E-2,3.1606235E-2,-2.528188E-2,4.1811265E-2],"categories":[],"categories_nodes":[],"categories_segments":[],"categories_sizes":[],"default_left":[0,0,0,0,0,0,0,0,0,0,0,0,0,0,0,0,0,0,0,0,0,0,0,0,0,0,0,0,0,0,0,0,0,0,0,0,0],"id":7,"left_children":[1,3,5,7,9,11,-1,13,15,17,19,21,-1,23,-1,25,27,-1,29,-1,-1,-1,31,-1,-1,33,-1,35,-1,-1,-1,-1,-1,-1,-1,-1,-1],"loss_changes":[2.192585E0,1.9220002E0,1.5150471E0,2.2501936E0,1.764879E0,1.2067623E0,0E0,3.1953974E0,2.3071184E0,3.179852E0,1.5001943E0,5.916797E0,0E0,2.61818E0,0E0,1.792204E0,2.703628E0,0E0,3.1303194E0,0E0,0E0,0E0,2.2290773E0,0E0,0E0,5.5640697E0,0E0,2.252604E0,0E0,0E0,0E0,0E0,0E0,0E0,0E0,0E0,0E0],"parents":[2147483647,0,0,1,1,2,2,3,3,4,4,5,5,7,7,8,8,9,9,10,10,11,11,13,13,15,15,16,16,18,18,22,22,25,25,27,27],"right_children":[2,4,6,8,10,12,-1,14,16,18,20,22,-1,24,-1,26,28,-1,30,-1,-1,-1,32,-1,-1,34,-1,36,-1,-1,-1,-1,-1,-1,-1,-1,-1],"split_conditions":[1E0,4E0,2E0,1E0,2E0,1E0,1.5176425E-2,1E0,2E0,3E0,1E0,1E0,-3.365388E-2,1E0,-5.5916037E-2,1E0,3E0,-8.413018E-2,4E0,3.294033E-2,-2.5824105E-2,3.7699822E-2,1E0,4.0879644E-2,-3.3894412E-2,1E0,2.6952246E-2,1E0,-4.0234394E-2,-4.2096626E-2,3.674124E-2,1.3530088E-2,-5.330327E-2,-6.9386125E-2,3.1606235E-2,-2.528188E-2,4.1811265E-2],"split_indices":[4,2,1,2,5,8,0,3,6,8,0,0,0,1,0,3,8,0,7,0,0,0,5,0,0,9,0,1,0,0,0,0,0,0,0,0,0],"split_type":[0,0,0,0,0,0,0,0,0,0,0,0,0,0,0,0,0,0,0,0,0,0,0,0,0,0,0,0,0,0,0,0,0,0,0,0,0],"sum_hessian":[9.647388E1,3.376932E1,6.2704556E1,2.6160418E1,7.6089044E0,6.142285E1,1.2817022E0,6.328725E0,1.9831694E1,5.241639E0,2.3672652E0,8.653875E0,5.276898E1,2.7820098E0,3.5467148E0,1.22877245E1,7.543968E0,2.0834146E0,3.1582246E0,1.0394182E0,1.3278469E0,2.9970272E0,5.656848E0,1.6369271E0,1.1450826E0,3.6911688E0,8.596556E0,3.2101462E0,4.333822E0,1.8942351E0,1.2639894E0,1.164325E0,4.4925227E0,1.3230574E0,2.3681116E0,1.3371601E0,1.8729861E0],"tree_param":{"num_deleted":"0","num_feature":"11","num_nodes":"37","size_leaf_vector":"1"}},{"base_weights":[-3.738205E-1,-4.0360627E-1,2.9446593E-2,-2.575372E-1,-5.970869E-1,-3.4337533E-1,4.0306814E-2,-8.687374E-1,-3.9665142E-1,-2.0052351E-1,-9.003256E-1,-1.5430392E0,-4.3455467E-1,1.3114917E-1,-5.800055E-1,6.38116E-2,-6.002092E-1,-1.299198E0,1.459721E-1,-9.722518E-2,-1.5919011E-2,3.2719936E-2,-5.2291986E-2,-4.6423893E-2,5.524916E-1,8.692492E-2,-9.6476287E-1,1.5876542E-1,-3.3340048E-2,1.3878031E-1,-9.561553E-1,-3.087129E-1,-9.3204565E-2,3.8535837E-2,-3.0633822E-2,-4.413294E-1,4.355633E-2,4.9079917E-2,-1.6826151E-2,3.986351E-2,-2.253841E-1,-2.67185E-1,-6.24699E-2,-8.367431E-2,6.044731E-1,-2.715279E-2,2.7503062E-2,-2.5679579E-2,-1.264618E0,-3.8485657E-2,1.6412115E-2,1.913718E-1,-6.1333057E-2,-5.2193683E-1,1.9785142E-2,1.6601838E-2,-5.3110003E-2,-2.4208035E-2,2.1026869E-1,4.608215E-2,4.6103913E-2,2.6163606E-2,-3.8470287E-2,-1.8627716E-2,-7.4610725E-2,3.59655E-2,-1.6072428E-2,-4.9758535E-2,1.7035745E-2,-1.0666564E-1,3.0369652E-2,2.637137E-2,-3.0179618E-2,3.7587672E-2,-2.2401964E-2],"categories":[],"categories_nodes":[],"categories_segments":[],"categories_sizes":[],"default_left":[0,0,0,0,0,0,0,0,0,0,0,0,0,0,0,0,0,0,0,0,0,0,0,0,0,0,0,0,0,0,0,0,0,0,0,0,0,0,0,0,0,0,0,0,0,0,0,0,0,0,0,0,0,0,0,0,0,0,0,0,0,0,0,0,0,0,0,0,0,0,0,0,0,0,0],"id":8,"left_children":[1,3,-1,5,7,9,-1,11,13,15,17,19,21,23,25,27,29,31,33,-1,-1,35,-1,-1,37,39,41,43,-1,45,47,49,-1,-1,-1,51,-1,-1,-1,-1,53,55,-1,57,59,-1,-1,61,63,-1,-1,65,-1,67,-1,-1,-1,-1,69,-1,71,-1,-1,-1,-1,-1,-1,-1,-1,73,-1,-1,-1,-1,-1],"loss_changes":[2.878807E0,2.3877916E0,0E0,5.116092E0,1.720541E0,3.7772827E0,0E0,3.7980404E0,2.366236E0,4.357037E0,4.307988E0,2.12749E0,3.0838926E0,3.6011975E0,4.6381083E0,1.8755186E0,4.4383197E0,3.4785023E0,2.1891844E0,0E0,0E0,3.1748433E0,0E0,0E0,2.4574938E0,1.8236696E0,1.9173145E0,2.577226E0,0E0,2.0357997E0,3.1747217E0,1.3772628E0,0E0,0E0,0E0,2.7930245E0,0E0,0E0,0E0,0E0,1.2981864E0,2.523856E0,0E0,1.988041E0,1.4379454E0,0E0,0E0,1.9551821E0,1.1437225E0,0E0,0E0,1.2374095E0,0E0,2.152763E0,0E0,0E0,0E0,0E0,1.3155966E0,0E0,1.5945109E0,0E0,0E0,0E0,0E0,0E0,0E0,0E0,0E0,2.205717E0,0E0,0E0,0E0,0E0,0E0],"parents":[2147483647,0,0,1,1,3,3,4,4,5,5,7,7,8,8,9,9,10,10,11,11,12,12,13,13,14,14,15,15,16,16,17,17,18,18,21,21,24,24,25,25,26,26,27,27,29,29,30,30,31,31,35,35,40,40,41,41,43,43,44,44,47,47,48,48,51,51,53,53,58,58,60,60,69,69],"right_children":[2,4,-1,6,8,10,-1,12,14,16,18,20,22,24,26,28,30,32,34,-1,-1,36,-1,-1,38,40,42,44,-1,46,48,50,-1,-1,-1,52,-1,-1,-1,-1,54,56,-1,58,60,-1,-1,62,64,-1,-1,66,-1,68,-1,-1,-1,-1,70,-1,72,-1,-1,-1,-1,-1,-1,-1,-1,74,-1,-1,-1,-1,-1],"split_conditions":[2E0,3E0,2.9446593E-2,2E0,1E0,5E0,4.0306814E-2,1E0,1E0,1E0,2E0,4E0,2E0,1E0,1E0,3E0,1E0,2E0,2E0,-9.722518E-2,-1.5919011E-2,4E0,-5.2291986E-2,-4.6423893E-2,4E0,1E0,1E0,2E0,-3.3340048E-2,1E0,1E0,1E0,-9.3204565E-2,3.8535837E-2,-3.0633822E-2,2E0,4.355633E-2,4.9079917E-2,-1.6826151E-2,3.986351E-2,2E0,4E0,-6.24699E-2,1E0,2E0,-2.715279E-2,2.7503062E-2,2E0,1E0,-3.8485657E-2,1.6412115E-2,2E0,-6.1333057E-2,2E0,1.9785142E-2,1.6601838E-2,-5.3110003E-2,-2.4208035E-2,3E0,4.608215E-2,4E0,2.6163606E-2,-3.8470287E-2,-1.8627716E-2,-7.4610725E-2,3.59655E-2,-1.6072428E-2,-4.9758535E-2,1.7035745E-2,1E0,3.0369652E-2,2.637137E-2,-3.0179618E-2,3.7587672E-2,-2.2401964E-2],"split_indices":[1,2,0,3,3,7,0,0,10,1,5,8,6,5,9,6,4,8,6,0,0,7,0,0,7,8,0,6,0,7,10,5,0,0,0,10,0,0,0,0,6,8,0,2,2,0,0,5,5,0,0,8,0,10,0,0,0,0,7,0,7,0,0,0,0,0,0,0,0,7,0,0,0,0,0],"split_type":[0,0,0,0,0,0,0,0,0,0,0,0,0,0,0,0,0,0,0,0,0,0,0,0,0,0,0,0,0,0,0,0,0,0,0,0,0,0,0,0,0,0,0,0,0,0,0,0,0,0,0,0,0,0,0,0,0,0,0,0,0,0,0,0,0,0,0,0,0,0,0,0,0,0,0],"sum_hessian":[9.110072E1,8.893017E1,2.1705554E0,5.200206E1,3.6928112E1,4.8745495E1,3.256566E0,1.4263085E1,2.2665024E1,3.9877403E1,8.86809E0,4.586378E0,9.676707E0,5.9170384E0,1.6747986E1,2.4508722E1,1.5368681E1,6.2454667E0,2.6226234E0,3.0113976E0,1.5749804E0,6.0207996E0,3.655908E0,1.3409891E0,4.5760493E0,6.410404E0,1.0337582E1,2.2382484E1,2.1262367E0,5.19445E0,1.0174232E1,2.8299403E0,3.4155264E0,1.429515E0,1.1931084E0,4.148677E0,1.8721228E0,3.016104E0,1.5599455E0,1.4834594E0,4.9269447E0,3.5575364E0,6.7800455E0,1.5023059E1,7.359426E0,1.8338416E0,3.3606086E0,2.802813E0,7.371418E0,1.520815E0,1.3091252E0,2.7164724E0,1.4322044E0,3.4427576E0,1.4841871E0,2.3606272E0,1.1969092E0,6.085148E0,8.937912E0,4.2785106E0,3.0809157E0,1.7831044E0,1.0197088E0,2.0344205E0,5.3369975E0,1.1401037E0,1.5763687E0,2.123971E0,1.3187869E0,5.377599E0,3.560313E0,1.8778877E0,1.2030278E0,1.1880307E0,4.189568E0],"tree_param":{"num_deleted":"0","num_feature":"11","num_nodes":"75","size_leaf_vector":"1"}},{"base_weights":[-4.133572E-1,-3.4038106E-1,-9.360711E-1,-1.15144975E-1,-4.7078195E-1,2.300522E-3,-1.2186974E0,-5.207602E-1,7.2289826E-3,-1.5093607E-1,-6.3224655E-1,-9.679098E-2,-7.1397775E-1,-1.011237E0,5.799093E-3,-4.207195E-1,2.372975E-2,-1.1959516E-1,-7.465814E-1,-6.748995E-2,4.9852015E-4,1.2985719E-3,-1.3419651E0,-3.986818E-2,3.714047E-2,-4.8656434E-2,-2.0506921E-1,-4.3499447E-2,3.6844888E-1,-1.1362286E0,-3.7679374E-1,-9.045678E-2,-1.2968339E-2,2.2003544E-2,-4.5815197E-1,3.967525E-2,-2.6209733E-2,-1.5986378E-1,-7.1877226E-2,-1.0136503E0,-2.2586044E-2,9.413942E-3,-6.772849E-1,-7.1581475E-2,4.4146005E-2,-7.803291E-2,-2.4725792E-3,2.9463148E-2,-5.427592E-1,-4.6655633E-2,3.5289046E-3,1.1225804E-2,-9.236352E-1,-7.022836E-2,1.30191045E-2],"categories":[],"categories_nodes":[],"categories_segments":[],"categories_sizes":[],"default_left":[0,0,0,0,0,0,0,0,0,0,0,0,0,0,0,0,0,0,0,0,0,0,0,0,0,0,0,0,0,0,0,0,0,0,0,0,0,0,0,0,0,0,0,0,0,0,0,0,0,0,0,0,0,0,0],"id":9,"left_children":[1,3,5,7,9,-1,11,13,-1,15,17,-1,19,21,23,25,-1,27,29,-1,-1,-1,31,-1,-1,-1,33,-1,35,37,39,-1,-1,-1,41,-1,-1,43,-1,45,47,-1,49,-1,-1,-1,-1,-1,51,-1,-1,-1,53,-1,-1],"loss_changes":[3.141343E0,2.329647E0,2.9817057E0,3.3499262E0,2.5425196E0,0E0,1.5935488E0,3.195784E0,0E0,3.3131247E0,1.8819237E0,0E0,2.9638128E0,2.2304296E0,4.706779E0,1.3991337E0,0E0,3.0025842E0,3.5064497E0,0E0,0E0,0E0,1.9948273E0,0E0,0E0,0E0,1.9844155E0,0E0,2.3661582E0,3.535963E0,3.4750965E0,0E0,0E0,0E0,1.3078448E0,0E0,0E0,6.7594504E0,0E0,2.833847E0,3.8167489E0,0E0,1.2980728E0,0E0,0E0,0E0,0E0,0E0,2.094964E0,0E0,0E0,0E0,2.9349923E0,0E0,0E0],"parents":[2147483647,0,0,1,1,2,2,3,3,4,4,6,6,7,7,9,9,10,10,12,12,13,13,14,14,15,15,17,17,18,18,22,22,26,26,28,28,29,29,30,30,34,34,37,37,39,39,40,40,42,42,48,48,52,52],"right_children":[2,4,6,8,10,-1,12,14,-1,16,18,-1,20,22,24,26,-1,28,30,-1,-1,-1,32,-1,-1,-1,34,-1,36,38,40,-1,-1,-1,42,-1,-1,44,-1,46,48,-1,50,-1,-1,-1,-1,-1,52,-1,-1,-1,54,-1,-1],"split_conditions":[3E0,1E0,1E0,1E0,2E0,2.300522E-3,1E0,1E0,7.2289826E-3,4E0,1E0,-9.679098E-2,1E0,1E0,2E0,1E0,2.372975E-2,1E0,3E0,-6.748995E-2,4.9852015E-4,1.2985719E-3,4E0,-3.986818E-2,3.714047E-2,-4.8656434E-2,2E0,-4.3499447E-2,5E0,1E0,1E0,-9.045678E-2,-1.2968339E-2,2.2003544E-2,1E0,3.967525E-2,-2.6209733E-2,3E0,-7.1877226E-2,1E0,2E0,9.413942E-3,1E0,-7.1581475E-2,4.4146005E-2,-7.803291E-2,-2.4725792E-3,2.9463148E-2,1E0,-4.6655633E-2,3.5289046E-3,1.1225804E-2,2E0,-7.022836E-2,1.30191045E-2],"split_indices":[6,4,5,9,7,0,2,3,0,8,2,0,1,5,2,2,0,6,2,0,0,0,2,0,0,0,2,0,7,10,5,0,0,0,6,0,0,7,0,1,5,0,7,0,0,0,0,0,6,0,0,0,6,0,0],"split_type":[0,0,0,0,0,0,0,0,0,0,0,0,0,0,0,0,0,0,0,0,0,0,0,0,0,0,0,0,0,0,0,0,0,0,0,0,0,0,0,0,0,0,0,0,0,0,0,0,0,0,0,0,0,0,0],"sum_hessian":[8.970405E1,8.016358E1,9.5404625E0,3.0083904E1,5.0079678E1,2.319114E0,7.221349E0,1.1351336E1,1.8732569E1,1.7449228E1,3.263045E1,1.8117378E0,5.409611E0,5.4004693E0,5.9508657E0,1.2420044E1,5.0291834E0,6.323466E0,2.6306986E1,2.419842E0,2.9897692E0,1.5284648E0,3.8720047E0,2.8084483E0,3.1424174E0,2.500988E0,9.919056E0,2.183545E0,4.1399207E0,1.1800298E1,1.4506688E1,2.2360034E0,1.6360013E0,2.586612E0,7.332444E0,2.8797243E0,1.2601962E0,3.1438193E0,8.656478E0,4.519322E0,9.987367E0,1.8919853E0,5.440459E0,1.2483978E0,1.8954215E0,2.4887826E0,2.0305393E0,4.5282416E0,5.459125E0,3.8691878E0,1.571271E0,1.9471385E0,3.5119865E0,2.3650587E0,1.1469277E0],"tree_param":{"num_deleted":"0","num_feature":"11","num_nodes":"55","size_leaf_vector":"1"}},{"base_weights":[-4.6348715E-1,-6.601717E-1,-3.0894345E-1,-7.279853E-1,3.915506E-2,-1.1527888E-1,-5.992116E-1,-1.1208831E0,-4.780821E-1,1.9875781E-1,-4.5685792E-1,-7.9724723E-1,3.3411554E-1,-7.031304E-2,-4.4828972E-1,8.110927E-2,-7.3897123E-1,-4.0866643E-2,5.0220754E-2,-2.1910186E-1,-4.815449E-2,-1.0006065E0,-3.9554662E-1,3.9955333E-2,-9.465939E-3,-6.677029E-2,3.229665E-2,-1.490442E-1,3.896746E-2,-9.371866E-1,-1.513359E-1,-6.213115E-1,2.572864E-1,1.9126011E-2,-5.0891423E-1,-1.5110122E-4,-6.225593E-2,-6.2232543E-2,2.9546008E-4,1.4285968E-1,-4.0606868E-2,-2.1441878E-1,-6.425923E-2,4.1908745E-2,-7.568813E-1,1.3839334E-2,-4.8249375E-2,-3.9983597E-1,3.0597404E-2,1.0718454E-3,-3.8822014E-2,-3.9674405E-2,2.4438396E-2,1.285011E-2,-2.8894326E-2,-7.088133E-2,1.6097754E-2,-5.4793127E-2,2.1108638E-2,3.5077088E-2,-2.759759E-2],"categories":[],"categories_nodes":[],"categories_segments":[],"categories_sizes":[],"default_left":[0,0,0,0,0,0,0,0,0,0,0,0,0,0,0,0,0,0,0,0,0,0,0,0,0,0,0,0,0,0,0,0,0,0,0,0,0,0,0,0,0,0,0,0,0,0,0,0,0,0,0,0,0,0,0,0,0,0,0,0,0],"id":10,"left_children":[1,3,5,7,-1,9,11,13,15,17,19,21,23,-1,25,27,29,31,-1,33,-1,35,37,-1,-1,-1,-1,39,-1,41,43,45,47,-1,49,-1,-1,-1,-1,51,-1,53,-1,-1,55,-1,-1,57,-1,59,-1,-1,-1,-1,-1,-1,-1,-1,-1,-1,-1],"loss_changes":[2.548027E0,4.3829803E0,2.8866506E0,3.1684341E0,0E0,3.6066155E0,4.111518E0,2.042122E0,3.6784754E0,3.472259E0,1.7150574E0,1.0302925E0,1.2091055E0,0E0,6.313818E0,1.5290217E0,1.8396902E0,2.6968865E0,0E0,2.3188977E0,0E0,2.6638136E0,2.5711284E0,0E0,0E0,0E0,0E0,1.5583754E0,0E0,2.875599E0,3.920074E0,1.8929741E0,2.6666193E0,0E0,1.1811864E0,0E0,0E0,0E0,0E0,2.339093E0,0E0,1.0518509E0,0E0,0E0,3.2558818E0,0E0,0E0,2.8928487E0,0E0,1.9271944E0,0E0,0E0,0E0,0E0,0E0,0E0,0E0,0E0,0E0,0E0,0E0],"parents":[2147483647,0,0,1,1,2,2,3,3,5,5,6,6,7,7,8,8,9,9,10,10,11,11,12,12,14,14,15,15,16,16,17,17,19,19,21,21,22,22,27,27,29,29,30,30,31,31,32,32,34,34,39,39,41,41,44,44,47,47,49,49],"right_children":[2,4,6,8,-1,10,12,14,16,18,20,22,24,-1,26,28,30,32,-1,34,-1,36,38,-1,-1,-1,-1,40,-1,42,44,46,48,-1,50,-1,-1,-1,-1,52,-1,54,-1,-1,56,-1,-1,58,-1,60,-1,-1,-1,-1,-1,-1,-1,-1,-1,-1,-1],"split_conditions":[2E0,2E0,4E0,1E0,3.915506E-2,2E0,5E0,2E0,2E0,5E0,2E0,3E0,1E0,-7.031304E-2,1E0,5E0,5E0,1E0,5.0220754E-2,2E0,-4.815449E-2,1E0,1E0,3.9955333E-2,-9.465939E-3,-6.677029E-2,3.229665E-2,4E0,3.896746E-2,1E0,1E0,2E0,1E0,1.9126011E-2,1E0,-1.5110122E-4,-6.225593E-2,-6.2232543E-2,2.9546008E-4,1E0,-4.0606868E-2,2E0,-6.425923E-2,4.1908745E-2,2E0,1.3839334E-2,-4.8249375E-2,1E0,3.0597404E-2,4E0,-3.8822014E-2,-3.9674405E-2,2.4438396E-2,1.285011E-2,-2.8894326E-2,-7.088133E-2,1.6097754E-2,-5.4793127E-2,2.1108638E-2,3.5077088E-2,-2.759759E-2],"split_indices":[2,0,2,9,0,6,7,5,8,8,10,7,9,0,2,7,8,5,0,7,0,8,10,0,0,0,0,7,0,4,0,7,4,0,4,0,0,0,0,10,0,7,0,0,6,0,0,3,0,7,0,0,0,0,0,0,0,0,0,0,0],"split_type":[0,0,0,0,0,0,0,0,0,0,0,0,0,0,0,0,0,0,0,0,0,0,0,0,0,0,0,0,0,0,0,0,0,0,0,0,0,0,0,0,0,0,0,0,0,0,0,0,0,0,0,0,0,0,0,0,0,0,0,0,0],"sum_hessian":[8.953667E1,3.795736E1,5.1579304E1,3.6727295E1,1.2300674E0,3.177585E1,1.9803452E1,1.2923577E1,2.3803717E1,1.6773218E1,1.5002632E1,1.64573E1,3.3461506E0,8.307816E0,4.615762E0,7.791809E0,1.6011908E1,1.365972E1,3.1134984E0,1.1183171E1,3.8194613E0,9.936209E0,6.521092E0,1.4930996E0,1.853051E0,2.4273932E0,2.1883688E0,6.451735E0,1.3400743E0,1.1528412E1,4.4834948E0,4.2676277E0,9.392093E0,3.5317388E0,7.6514325E0,2.1552732E0,7.780936E0,1.4191525E0,5.101939E0,5.02445E0,1.4272851E0,4.271971E0,7.256441E0,1.556265E0,2.9272296E0,1.2349834E0,3.0326445E0,3.2475712E0,6.144521E0,2.9754026E0,4.6760297E0,1.0063659E0,4.018084E0,1.9873178E0,2.2846534E0,1.6206263E0,1.3066034E0,1.578144E0,1.6694274E0,1.1942223E0,1.7811804E0],"tree_param":{"num_deleted":"0","num_feature":"11","num_nodes":"61","size_leaf_vector":"1"}},{"base_weights":[-2.993509E-1,-6.8897635E-1,-1.9965485E-1,-1.18752114E-1,-9.674152E-1,1.1062247E-1,-3.1807926E-1,1.1296718E-2,-3.5510033E-2,-6.7005485E-2,-3.1712505E-1,-2.7710447E-1,5.2009827E-1,6.357744E-2,-5.4294825E-1,-4.178714E-2,2.1622695E-2,2.9467383E-1,-6.924701E-1,-1.14000095E-2,4.4975273E-2,-3.221755E-1,2.7886403E-1,-1.8486883E-1,-7.3411894E-1,-3.748802E-2,4.5183864E-1,-3.4662098E-2,3.3731524E-2,-5.5549342E-2,-2.1595924E-1,-3.0120015E-2,4.811367E-3,2.3694256E-2,-5.099439E-1,-6.299722E-1,9.593223E-2,-2.2904277E-1,-1.0640266E0,4.2149823E-2,-1.3674085E-2,-4.7287207E-2,1.7525194E-2,1.52401915E-2,-5.6836534E-2,-4.3970965E-2,1.1616081E-2,2.827389E-1,-3.568874E-2,4.5227927E-1,-5.1071966E-1,-8.301758E-2,-7.1768767E-1,2.9752657E-2,-1.1708797E-2,4.2438876E-2,-1.40527105E-2,1.45600755E-2,-3.4743655E-2,5.2845175E-3,-9.739231E-1,-5.9046604E-2,3.473186E-5],"categories":[],"categories_nodes":[],"categories_segments":[],"categories_sizes":[],"default_left":[0,0,0,0,0,0,0,0,0,0,0,0,0,0,0,0,0,0,0,0,0,0,0,0,0,0,0,0,0,0,0,0,0,0,0,0,0,0,0,0,0,0,0,0,0,0,0,0,0,0,0,0,0,0,0,0,0,0,0,0,0,0,0],"id":11,"left_children":[1,3,5,7,9,11,13,-1,-1,-1,15,17,19,21,23,-1,25,27,29,-1,-1,31,33,35,37,-1,39,-1,-1,-1,41,-1,-1,-1,43,45,47,49,51,-1,-1,-1,-1,-1,-1,-1,-1,53,-1,55,57,-1,59,-1,-1,-1,-1,-1,-1,-1,61,-1,-1],"loss_changes":[3.6637592E0,2.986022E0,2.9501326E0,1.699166E0,2.7215147E0,3.7411199E0,4.9842772E0,0E0,0E0,0E0,1.0791626E0,3.122778E0,3.4313197E0,1.9399607E0,2.35577E0,0E0,1.8747218E0,2.6720567E0,1.2392099E0,0E0,0E0,1.0479622E0,2.5236566E0,1.8108081E0,3.6540232E0,0E0,1.250545E0,0E0,0E0,0E0,2.2783558E0,0E0,0E0,0E0,2.0941057E0,1.3979976E0,1.6319721E0,2.249245E0,1.674036E0,0E0,0E0,0E0,0E0,0E0,0E0,0E0,0E0,1.4952624E0,0E0,1.2871765E0,1.3704863E0,0E0,2.3263807E0,0E0,0E0,0E0,0E0,0E0,0E0,0E0,1.6421671E0,0E0,0E0],"parents":[2147483647,0,0,1,1,2,2,3,3,4,4,5,5,6,6,10,10,11,11,12,12,13,13,14,14,16,16,17,17,18,18,21,21,22,22,23,23,24,24,26,26,30,30,34,34,35,35,36,36,37,37,38,38,47,47,49,49,50,50,52,52,60,60],"right_children":[2,4,6,8,10,12,14,-1,-1,-1,16,18,20,22,24,-1,26,28,30,-1,-1,32,34,36,38,-1,40,-1,-1,-1,42,-1,-1,-1,44,46,48,50,52,-1,-1,-1,-1,-1,-1,-1,-1,54,-1,56,58,-1,60,-1,-1,-1,-1,-1,-1,-1,62,-1,-1],"split_conditions":[1E0,1E0,1E0,1E0,2E0,3E0,1E0,1.1296718E-2,-3.5510033E-2,-6.7005485E-2,1E0,1E0,1E0,1E0,1E0,-4.178714E-2,1E0,1E0,1E0,-1.14000095E-2,4.4975273E-2,1E0,3E0,1E0,1E0,-3.748802E-2,3E0,-3.4662098E-2,3.3731524E-2,-5.5549342E-2,1E0,-3.0120015E-2,4.811367E-3,2.3694256E-2,4E0,4E0,3E0,1E0,1E0,4.2149823E-2,-1.3674085E-2,-4.7287207E-2,1.7525194E-2,1.52401915E-2,-5.6836534E-2,-4.3970965E-2,1.1616081E-2,4E0,-3.568874E-2,3E0,2E0,-8.301758E-2,1E0,2.9752657E-2,-1.1708797E-2,4.2438876E-2,-1.40527105E-2,1.45600755E-2,-3.4743655E-2,5.2845175E-3,4E0,-5.9046604E-2,3.473186E-5],"split_indices":[2,3,6,1,6,7,4,0,0,0,0,1,0,3,0,0,9,4,3,0,0,1,6,5,3,0,6,0,0,0,7,0,0,0,8,7,6,10,10,0,0,0,0,0,0,0,0,7,0,8,7,0,5,0,0,0,0,0,0,0,2,0,0],"split_type":[0,0,0,0,0,0,0,0,0,0,0,0,0,0,0,0,0,0,0,0,0,0,0,0,0,0,0,0,0,0,0,0,0,0,0,0,0,0,0,0,0,0,0,0,0,0,0,0,0,0,0,0,0,0,0,0,0,0,0,0,0,0,0],"sum_hessian":[9.68608E1,1.8530472E1,7.833033E1,6.5477033E0,1.1982768E1,2.1656143E1,5.667419E1,4.5272784E0,2.020425E0,6.942877E0,5.0398917E0,1.1289522E1,1.0366621E1,2.1277842E1,3.5396347E1,1.4115996E0,3.6282918E0,4.872614E0,6.4169087E0,3.6226668E0,6.743954E0,7.4436784E0,1.3834164E1,1.3004611E1,2.2391735E1,1.0331272E0,2.5951645E0,1.1244444E0,3.7481694E0,2.707459E0,3.7094498E0,4.194593E0,3.2490854E0,1.1411963E1,2.4222004E0,4.549548E0,8.455063E0,9.516539E0,1.2875197E1,1.5805502E0,1.0146145E0,1.3284382E0,2.3810117E0,1.2765467E0,1.1456537E0,3.5133383E0,1.0362097E0,7.3988867E0,1.0561761E0,2.606427E0,6.9101114E0,3.3364701E0,9.538728E0,4.5179987E0,2.880888E0,1.5895607E0,1.0168662E0,1.1819319E0,5.7281795E0,2.403365E0,7.1353626E0,5.7107177E0,1.4246447E0],"tree_param":{"num_deleted":"0","num_feature":"11","num_nodes":"63","size_leaf_vector":"1"}},{"base_weights":[-3.461459E-1,-7.468624E-1,-2.5668362E-1,-2.6221884E-2,-1.4611541E0,-1.9127814E-2,-4.0339652E-1,-1.1067804E-2,-9.471709E-2,-3.656235E-1,1.9803515E-1,-6.77339E-2,-5.8133835E-1,-9.231823E-1,1.8774629E-1,3.2849535E-2,-2.0753127E-2,-7.354332E-1,2.1734814E-1,-7.5841874E-1,-4.6264652E-2,2.361976E-3,-6.1684646E-2,2.6746739E-2,-2.4151468E-1,3.9341754E-1,-2.5147942E-1,-6.4872645E-2,6.6984214E-2,3.9259393E-2,-1.4920273E-1,-4.9589857E-2,-3.9094064E-1,4.2344507E-2,-3.3975503E-1,1.0510209E-2,-3.8812462E-2,4.3943744E-2,-9.6514314E-2,1.3809352E-3,-4.553139E-2,-2.9738575E-2,3.5978287E-2,1.9939112E-2,-2.0468244E-2,2.2280017E-1,-9.797678E-1,-8.144689E-1,1.4924613E-2,-4.7162082E-2,3.803448E-2,-6.007979E-1,1.9472882E-2,3.283673E-2,-3.465109E-2,-6.8416156E-2,-3.4124613E-1,-5.6510903E-2,-1.8324059E-3,4.0397514E-3,-5.8018822E-2,1.466887E-2,-3.6805373E-2],"categories":[],"categories_nodes":[],"categories_segments":[],"categories_sizes":[],"default_left":[0,0,0,0,0,0,0,0,0,0,0,0,0,0,0,0,0,0,0,0,0,0,0,0,0,0,0,0,0,0,0,0,0,0,0,0,0,0,0,0,0,0,0,0,0,0,0,0,0,0,0,0,0,0,0,0,0,0,0,0,0,0,0],"id":12,"left_children":[1,3,5,-1,7,9,11,-1,-1,13,15,17,19,21,23,-1,25,27,29,31,33,-1,-1,-1,35,37,39,-1,41,-1,43,-1,45,-1,47,-1,-1,-1,49,51,-1,-1,-1,-1,-1,53,55,57,-1,-1,-1,59,-1,-1,-1,-1,61,-1,-1,-1,-1,-1,-1],"loss_changes":[3.3304453E0,1.9994068E0,2.8446755E0,0E0,1.499959E0,2.5026112E0,2.9795961E0,0E0,0E0,4.1208735E0,2.0723584E0,3.7086275E0,3.0823603E0,2.0295858E0,1.2100439E0,0E0,1.5183073E0,2.7054734E0,2.997233E0,1.7267475E0,2.7114267E0,0E0,0E0,0E0,1.1129025E0,1.4414716E0,1.6928449E0,0E0,1.8714874E0,0E0,1.4818697E0,0E0,4.275597E0,0E0,2.5678964E0,0E0,0E0,0E0,3.432053E0,2.1815085E0,0E0,0E0,0E0,0E0,0E0,2.9635422E0,1.0006022E0,1.1051157E0,0E0,0E0,0E0,1.4894049E0,0E0,0E0,0E0,0E0,1.1105559E0,0E0,0E0,0E0,0E0,0E0,0E0],"parents":[2147483647,0,0,1,1,2,2,4,4,5,5,6,6,9,9,10,10,11,11,12,12,13,13,14,14,16,16,17,17,18,18,19,19,20,20,24,24,25,25,26,26,28,28,30,30,32,32,34,34,38,38,39,39,45,45,46,46,47,47,51,51,56,56],"right_children":[2,4,6,-1,8,10,12,-1,-1,14,16,18,20,22,24,-1,26,28,30,32,34,-1,-1,-1,36,38,40,-1,42,-1,44,-1,46,-1,48,-1,-1,-1,50,52,-1,-1,-1,-1,-1,54,56,58,-1,-1,-1,60,-1,-1,-1,-1,62,-1,-1,-1,-1,-1,-1],"split_conditions":[1E0,4E0,1E0,-2.6221884E-2,1E0,2E0,2E0,-1.1067804E-2,-9.471709E-2,1E0,1E0,1E0,5E0,1E0,3E0,3.2849535E-2,1E0,1E0,1E0,4E0,1E0,2.361976E-3,-6.1684646E-2,2.6746739E-2,4E0,4E0,5E0,-6.4872645E-2,1E0,3.9259393E-2,1E0,-4.9589857E-2,2E0,4.2344507E-2,3E0,1.0510209E-2,-3.8812462E-2,4.3943744E-2,5E0,2E0,-4.553139E-2,-2.9738575E-2,3.5978287E-2,1.9939112E-2,-2.0468244E-2,4E0,5E0,2E0,1.4924613E-2,-4.7162082E-2,3.803448E-2,3E0,1.9472882E-2,3.283673E-2,-3.465109E-2,-6.8416156E-2,1E0,-5.6510903E-2,-1.8324059E-3,4.0397514E-3,-5.8018822E-2,1.466887E-2,-3.6805373E-2],"split_indices":[7,2,4,0,0,2,8,0,0,9,5,6,8,8,8,0,0,3,3,7,2,0,0,0,7,7,8,0,1,0,0,0,6,0,2,0,0,0,7,8,0,0,0,0,0,8,7,5,0,0,0,7,0,0,0,0,9,0,0,0,0,0,0],"split_type":[0,0,0,0,0,0,0,0,0,0,0,0,0,0,0,0,0,0,0,0,0,0,0,0,0,0,0,0,0,0,0,0,0,0,0,0,0,0,0,0,0,0,0,0,0,0,0,0,0,0,0,0,0,0,0,0,0,0,0,0,0,0,0],"sum_hessian":[9.724962E1,1.6407839E1,8.084178E1,1.3834189E1,2.5736496E0,3.1296782E1,4.9545002E1,1.0576406E0,1.5160091E0,1.1794446E1,1.9502337E1,1.7643547E1,3.1901453E1,5.5421004E0,6.252345E0,5.649155E0,1.3853182E1,4.806462E0,1.2837086E1,2.3655392E1,8.24606E0,1.5489901E0,3.9931102E0,3.3205178E0,2.9318275E0,4.7040105E0,9.149171E0,2.4638393E0,2.3426225E0,4.5878115E0,8.249274E0,1.3428364E1,1.0227029E1,1.5731237E0,6.6729374E0,1.9182658E0,1.0135617E0,1.9640381E0,2.739972E0,7.333733E0,1.815438E0,1.2071195E0,1.1355029E0,2.484113E0,5.765161E0,5.311949E0,4.91508E0,3.668378E0,3.004559E0,1.3279155E0,1.4120566E0,2.6592426E0,4.6744905E0,3.7961564E0,1.5157924E0,2.3450859E0,2.5699942E0,2.2869534E0,1.3814247E0,1.584663E0,1.0745797E0,1.0843046E0,1.4856896E0],"tree_param":{"num_deleted":"0","num_feature":"11","num_nodes":"63","size_leaf_vector":"1"}},{"base_weights":[-3.7490252E-1,-6.494196E-1,-1.6585173E-1,-9.2445505E-1,-6.831888E-2,4.689325E-2,-5.230933E-1,-6.7325205E-1,-1.5214621E0,-4.094665E-1,4.8530977E-2,-4.7011465E-1,3.384444E-1,-2.764451E-1,-6.652566E-2,-9.369512E-1,2.0838838E-2,1.0823166E-2,-9.323185E-2,5.071015E-1,-8.167703E-1,-4.908752E-2,-1.8956214E-1,6.841665E-1,5.7289335E-3,-4.1270489E-1,1.9571811E-2,-6.55474E-2,-5.841868E-1,2.8734863E-2,-6.029017E-1,-1.2710804E-2,4.3779325E-2,-7.2639543E-3,-1.0800469E0,1.0114755E-1,-5.88535E-1,4.2373005E-2,-8.771374E-3,-8.325239E-1,-1.993602E-1,-7.027989E-3,-9.279464E-1,1.0562558E-2,-4.9550448E-2,-1.4162537E0,1.1272101E-2,4.805516E-1,-3.1055827E-2,-5.720819E-2,1.7354494E-2,-7.201638E-2,7.2486037E-3,4.2680293E-1,-7.014643E-1,-8.025836E-2,-2.4329196E-1,-8.921592E-2,-1.8110013E-2,3.770907E-2,-1.3352074E-2,4.296459E-2,-3.0755771E-2,-4.5945745E-2,9.888448E-3,-3.4526393E-2,1.8214157E-2],"categories":[],"categories_nodes":[],"categories_segments":[],"categories_sizes":[],"default_left":[0,0,0,0,0,0,0,0,0,0,0,0,0,0,0,0,0,0,0,0,0,0,0,0,0,0,0,0,0,0,0,0,0,0,0,0,0,0,0,0,0,0,0,0,0,0,0,0,0,0,0,0,0,0,0,0,0,0,0,0,0,0,0,0,0,0,0],"id":13,"left_children":[1,3,5,7,9,11,13,15,17,19,-1,21,23,25,-1,27,29,-1,-1,31,33,-1,35,37,-1,39,-1,-1,41,-1,43,-1,-1,-1,45,47,49,-1,-1,51,53,-1,55,-1,-1,57,-1,59,-1,-1,-1,-1,-1,61,63,-1,65,-1,-1,-1,-1,-1,-1,-1,-1,-1,-1],"loss_changes":[5.242651E0,6.3236637E0,4.149089E0,3.0314884E0,5.3302684E0,5.4244676E0,3.6825008E0,3.831809E0,4.7070827E0,4.588133E0,0E0,1.6819627E0,1.6952951E0,1.6942015E0,0E0,1.2284327E0,2.6655095E0,0E0,0E0,1.3606535E0,1.2792792E0,0E0,1.1781507E0,1.3847351E0,0E0,1.1304443E0,0E0,0E0,1.3309143E0,0E0,1.3611689E0,0E0,0E0,0E0,2.8124523E0,2.0611968E0,2.5867481E0,0E0,0E0,2.919381E0,3.730145E0,0E0,2.0300002E0,0E0,0E0,1.15942E0,0E0,1.1794276E0,0E0,0E0,0E0,0E0,0E0,2.9969823E0,1.4398799E0,0E0,1.2772233E0,0E0,0E0,0E0,0E0,0E0,0E0,0E0,0E0,0E0,0E0],"parents":[2147483647,0,0,1,1,2,2,3,3,4,4,5,5,6,6,7,7,8,8,9,9,11,11,12,12,13,13,15,15,16,16,19,19,20,20,22,22,23,23,25,25,28,28,30,30,34,34,35,35,36,36,39,39,40,40,42,42,45,45,47,47,53,53,54,54,56,56],"right_children":[2,4,6,8,10,12,14,16,18,20,-1,22,24,26,-1,28,30,-1,-1,32,34,-1,36,38,-1,40,-1,-1,42,-1,44,-1,-1,-1,46,48,50,-1,-1,52,54,-1,56,-1,-1,58,-1,60,-1,-1,-1,-1,-1,62,64,-1,66,-1,-1,-1,-1,-1,-1,-1,-1,-1,-1],"split_conditions":[2E0,2E0,4E0,2E0,5E0,1E0,5E0,2E0,1E0,1E0,4.8530977E-2,1E0,1E0,4E0,-6.652566E-2,1E0,1E0,1.0823166E-2,-9.323185E-2,1E0,1E0,-4.908752E-2,2E0,2E0,5.7289335E-3,1E0,1.9571811E-2,-6.55474E-2,1E0,2.8734863E-2,1E0,-1.2710804E-2,4.3779325E-2,-7.2639543E-3,2E0,5E0,4E0,4.2373005E-2,-8.771374E-3,1E0,1E0,-7.027989E-3,1E0,1.0562558E-2,-4.9550448E-2,2E0,1.1272101E-2,2E0,-3.1055827E-2,-5.720819E-2,1.7354494E-2,-7.201638E-2,7.2486037E-3,5E0,5E0,-8.025836E-2,3E0,-8.921592E-2,-1.8110013E-2,3.770907E-2,-1.3352074E-2,4.296459E-2,-3.0755771E-2,-4.5945745E-2,9.888448E-3,-3.4526393E-2,1.8214157E-2],"split_indices":[2,5,2,10,8,3,8,6,8,4,0,4,4,8,0,9,3,0,0,3,0,0,5,3,0,5,0,0,1,0,2,0,0,0,3,7,7,0,0,1,1,0,4,0,0,6,0,10,0,0,0,0,0,7,7,0,7,0,0,0,0,0,0,0,0,0,0],"split_type":[0,0,0,0,0,0,0,0,0,0,0,0,0,0,0,0,0,0,0,0,0,0,0,0,0,0,0,0,0,0,0,0,0,0,0,0,0,0,0,0,0,0,0,0,0,0,0,0,0,0,0,0,0,0,0,0,0,0,0,0,0,0,0,0,0,0,0],"sum_hessian":[9.2231316E1,3.896177E1,5.326955E1,2.6044174E1,1.2917596E1,3.3931408E1,1.9338142E1,1.9828596E1,6.215578E0,1.0180567E1,2.7370288E0,1.2014184E1,2.1917223E1,1.5841354E1,3.496788E0,1.4115815E1,5.712781E0,1.0858396E0,5.1297383E0,3.056781E0,7.1237855E0,3.3696682E0,8.644516E0,7.8060207E0,1.4111201E1,1.3474402E1,2.3669524E0,5.533281E0,8.582534E0,3.0675437E0,2.6452372E0,1.0981096E0,1.9586715E0,2.4434743E0,4.680311E0,5.4325757E0,3.2119405E0,6.5717316E0,1.2342892E0,3.5622904E0,9.912111E0,4.362086E0,4.2204485E0,1.0010246E0,1.6442126E0,3.654349E0,1.0259622E0,3.781054E0,1.6515217E0,1.8753566E0,1.3365841E0,1.9045568E0,1.6577337E0,4.4778514E0,5.4342604E0,1.445827E0,2.7746215E0,2.1950462E0,1.4593029E0,2.7614949E0,1.0195591E0,3.2882247E0,1.1896267E0,4.358428E0,1.0758325E0,1.5195502E0,1.2550714E0],"tree_param":{"num_deleted":"0","num_feature":"11","num_nodes":"67","size_leaf_vector":"1"}},{"base_weights":[-2.7495286E-1,-6.970521E-2,-4.9335682E-1,1.1972339E-1,-3.9637396E-1,-5.984221E-1,2.9691143E-2,2.6567614E-1,-8.479834E-1,-3.2293547E-2,-7.9290366E-1,-1.1856258E0,-4.1005918E-1,-2.2855778E-1,4.7049418E-1,-7.796187E-2,-8.547308E-5,-6.222875E-1,5.198847E-1,-7.274655E-2,-3.6311206E-1,-7.377155E-2,-8.63596E-3,-1.7345645E-1,-9.429614E-1,8.147676E-2,-3.886112E-2,1.4581297E-1,7.0174956E-1,-4.958149E-2,6.1589847E-3,4.97512E-2,-6.78128E-3,4.2841244E-2,-4.5043543E-2,-5.9224784E-1,6.7398E-2,-8.318217E-3,-5.848163E-2,-2.2545466E-1,3.851714E-2,6.7994106E-1,-2.856319E-1,-7.582546E-2,4.6336286E-2,-6.5584205E-2,-7.507901E-2,2.9192856E-1,-5.3395754E-1,-2.6332203E-2,1.9627998E-2,-3.0524146E-3,4.9535275E-2,-2.7102172E-2,1.8232053E-2,2.3526294E-2,-3.6514558E-2,-2.0031305E-2,2.5286648E-2,2.19659E-2,-1.2188304E-2,1.3609918E-2,-4.2742927E-2],"categories":[],"categories_nodes":[],"categories_segments":[],"categories_sizes":[],"default_left":[0,0,0,0,0,0,0,0,0,0,0,0,0,0,0,0,0,0,0,0,0,0,0,0,0,0,0,0,0,0,0,0,0,0,0,0,0,0,0,0,0,0,0,0,0,0,0,0,0,0,0,0,0,0,0,0,0,0,0,0,0,0,0],"id":14,"left_children":[1,3,5,7,9,11,-1,13,15,17,19,21,23,25,27,-1,-1,29,31,-1,33,-1,-1,35,37,39,-1,41,43,-1,-1,-1,-1,-1,-1,45,47,-1,-1,49,-1,51,53,55,-1,-1,57,59,61,-1,-1,-1,-1,-1,-1,-1,-1,-1,-1,-1,-1,-1,-1],"loss_changes":[4.275579E0,3.1867034E0,5.657222E0,4.8690486E0,2.6960716E0,4.2504444E0,0E0,3.0766635E0,2.734566E0,3.865004E0,2.027248E0,2.6430302E0,4.117289E0,1.639668E0,1.4792676E0,0E0,0E0,1.694457E0,2.0535831E0,0E0,5.218836E0,0E0,0E0,2.5351753E0,1.6033869E0,1.6169673E0,0E0,2.5043168E0,2.176453E0,0E0,0E0,0E0,0E0,0E0,0E0,3.3002503E0,2.3976953E0,0E0,0E0,1.2297171E0,0E0,1.1600401E0,1.2396663E0,1.6402106E0,0E0,0E0,1.4080249E0,1.1126653E0,1.491854E0,0E0,0E0,0E0,0E0,0E0,0E0,0E0,0E0,0E0,0E0,0E0,0E0,0E0,0E0],"parents":[2147483647,0,0,1,1,2,2,3,3,4,4,5,5,7,7,8,8,9,9,10,10,11,11,12,12,13,13,14,14,17,17,18,18,20,20,23,23,24,24,25,25,27,27,28,28,35,35,36,36,39,39,41,41,42,42,43,43,46,46,47,47,48,48],"right_children":[2,4,6,8,10,12,-1,14,16,18,20,22,24,26,28,-1,-1,30,32,-1,34,-1,-1,36,38,40,-1,42,44,-1,-1,-1,-1,-1,-1,46,48,-1,-1,50,-1,52,54,56,-1,-1,58,60,62,-1,-1,-1,-1,-1,-1,-1,-1,-1,-1,-1,-1,-1,-1],"split_conditions":[1E0,3E0,2E0,3E0,2E0,1E0,2.9691143E-2,1E0,4E0,1E0,2E0,2E0,4E0,4E0,3E0,-7.796187E-2,-8.547308E-5,4E0,1E0,-7.274655E-2,3E0,-7.377155E-2,-8.63596E-3,1E0,1E0,2E0,-3.886112E-2,1E0,1E0,-4.958149E-2,6.1589847E-3,4.97512E-2,-6.78128E-3,4.2841244E-2,-4.5043543E-2,1E0,3E0,-8.318217E-3,-5.848163E-2,2E0,3.851714E-2,1E0,2E0,1E0,4.6336286E-2,-6.5584205E-2,4E0,5E0,1E0,-2.6332203E-2,1.9627998E-2,-3.0524146E-3,4.9535275E-2,-2.7102172E-2,1.8232053E-2,2.3526294E-2,-3.6514558E-2,-2.0031305E-2,2.5286648E-2,2.19659E-2,-1.2188304E-2,1.3609918E-2,-4.2742927E-2],"split_indices":[1,2,1,6,6,2,0,6,7,4,8,10,8,7,8,0,0,7,6,0,8,0,0,3,10,2,0,3,10,0,0,0,0,0,0,0,8,0,0,5,0,8,10,9,0,0,2,7,6,0,0,0,0,0,0,0,0,0,0,0,0,0,0],"split_type":[0,0,0,0,0,0,0,0,0,0,0,0,0,0,0,0,0,0,0,0,0,0,0,0,0,0,0,0,0,0,0,0,0,0,0,0,0,0,0,0,0,0,0,0,0,0,0,0,0,0,0,0,0,0,0,0,0,0,0,0,0,0,0],"sum_hessian":[9.514693E1,4.9730896E1,4.5416035E1,3.1878626E1,1.7852268E1,4.1823742E1,3.5922906E0,2.8331095E1,3.547532E0,9.87073E0,7.9815373E0,8.871938E0,3.2951805E1,8.266881E0,2.0064215E1,1.4697781E0,2.0777538E0,4.71058E0,5.160151E0,2.2029827E0,5.778555E0,6.543212E0,2.3287258E0,2.373792E1,9.213883E0,5.826176E0,2.4407043E0,9.024458E0,1.1039757E1,2.9291286E0,1.7814511E0,2.6913896E0,2.4687614E0,1.5863966E0,4.192158E0,8.134653E0,1.5603268E1,2.473473E0,6.7404103E0,4.49576E0,1.3304164E0,3.7750225E0,5.249435E0,2.6261327E0,8.413624E0,2.75955E0,5.3751035E0,1.1735927E1,3.867341E0,3.1220663E0,1.3736936E0,1.3528441E0,2.4221785E0,3.8842564E0,1.3651786E0,1.5844659E0,1.0416669E0,3.6432695E0,1.731834E0,9.344749E0,2.3911774E0,1.1443397E0,2.7230012E0],"tree_param":{"num_deleted":"0","num_feature":"11","num_nodes":"63","size_leaf_vector":"1"}},{"base_weights":[-3.403985E-1,-7.047842E-1,-2.3307386E-1,-2.4187607E-1,-4.6262532E-2,-1.0276767E-3,-3.5639066E-1,2.7633453E-2,-6.75002E-1,-1.483006E-1,3.51241E-1,-3.987126E-1,3.617172E-2,-1.0969858E0,8.818428E-3,-4.613978E-1,3.4539926E-1,-1.9109482E-1,4.871195E-2,-5.34847E-2,-4.5984918E-1,-6.576266E-3,-7.316175E-2,-2.0570585E-1,-5.6096774E-2,-2.2206347E-2,6.645071E-1,1.5904462E-2,-6.577337E-1,-4.195207E-1,3.346351E-2,-6.109255E-1,-2.4621956E-1,-7.136076E-1,8.945782E-2,5.1997084E-2,-4.885774E-3,-6.005615E-2,9.731697E-3,-3.3846125E-2,7.5688944E-3,2.0007743E-2,-7.494E-1,2.8905427E-1,-4.0687642E-1,-7.970156E-2,3.564593E-2,-3.0619044E-2,2.0280764E-2,-5.972883E-2,-3.7397128E-1,3.426242E-2,-1.980914E-2,-5.6653466E-2,-1.280272E-1,6.941011E-2,-5.7307893E-1,-5.5340257E-2,3.8053503E-3,2.6848212E-2,-2.0140415E-2,-4.7299173E-2,-6.2114943E-2,-2.3189066E-2,3.609968E-2],"categories":[],"categories_nodes":[],"categories_segments":[],"categories_sizes":[],"default_left":[0,0,0,0,0,0,0,0,0,0,0,0,0,0,0,0,0,0,0,0,0,0,0,0,0,0,0,0,0,0,0,0,0,0,0,0,0,0,0,0,0,0,0,0,0,0,0,0,0,0,0,0,0,0,0,0,0,0,0,0,0,0,0,0,0],"id":15,"left_children":[1,3,5,7,-1,9,11,-1,13,15,17,19,-1,21,-1,23,25,27,-1,29,31,-1,-1,33,-1,-1,35,-1,37,39,-1,41,43,45,47,-1,-1,-1,-1,-1,-1,-1,49,51,53,-1,-1,-1,-1,-1,55,-1,-1,-1,57,59,61,-1,-1,-1,-1,-1,63,-1,-1],"loss_changes":[3.6293135E0,1.9782009E0,2.186617E0,3.2344933E0,0E0,1.4800469E0,2.5690198E0,0E0,2.2885232E0,3.2683408E0,3.0282078E0,1.0025411E0,0E0,1.2351942E0,0E0,1.9202001E0,2.4057088E0,1.4763403E0,0E0,2.5171099E0,1.1796789E0,0E0,0E0,1.6238561E0,0E0,0E0,1.923492E0,0E0,1.6736147E0,1.017393E0,0E0,3.585227E0,1.7297609E0,6.0799613E0,1.905914E0,0E0,0E0,0E0,0E0,0E0,0E0,0E0,3.06083E0,1.6051408E0,2.8589046E0,0E0,0E0,0E0,0E0,0E0,1.1733905E0,0E0,0E0,0E0,2.4511054E0,1.2918395E0,1.6503174E0,0E0,0E0,0E0,0E0,0E0,1.863791E0,0E0,0E0],"parents":[2147483647,0,0,1,1,2,2,3,3,5,5,6,6,8,8,9,9,10,10,11,11,13,13,15,15,16,16,17,17,19,19,20,20,23,23,26,26,28,28,29,29,31,31,32,32,33,33,34,34,42,42,43,43,44,44,50,50,54,54,55,55,56,56,62,62],"right_children":[2,4,6,8,-1,10,12,-1,14,16,18,20,-1,22,-1,24,26,28,-1,30,32,-1,-1,34,-1,-1,36,-1,38,40,-1,42,44,46,48,-1,-1,-1,-1,-1,-1,-1,50,52,54,-1,-1,-1,-1,-1,56,-1,-1,-1,58,60,62,-1,-1,-1,-1,-1,64,-1,-1],"split_conditions":[1E0,1E0,1E0,1E0,-4.6262532E-2,2E0,2E0,2.7633453E-2,2E0,4E0,1E0,1E0,3.617172E-2,4E0,8.818428E-3,5E0,1E0,4E0,4.871195E-2,2E0,4E0,-6.576266E-3,-7.316175E-2,1E0,-5.6096774E-2,-2.2206347E-2,3E0,1.5904462E-2,3E0,1E0,3.346351E-2,1E0,1E0,3E0,1E0,5.1997084E-2,-4.885774E-3,-6.005615E-2,9.731697E-3,-3.3846125E-2,7.5688944E-3,2.0007743E-2,3E0,3E0,2E0,-7.970156E-2,3.564593E-2,-3.0619044E-2,2.0280764E-2,-5.972883E-2,1E0,3.426242E-2,-1.980914E-2,-5.6653466E-2,1E0,1E0,2E0,-5.5340257E-2,3.8053503E-3,2.6848212E-2,-2.0140415E-2,-4.7299173E-2,3E0,-2.3189066E-2,3.609968E-2],"split_indices":[2,5,4,9,0,5,1,0,6,7,1,7,0,8,0,8,6,7,0,10,7,0,0,9,0,0,2,0,8,1,0,8,10,2,10,0,0,0,0,0,0,0,8,2,2,0,0,0,0,0,6,0,0,0,8,9,6,0,0,0,0,0,7,0,0],"split_type":[0,0,0,0,0,0,0,0,0,0,0,0,0,0,0,0,0,0,0,0,0,0,0,0,0,0,0,0,0,0,0,0,0,0,0,0,0,0,0,0,0,0,0,0,0,0,0,0,0,0,0,0,0,0,0,0,0,0,0,0,0,0,0,0,0],"sum_hessian":[9.600375E1,2.0576416E1,7.542734E1,7.314805E0,1.326161E1,2.6524433E1,4.89029E1,2.4833107E0,4.8314943E0,1.9112913E1,7.411521E0,4.7665493E1,1.2374078E0,3.0374708E0,1.7940235E0,1.173572E1,7.3771925E0,4.3328924E0,3.0786285E0,7.4532256E0,4.021227E1,1.2091569E0,1.8283138E0,9.406079E0,2.3296404E0,2.0106733E0,5.366519E0,2.224221E0,2.1086714E0,5.226063E0,2.2271628E0,2.2465317E1,1.7746952E1,2.9361105E0,6.469969E0,3.3514163E0,2.0151029E0,1.0378654E0,1.070806E0,3.474015E0,1.7520478E0,2.4785187E0,1.99868E1,3.9124181E0,1.3834534E1,1.7429653E0,1.193145E0,1.7183812E0,4.751588E0,8.145781E0,1.1841019E1,2.4790506E0,1.4333675E0,2.9884603E0,1.0846073E1,3.8714042E0,7.969614E0,1.108606E0,9.737467E0,1.8764141E0,1.99499E0,4.1150537E0,3.8545604E0,2.8190181E0,1.0355422E0],"tree_param":{"num_deleted":"0","num_feature":"11","num_nodes":"65","size_leaf_vector":"1"}},{"base_weights":[-3.259543E-1,-1.8575941E-1,-4.517591E-1,-6.0146594E-1,-3.969798E-2,-3.277586E-1,-4.2825524E-2,-4.9914375E-2,-3.2431224E-1,-1.961345E-1,1.7881182E-1,-7.3895836E-1,-2.283161E-1,-4.7844898E-2,1.504403E-3,1.0358254E-1,-3.9168844E-1,1.9808812E-2,-3.0582878E-1,-5.3023856E-2,1.5708646E-3,5.15319E-2,-3.7160724E-1,-4.9961466E-1,4.8456556E-1,4.3002367E-1,-3.9959703E-2,-3.0519156E-2,1.941168E-1,-4.808512E-2,1.8794438E-2,-2.4562083E-2,2.2161238E-1,1.1403841E-1,-5.636607E-1,-4.3891266E-2,1.13921575E-2,-9.543269E-3,4.223634E-2,3.4795698E-2,-2.201734E-2,3.6302585E-2,-1.06009515E-2,-1.01399615E-1,3.2489732E-2,-3.331968E-2,5.420617E-1,1.9715646E-1,-9.2893296E-1,1.8634638E-2,-3.1140203E-2,4.7858194E-2,-8.928158E-3,-3.1860955E-2,5.182977E-1,-1.215474E0,-2.918661E-1,4.627724E-2,-6.7319945E-3,-8.293931E-2,-4.305798E-1,-4.898804E-2,2.6483769E-2,2.6211096E-2,-7.244011E-2],"categories":[],"categories_nodes":[],"categories_segments":[],"categories_sizes":[],"default_left":[0,0,0,0,0,0,0,0,0,0,0,0,0,0,0,0,0,0,0,0,0,0,0,0,0,0,0,0,0,0,0,0,0,0,0,0,0,0,0,0,0,0,0,0,0,0,0,0,0,0,0,0,0,0,0,0,0,0,0,0,0,0,0,0,0],"id":16,"left_children":[1,3,5,7,9,11,-1,-1,13,15,17,19,21,-1,23,25,27,-1,29,-1,-1,31,33,35,37,39,-1,-1,41,-1,-1,-1,43,45,47,-1,-1,-1,-1,-1,-1,-1,-1,49,-1,-1,51,53,55,-1,-1,-1,-1,-1,57,59,61,-1,-1,-1,63,-1,-1,-1,-1],"loss_changes":[1.6590233E0,2.9171116E0,2.2982864E0,1.0535216E0,1.2968781E0,1.5059571E0,0E0,0E0,1.8263958E0,1.3293743E0,1.7986794E0,1.898036E0,1.399639E0,0E0,1.8985195E0,3.1354272E0,1.850059E0,0E0,2.818434E0,0E0,0E0,1.2661574E0,2.1992352E0,1.2595234E0,1.1322854E0,2.0669968E0,0E0,0E0,1.1116114E0,0E0,0E0,0E0,1.4813862E0,2.8059394E0,4.7884617E0,0E0,0E0,0E0,0E0,0E0,0E0,0E0,0E0,1.8879759E0,0E0,0E0,1.7496891E0,1.9916445E0,1.7210197E0,0E0,0E0,0E0,0E0,0E0,1.4617403E0,1.9049511E0,3.2563725E0,0E0,0E0,0E0,4.7139626E0,0E0,0E0,0E0,0E0],"parents":[2147483647,0,0,1,1,2,2,3,3,4,4,5,5,8,8,9,9,10,10,11,11,12,12,14,14,15,15,16,16,18,18,21,21,22,22,23,23,24,24,25,25,28,28,32,32,33,33,34,34,43,43,46,46,47,47,48,48,54,54,55,55,56,56,60,60],"right_children":[2,4,6,8,10,12,-1,-1,14,16,18,20,22,-1,24,26,28,-1,30,-1,-1,32,34,36,38,40,-1,-1,42,-1,-1,-1,44,46,48,-1,-1,-1,-1,-1,-1,-1,-1,50,-1,-1,52,54,56,-1,-1,-1,-1,-1,58,60,62,-1,-1,-1,64,-1,-1,-1,-1],"split_conditions":[3E0,1E0,4E0,1E0,3E0,1E0,-4.2825524E-2,-4.9914375E-2,1E0,1E0,2E0,2E0,1E0,-4.7844898E-2,1E0,2E0,2E0,1.9808812E-2,1E0,-5.3023856E-2,1.5708646E-3,1E0,1E0,5E0,1E0,3E0,-3.9959703E-2,-3.0519156E-2,1E0,-4.808512E-2,1.8794438E-2,-2.4562083E-2,5E0,4E0,4E0,-4.3891266E-2,1.13921575E-2,-9.543269E-3,4.223634E-2,3.4795698E-2,-2.201734E-2,3.6302585E-2,-1.06009515E-2,4E0,3.2489732E-2,-3.331968E-2,4E0,1E0,2E0,1.8634638E-2,-3.1140203E-2,4.7858194E-2,-8.928158E-3,-3.1860955E-2,2E0,2E0,5E0,4.627724E-2,-6.7319945E-3,-8.293931E-2,5E0,-4.898804E-2,2.6483769E-2,2.6211096E-2,-7.244011E-2],"split_indices":[8,6,2,5,2,7,0,0,2,3,10,5,3,0,3,10,10,0,1,0,0,10,10,7,4,6,0,0,8,0,0,0,8,8,8,0,0,0,0,0,0,0,0,7,0,0,7,0,5,0,0,0,0,0,5,2,8,0,0,0,7,0,0,0,0],"split_type":[0,0,0,0,0,0,0,0,0,0,0,0,0,0,0,0,0,0,0,0,0,0,0,0,0,0,0,0,0,0,0,0,0,0,0,0,0,0,0,0,0,0,0,0,0,0,0,0,0,0,0,0,0,0,0,0,0,0,0,0,0,0,0,0,0],"sum_hessian":[9.7822E1,4.743631E1,5.0385693E1,1.1522926E1,3.5913383E1,3.9954826E1,1.0430869E1,3.6685135E0,7.8544126E0,2.0989141E1,1.4924241E1,6.5284305E0,3.3426395E1,2.011699E0,5.842714E0,8.473101E0,1.2516041E1,1.042921E1,4.4950314E0,4.3403845E0,2.1880455E0,1.1536313E1,2.1890081E1,2.8509357E0,2.991778E0,6.607511E0,1.8655894E0,9.083139E0,3.432902E0,2.0816205E0,2.413411E0,2.3019307E0,9.234383E0,6.3185573E0,1.5571524E1,1.739733E0,1.1112027E0,1.2039666E0,1.7878114E0,5.2148585E0,1.3926526E0,1.145232E0,2.28767E0,5.6986346E0,3.5357482E0,2.0407202E0,4.277837E0,5.2002635E0,1.0371261E1,3.1341186E0,2.564516E0,2.5060391E0,1.7717978E0,1.1717192E0,4.0285444E0,6.527423E0,3.8438373E0,2.223934E0,1.8046103E0,3.459878E0,3.067545E0,1.9872668E0,1.8565705E0,1.8334512E0,1.2340938E0],"tree_param":{"num_deleted":"0","num_feature":"11","num_nodes":"65","size_leaf_vector":"1"}},{"base_weights":[-1.6198467E-1,-9.9420324E-2,-5.2069753E-1,-3.124357E-1,1.4870277E-2,-7.3719525E-1,9.11785E-2,7.218877E-3,-4.677555E-1,-1.4402673E-1,2.9468703E-1,-1.0345045E0,-2.1084294E-1,2.8003821E-2,-1.851001E-2,-2.731283E-2,4.948752E-1,-4.031531E-2,-6.215767E-1,-5.1789474E-1,7.272274E-2,1.3467574E-1,4.1555148E-2,4.192223E-3,-7.133641E-2,3.3310732E-1,-3.6699437E-2,4.2630985E-2,-2.184224E-2,-3.032626E-2,5.139862E-1,-1.4420195E-1,-8.4960157E-1,-3.3147227E-2,-3.978657E-2,-1.7344907E-1,5.3634894E-1,2.0966807E-2,-4.2367816E-1,-1.4617789E-2,3.778653E-2,-1.0556507E-2,4.3788724E-2,-4.7629613E-1,3.457426E-2,-5.801291E-2,-2.9091218E-1,-1.5994243E-2,3.3364154E-2,-6.024346E-1,1.3126382E-1,5.024308E-2,8.150201E-3,1.4571944E-2,-4.415503E-2,-4.9536426E-2,2.1923436E-2,3.7219718E-2,-4.183733E-2,1.5895914E-2,-5.307868E-2,4.541985E-1,-5.4056096E-1,4.3592308E-2,-1.284971E-1,-5.0243277E-2,1.2807637E-2,-3.72439E-2,2.3485605E-2],"categories":[],"categories_nodes":[],"categories_segments":[],"categories_sizes":[],"default_left":[0,0,0,0,0,0,0,0,0,0,0,0,0,0,0,0,0,0,0,0,0,0,0,0,0,0,0,0,0,0,0,0,0,0,0,0,0,0,0,0,0,0,0,0,0,0,0,0,0,0,0,0,0,0,0,0,0,0,0,0,0,0,0,0,0,0,0,0,0],"id":17,"left_children":[1,3,5,7,9,11,13,15,17,19,21,23,25,-1,-1,-1,27,29,31,33,35,37,-1,-1,-1,39,-1,-1,-1,-1,41,43,45,47,-1,49,51,-1,53,-1,-1,-1,-1,55,-1,-1,57,-1,-1,59,61,-1,-1,-1,-1,-1,-1,-1,-1,-1,-1,63,65,-1,67,-1,-1,-1,-1],"loss_changes":[2.1473956E0,2.066084E0,1.9637418E0,1.4735892E0,2.5350494E0,1.4539766E0,1.2093451E0,3.1497445E0,1.286252E0,2.9896593E0,1.6590625E0,3.0024624E0,1.6994389E0,0E0,0E0,0E0,2.4377007E0,2.30383E0,1.4664011E0,1.7907209E0,2.8249378E0,2.8933036E0,0E0,0E0,0E0,1.0653415E0,0E0,0E0,0E0,0E0,1.1683145E0,1.973129E0,1.3414755E0,1.4102671E0,0E0,2.2215972E0,1.3310418E0,0E0,2.316265E0,0E0,0E0,0E0,0E0,2.707663E0,0E0,0E0,3.330606E0,0E0,0E0,3.289586E0,2.5028186E0,0E0,0E0,0E0,0E0,0E0,0E0,0E0,0E0,0E0,0E0,1.9543196E0,1.6757528E0,0E0,1.8366241E0,0E0,0E0,0E0,0E0],"parents":[2147483647,0,0,1,1,2,2,3,3,4,4,5,5,6,6,7,7,8,8,9,9,10,10,11,11,12,12,16,16,17,17,18,18,19,19,20,20,21,21,25,25,30,30,31,31,32,32,33,33,35,35,36,36,38,38,43,43,46,46,49,49,50,50,61,61,62,62,64,64],"right_children":[2,4,6,8,10,12,14,16,18,20,22,24,26,-1,-1,-1,28,30,32,34,36,38,-1,-1,-1,40,-1,-1,-1,-1,42,44,46,48,-1,50,52,-1,54,-1,-1,-1,-1,56,-1,-1,58,-1,-1,60,62,-1,-1,-1,-1,-1,-1,-1,-1,-1,-1,64,66,-1,68,-1,-1,-1,-1],"split_conditions":[3E0,1E0,5E0,1E0,2E0,3E0,1E0,2E0,1E0,1E0,4E0,1E0,2E0,2.8003821E-2,-1.851001E-2,-2.731283E-2,2E0,4E0,1E0,1E0,2E0,4E0,4.1555148E-2,4.192223E-3,-7.133641E-2,2E0,-3.6699437E-2,4.2630985E-2,-2.184224E-2,-3.032626E-2,1E0,5E0,3E0,4E0,-3.978657E-2,2E0,2E0,2.0966807E-2,1E0,-1.4617789E-2,3.778653E-2,-1.0556507E-2,4.3788724E-2,2E0,3.457426E-2,-5.801291E-2,1E0,-1.5994243E-2,3.3364154E-2,1E0,5E0,5.024308E-2,8.150201E-3,1.4571944E-2,-4.415503E-2,-4.9536426E-2,2.1923436E-2,3.7219718E-2,-4.183733E-2,1.5895914E-2,-5.307868E-2,4E0,1E0,4.3592308E-2,2E0,-5.0243277E-2,1.2807637E-2,-3.72439E-2,2.3485605E-2],"split_indices":[6,9,7,5,5,2,9,2,10,0,2,4,5,0,0,0,6,8,0,4,6,7,0,0,0,8,0,0,0,0,3,8,7,7,0,7,7,0,6,0,0,0,0,10,0,0,6,0,0,5,7,0,0,0,0,0,0,0,0,0,0,8,5,0,2,0,0,0,0],"split_type":[0,0,0,0,0,0,0,0,0,0,0,0,0,0,0,0,0,0,0,0,0,0,0,0,0,0,0,0,0,0,0,0,0,0,0,0,0,0,0,0,0,0,0,0,0,0,0,0,0,0,0,0,0,0,0,0,0,0,0,0,0,0,0,0,0,0,0,0,0],"sum_hessian":[9.6990425E1,8.367375E1,1.3316668E1,2.8612307E1,5.506145E1,9.685037E0,3.631631E0,9.668224E0,1.894408E1,3.5428352E1,1.9633095E1,5.5721793E0,4.112858E0,1.6950436E0,1.9365873E0,4.47222E0,5.1960044E0,5.34723E0,1.3596851E1,1.2491895E1,2.2936459E1,1.6085812E1,3.5472846E0,1.6509762E0,3.921203E0,2.1944253E0,1.9184324E0,3.8157866E0,1.3802177E0,2.5985937E0,2.748636E0,4.9229493E0,8.6739025E0,4.9590464E0,7.532849E0,1.5390464E1,7.545995E0,1.0819025E1,5.2667856E0,1.0091561E0,1.1852694E0,1.0535262E0,1.69511E0,3.830714E0,1.0922352E0,4.882346E0,3.791556E0,3.9041095E0,1.0549369E0,5.986044E0,9.40442E0,2.5963326E0,4.9496627E0,2.2031302E0,3.0636556E0,2.3987164E0,1.4319977E0,1.1833237E0,2.608232E0,2.0947187E0,3.8913255E0,6.57018E0,2.8342397E0,3.53805E0,3.03213E0,1.6256115E0,1.2086283E0,1.372627E0,1.659503E0],"tree_param":{"num_deleted":"0","num_feature":"11","num_nodes":"69","size_leaf_vector":"1"}},{"base_weights":[-2.5069132E-1,-1.8464524E-1,-4.6539766E-1,-3.3828276E-1,-1.2001337E-2,-6.6785294E-1,3.7114557E-2,-5.31998E-1,5.962673E-2,1.6260897E-1,-3.508589E-1,-8.262791E-1,-1.8860051E-1,-4.6607178E-2,5.836946E-1,-3.383828E-1,-1.0702266E0,-4.315458E-1,2.7560135E-2,-4.9862534E-1,3.5151708E-1,6.3302815E-3,-5.841847E-1,-4.2118207E-1,-6.0095202E-2,-2.9060343E-2,3.4311518E-2,5.016286E-2,-6.3972003E-3,1.778482E-1,-5.682988E-1,1.24840895E-2,-6.8971686E-2,-7.991516E-1,4.0132217E-2,1.9692862E-3,-5.1695783E-2,4.1378796E-2,1.9509566E-1,-1.8840712E-1,-5.3336855E-2,-5.5643644E-2,2.2905263E-1,4.3221655E-1,-3.3865403E-2,-4.711837E-2,-2.3588985E-1,8.383009E-3,-6.0637545E-2,-2.6191455E-1,3.959273E-1,-3.5398092E-2,2.4716E-1,4.175256E-2,-1.6365603E-2,3.570003E-2,4.5261536E-2,2.9684365E-1,-5.052185E-2,-4.4478904E-2,1.23495E-2,-2.364031E-1,6.324864E-1,4.1959982E-2,-3.2400493E-2,2.491526E-2,-1.851148E-2,-2.6865223E-2,6.0912484E-1,-3.1338047E-2,1.590675E-2,4.7048043E-2,4.674392E-2,-1.4712523E-2,5.192883E-2,2.3800505E-2,-2.2766322E-2],"categories":[],"categories_nodes":[],"categories_segments":[],"categories_sizes":[],"default_left":[0,0,0,0,0,0,0,0,0,0,0,0,0,0,0,0,0,0,0,0,0,0,0,0,0,0,0,0,0,0,0,0,0,0,0,0,0,0,0,0,0,0,0,0,0,0,0,0,0,0,0,0,0,0,0,0,0,0,0,0,0,0,0,0,0,0,0,0,0,0,0,0,0,0,0,0,0],"id":18,"left_children":[1,3,5,7,9,11,13,15,17,19,21,23,25,-1,27,29,31,33,-1,35,37,-1,39,41,-1,-1,-1,-1,-1,43,45,-1,-1,47,-1,-1,-1,-1,49,51,-1,-1,53,55,-1,-1,57,-1,-1,59,61,-1,63,-1,-1,65,-1,67,-1,-1,-1,69,71,-1,-1,-1,-1,-1,73,-1,-1,75,-1,-1,-1,-1,-1],"loss_changes":[1.2878551E0,2.0050702E0,2.276485E0,3.1182303E0,2.228732E0,1.0460124E0,4.413318E0,2.4548478E0,3.6206245E0,3.2862787E0,1.4997358E0,1.2590098E0,2.194609E0,0E0,1.7063242E0,2.6342566E0,3.0744448E0,4.0754E0,0E0,1.7536011E0,1.3247163E0,0E0,1.4749196E0,3.457617E0,0E0,0E0,0E0,0E0,0E0,1.8889835E0,1.643446E0,0E0,0E0,2.7357016E0,0E0,0E0,0E0,0E0,1.6025385E0,1.5408267E0,0E0,0E0,1.7904441E0,1.1429776E0,0E0,0E0,4.128565E0,0E0,0E0,2.0044312E0,1.9060898E0,0E0,2.6766224E0,0E0,0E0,1.0201027E0,0E0,1.9606574E0,0E0,0E0,0E0,1.0490382E0,1.5170887E0,0E0,0E0,0E0,0E0,0E0,2.2574327E0,0E0,0E0,1.0908892E0,0E0,0E0,0E0,0E0,0E0],"parents":[2147483647,0,0,1,1,2,2,3,3,4,4,5,5,6,6,7,7,8,8,9,9,10,10,11,11,12,12,14,14,15,15,16,16,17,17,19,19,20,20,22,22,23,23,29,29,30,30,33,33,38,38,39,39,42,42,43,43,46,46,49,49,50,50,52,52,55,55,57,57,61,61,62,62,68,68,71,71],"right_children":[2,4,6,8,10,12,14,16,18,20,22,24,26,-1,28,30,32,34,-1,36,38,-1,40,42,-1,-1,-1,-1,-1,44,46,-1,-1,48,-1,-1,-1,-1,50,52,-1,-1,54,56,-1,-1,58,-1,-1,60,62,-1,64,-1,-1,66,-1,68,-1,-1,-1,70,72,-1,-1,-1,-1,-1,74,-1,-1,76,-1,-1,-1,-1,-1],"split_conditions":[4E0,2E0,4E0,2E0,4E0,2E0,1E0,2E0,1E0,1E0,1E0,4E0,4E0,-4.6607178E-2,2E0,1E0,1E0,4E0,2.7560135E-2,3E0,1E0,6.3302815E-3,5E0,1E0,-6.0095202E-2,-2.9060343E-2,3.4311518E-2,5.016286E-2,-6.3972003E-3,3E0,2E0,1.24840895E-2,-6.8971686E-2,1E0,4.0132217E-2,1.9692862E-3,-5.1695783E-2,4.1378796E-2,2E0,5E0,-5.3336855E-2,-5.5643644E-2,1E0,2E0,-3.3865403E-2,-4.711837E-2,4E0,8.383009E-3,-6.0637545E-2,1E0,1E0,-3.5398092E-2,2E0,4.175256E-2,-1.6365603E-2,1E0,4.5261536E-2,1E0,-5.052185E-2,-4.4478904E-2,1.23495E-2,3E0,1E0,4.1959982E-2,-3.2400493E-2,2.491526E-2,-1.851148E-2,-2.6865223E-2,1E0,-3.1338047E-2,1.590675E-2,3E0,4.674392E-2,-1.4712523E-2,5.192883E-2,2.3800505E-2,-2.2766322E-2],"split_indices":[2,2,8,5,8,10,3,10,2,8,9,7,7,0,5,3,8,8,0,2,7,0,7,0,0,0,0,0,0,6,7,0,0,0,0,0,0,0,8,8,0,0,3,6,0,0,8,0,0,9,0,0,6,0,0,0,0,8,0,0,0,2,5,0,0,0,0,0,9,0,0,2,0,0,0,0,0],"split_type":[0,0,0,0,0,0,0,0,0,0,0,0,0,0,0,0,0,0,0,0,0,0,0,0,0,0,0,0,0,0,0,0,0,0,0,0,0,0,0,0,0,0,0,0,0,0,0,0,0,0,0,0,0,0,0,0,0,0,0,0,0,0,0,0,0,0,0,0,0,0,0,0,0,0,0,0,0],"sum_hessian":[9.587865E1,7.474595E1,2.11327E1,3.9042347E1,3.5703598E1,1.4829193E1,6.3035073E0,2.6032099E1,1.3010249E1,2.3905455E1,1.1798143E1,1.0600796E1,4.2283974E0,2.0185583E0,4.284949E0,2.034291E1,5.689189E0,6.568879E0,6.44137E0,4.9476624E0,1.8957792E1,4.0230303E0,7.7751126E0,6.1209126E0,4.479883E0,3.1502597E0,1.0781376E0,2.4378657E0,1.8470831E0,6.3382E0,1.400471E1,1.1163498E0,4.572839E0,5.332942E0,1.2359374E0,2.9295967E0,2.0180655E0,3.6273866E0,1.5330405E1,5.035532E0,2.7395806E0,2.6211526E0,3.4997597E0,5.2663016E0,1.0718985E0,5.726061E0,8.278649E0,1.7760221E0,3.5569198E0,4.587345E0,1.074306E1,2.0111752E0,3.0243566E0,1.4354E0,2.0643597E0,3.4498487E0,1.8164529E0,5.270412E0,3.0082374E0,1.7190764E0,2.8682687E0,2.9250262E0,7.818034E0,1.8580321E0,1.1663245E0,1.5060078E0,1.9438407E0,1.2393502E0,4.0310616E0,1.640197E0,1.284829E0,3.0563846E0,4.7616496E0,1.4002926E0,2.630769E0,1.67696E0,1.3794246E0],"tree_param":{"num_deleted":"0","num_feature":"11","num_nodes":"77","size_leaf_vector":"1"}},{"base_weights":[-1.2205763E-1,-3.0984706E-1,-3.3904076E-2,-1.3865492E-1,-8.123265E-1,-5.1918423E-1,5.086224E-2,2.4447508E-1,-4.909677E-1,-6.302789E-2,-1.5113328E-1,2.5636733E-1,-4.441348E-2,4.4370094E-1,-3.148396E-3,-1.5332195E-2,4.4167206E-1,-8.231985E-1,-5.2006066E-2,2.5862133E-2,-4.4854823E-2,-1.1255867E-2,3.666972E-2,-2.9751948E-1,4.3317657E-2,4.0086716E-2,-1.6401069E-1,1.1677946E-2,-6.1382543E-2,-3.5736945E-2,1.07643455E-2,8.156311E-3,-3.7774093E-2,-3.2386582E-2,2.0083161E-2],"categories":[],"categories_nodes":[],"categories_segments":[],"categories_sizes":[],"default_left":[0,0,0,0,0,0,0,0,0,0,0,0,0,0,0,0,0,0,0,0,0,0,0,0,0,0,0,0,0,0,0,0,0,0,0],"id":19,"left_children":[1,3,5,7,9,11,13,15,17,-1,19,21,-1,23,-1,-1,25,27,29,-1,-1,-1,-1,31,-1,-1,33,-1,-1,-1,-1,-1,-1,-1,-1],"loss_changes":[1.4956625E0,2.3770564E0,2.619602E0,3.1967802E0,1.9282517E0,2.9365673E0,2.468456E0,1.3946934E0,1.7374027E0,0E0,2.4706278E0,1.0441984E0,0E0,4.137953E0,0E0,0E0,2.0818832E0,3.227604E0,1.2745196E0,0E0,0E0,0E0,0E0,1.2291203E0,0E0,0E0,1.3997068E0,0E0,0E0,0E0,0E0,0E0,0E0,0E0,0E0],"parents":[2147483647,0,0,1,1,2,2,3,3,4,4,5,5,6,6,7,7,8,8,10,10,11,11,13,13,16,16,17,17,18,18,23,23,26,26],"right_children":[2,4,6,8,10,12,14,16,18,-1,20,22,-1,24,-1,-1,26,28,30,-1,-1,-1,-1,32,-1,-1,34,-1,-1,-1,-1,-1,-1,-1,-1],"split_conditions":[1E0,4E0,1E0,3E0,1E0,1E0,2E0,1E0,2E0,-6.302789E-2,2E0,3E0,-4.441348E-2,1E0,-3.148396E-3,-1.5332195E-2,2E0,1E0,4E0,2.5862133E-2,-4.4854823E-2,-1.1255867E-2,3.666972E-2,2E0,4.3317657E-2,4.0086716E-2,2E0,1.1677946E-2,-6.1382543E-2,-3.5736945E-2,1.07643455E-2,8.156311E-3,-3.7774093E-2,-3.2386582E-2,2.0083161E-2],"split_indices":[0,2,8,8,3,9,8,3,2,0,6,7,0,9,0,0,6,3,8,0,0,0,0,6,0,0,2,0,0,0,0,0,0,0,0],"split_type":[0,0,0,0,0,0,0,0,0,0,0,0,0,0,0,0,0,0,0,0,0,0,0,0,0,0,0,0,0,0,0,0,0,0,0],"sum_hessian":[8.998342E1,2.7942965E1,6.204046E1,2.1793854E1,6.149112E0,8.463386E0,5.3577072E1,1.0586943E1,1.120691E1,3.1244905E0,3.0246217E0,2.8274727E0,5.635913E0,1.1385772E1,4.21913E1,2.643624E0,7.943319E0,5.8807197E0,5.326191E0,1.7569879E0,1.2676337E0,1.6699752E0,1.1574976E0,4.242178E0,7.1435943E0,4.778776E0,3.1645424E0,1.7446946E0,4.1360254E0,1.0496563E0,4.2765346E0,2.4358528E0,1.8063252E0,1.6276443E0,1.5368983E0],"tree_param":{"num_deleted":"0","num_feature":"11","num_nodes":"35","size_leaf_vector":"1"}},{"base_weights":[-2.7636242E-1,-3.1376484E-1,3.615613E-2,-2.4827753E-1,-5.3099537E-1,-3.334703E-1,1.9761062E-1,-6.5840936E-1,5.0751798E-2,-7.54492E-1,-1.6462599E-1,3.855763E-2,-2.9164629E-2,-1.2351145E0,-1.6642226E-2,-2.72044E-2,2.1670133E-2,-4.249365E-1,-6.0725134E-2,-3.977003E-2,-6.86618E-1,-3.0285063E-1,4.8167706E-1,-1.4554669E-2,-7.463256E-2,-4.390262E-2,-1.285406E-1,-4.8399332E-1,1.971185E-1,1.9941699E-2,-5.6615483E-2,7.5463206E-3,-5.863224E-1,-1.1151719E-2,4.235448E-2,4.0286284E-2,-4.2838806E-1,2.096992E-1,-7.3731416E-1,-2.746265E-2,6.351583E-1,1.791378E-2,-5.1484235E-2,1.9951228E-2,-6.819887E-1,-2.0260533E-2,4.141051E-2,-4.731137E-2,-3.6595308E-3,-2.4839136E-1,2.1830931E-1,4.658435E-2,7.1591526E-2,-2.2695945E-3,-7.338601E-2,1.2382493E-1,-3.8452502E-2,-1.9558286E-2,4.4260004E-1,3.273739E-2,-1.6594328E-2,-3.159664E-2,2.4623498E-2,-6.8395534E-3,4.0264037E-2],"categories":[],"categories_nodes":[],"categories_segments":[],"categories_sizes":[],"default_left":[0,0,0,0,0,0,0,0,0,0,0,0,0,0,0,0,0,0,0,0,0,0,0,0,0,0,0,0,0,0,0,0,0,0,0,0,0,0,0,0,0,0,0,0,0,0,0,0,0,0,0,0,0,0,0,0,0,0,0,0,0,0,0,0,0],"id":20,"left_children":[1,3,-1,5,7,9,11,13,15,17,19,-1,21,23,-1,-1,-1,25,-1,27,29,31,33,-1,-1,-1,35,37,39,-1,-1,-1,41,-1,-1,-1,43,45,47,49,51,-1,-1,-1,53,-1,-1,-1,-1,55,57,-1,59,-1,-1,61,-1,-1,63,-1,-1,-1,-1,-1,-1],"loss_changes":[3.896566E0,1.2241802E0,0E0,2.9194021E0,1.6049156E0,4.385629E0,1.6714624E0,2.867793E0,1.3141736E0,2.19456E0,3.0072258E0,0E0,1.5508568E0,1.0078096E0,0E0,0E0,0E0,1.4927802E0,0E0,4.1610055E0,4.769673E0,1.0091773E0,1.1910927E0,0E0,0E0,0E0,2.6980872E0,2.5667262E0,2.5661926E0,0E0,0E0,0E0,2.2996316E0,0E0,0E0,0E0,1.743337E0,2.0281863E0,1.356503E0,1.0362527E0,1.4076648E0,0E0,0E0,0E0,2.8023086E0,0E0,0E0,0E0,0E0,2.0316658E0,1.4162462E0,0E0,1.1878566E0,0E0,0E0,2.1745133E0,0E0,0E0,1.6055999E0,0E0,0E0,0E0,0E0,0E0,0E0],"parents":[2147483647,0,0,1,1,3,3,4,4,5,5,6,6,7,7,8,8,9,9,10,10,12,12,13,13,17,17,19,19,20,20,21,21,22,22,26,26,27,27,28,28,32,32,36,36,37,37,38,38,39,39,40,40,44,44,49,49,50,50,52,52,55,55,58,58],"right_children":[2,4,-1,6,8,10,12,14,16,18,20,-1,22,24,-1,-1,-1,26,-1,28,30,32,34,-1,-1,-1,36,38,40,-1,-1,-1,42,-1,-1,-1,44,46,48,50,52,-1,-1,-1,54,-1,-1,-1,-1,56,58,-1,60,-1,-1,62,-1,-1,64,-1,-1,-1,-1,-1,-1],"split_conditions":[2E0,4E0,3.615613E-2,5E0,5E0,1E0,1E0,1E0,1E0,1E0,4E0,3.855763E-2,2E0,1E0,-1.6642226E-2,-2.72044E-2,2.1670133E-2,1E0,-6.0725134E-2,1E0,1E0,1E0,2E0,-1.4554669E-2,-7.463256E-2,-4.390262E-2,1E0,2E0,2E0,1.9941699E-2,-5.6615483E-2,7.5463206E-3,1E0,-1.1151719E-2,4.235448E-2,4.0286284E-2,1E0,4E0,2E0,3E0,4E0,1.791378E-2,-5.1484235E-2,1.9951228E-2,2E0,-2.0260533E-2,4.141051E-2,-4.731137E-2,-3.6595308E-3,2E0,2E0,4.658435E-2,1E0,-2.2695945E-3,-7.338601E-2,1E0,-3.8452502E-2,-1.9558286E-2,1E0,3.273739E-2,-1.6594328E-2,-3.159664E-2,2.4623498E-2,-6.8395534E-3,4.0264037E-2],"split_indices":[1,2,0,8,7,2,2,9,6,1,8,0,5,5,0,0,0,6,0,3,10,10,7,0,0,0,8,2,5,0,0,0,3,0,0,0,7,7,10,7,7,0,0,0,6,0,0,0,0,6,2,0,6,0,0,10,0,0,5,0,0,0,0,0,0],"split_type":[0,0,0,0,0,0,0,0,0,0,0,0,0,0,0,0,0,0,0,0,0,0,0,0,0,0,0,0,0,0,0,0,0,0,0,0,0,0,0,0,0,0,0,0,0,0,0,0,0,0,0,0,0,0,0,0,0,0,0,0,0,0,0,0,0],"sum_hessian":[9.716393E1,9.432038E1,2.8435543E0,7.411903E1,2.020134E1,6.244099E1,1.1678048E1,1.6463692E1,3.7376485E0,1.6880373E1,4.5560616E1,2.628851E0,9.049197E0,4.9325037E0,1.1531188E1,1.2979944E0,2.4396544E0,1.0955509E1,5.924865E0,3.763487E1,7.925745E0,6.15746E0,2.891737E0,1.5138109E0,3.4186928E0,3.5563302E0,7.3991785E0,1.2726492E1,2.4908377E1,2.337662E0,5.5880833E0,2.547324E0,3.6101363E0,1.1204824E0,1.7712544E0,1.3878354E0,6.011343E0,3.4503288E0,9.276163E0,1.7085844E1,7.822534E0,1.2145051E0,2.395631E0,1.2757074E0,4.7356358E0,1.9031352E0,1.5471938E0,6.733296E0,2.5428674E0,8.9920635E0,8.0937805E0,4.6976185E0,3.1249156E0,3.2004297E0,1.5352062E0,5.6879516E0,3.304112E0,1.977156E0,6.1166244E0,1.0232415E0,2.1016738E0,1.6306857E0,4.0572658E0,2.59457E0,3.5220544E0],"tree_param":{"num_deleted":"0","num_feature":"11","num_nodes":"65","size_leaf_vector":"1"}},{"base_weights":[-1.306064E-1,1.1463387E-1,-2.4444827E-1,4.9788103E-1,-4.6242177E-2,-5.437463E-1,-1.3153529E-1,-1.2490552E-2,3.44068E-2,-3.884612E-1,1.9230092E-1,-1.2917769E-1,-8.1154716E-1,2.3986107E-1,-3.6100903E-1,-5.0822835E-2,1.7037457E-1,4.509951E-1,-1.3843136E-1,2.836299E-1,-3.8825016E-2,-1.3502377E0,-2.7847472E-1,-4.5170212E-1,5.3453887E-1,-7.431697E-1,-1.9253935E-1,3.4382887E-2,-1.8830203E-2,4.4069808E-2,-1.1563464E-1,-2.4928993E-2,3.6158764E-1,6.1072457E-1,-1.8431671E-2,-8.440646E-2,-8.435601E-3,-7.6343584E-1,4.158429E-2,1.099961E-1,-4.2848468E-2,-3.0178567E-2,4.218259E-2,-5.238078E-2,-2.1504106E-1,1.15913674E-1,-4.208693E-1,1.5137154E-2,-3.5430755E-2,-1.3511923E-2,3.725192E-2,-9.448453E-3,4.7478963E-2,-1.8726928E-3,-5.9084065E-2,-3.5896987E-2,3.8378015E-2,3.8240615E-2,-4.6467867E-2,-1.6228555E-1,4.491825E-2,1.5579402E-1,-6.9992644E-1,-3.1683136E-2,3.076875E-1,-3.989881E-2,2.9885814E-2,-2.6332363E-4,-6.390367E-2,3.3116378E-2,-1.4880175E-2],"categories":[],"categories_nodes":[],"categories_segments":[],"categories_sizes":[],"default_left":[0,0,0,0,0,0,0,0,0,0,0,0,0,0,0,0,0,0,0,0,0,0,0,0,0,0,0,0,0,0,0,0,0,0,0,0,0,0,0,0,0,0,0,0,0,0,0,0,0,0,0,0,0,0,0,0,0,0,0,0,0,0,0,0,0,0,0,0,0,0,0],"id":21,"left_children":[1,3,5,7,9,11,13,-1,-1,15,17,19,21,23,25,-1,27,29,31,33,-1,35,37,39,41,43,45,-1,-1,-1,47,-1,49,51,-1,-1,-1,53,-1,55,-1,-1,-1,-1,57,59,61,-1,-1,-1,-1,-1,-1,-1,-1,-1,-1,-1,-1,63,-1,65,67,-1,69,-1,-1,-1,-1,-1,-1],"loss_changes":[2.5824704E0,1.8534663E0,2.0510485E0,1.4326377E0,1.8564177E0,1.7697988E0,4.085608E0,0E0,0E0,3.4355145E0,1.2200251E0,2.308842E0,2.51548E0,4.015751E0,1.7498815E0,0E0,1.8930273E0,2.0106478E0,1.3874129E0,1.3996338E0,0E0,1.610877E0,4.0379744E0,1.4773386E0,5.2391853E0,1.164896E0,1.5810301E0,0E0,0E0,0E0,1.2720398E0,0E0,1.0217421E0,1.2749557E0,0E0,0E0,0E0,1.4497998E0,0E0,2.4198828E0,0E0,0E0,0E0,0E0,3.8043718E0,2.330901E0,2.1555824E0,0E0,0E0,0E0,0E0,0E0,0E0,0E0,0E0,0E0,0E0,0E0,0E0,2.0231473E0,0E0,2.5697734E0,3.5083423E0,0E0,1.2286539E0,0E0,0E0,0E0,0E0,0E0,0E0],"parents":[2147483647,0,0,1,1,2,2,3,3,4,4,5,5,6,6,9,9,10,10,11,11,12,12,13,13,14,14,16,16,17,17,18,18,19,19,21,21,22,22,23,23,24,24,25,25,26,26,30,30,32,32,33,33,37,37,39,39,44,44,45,45,46,46,59,59,61,61,62,62,64,64],"right_children":[2,4,6,8,10,12,14,-1,-1,16,18,20,22,24,26,-1,28,30,32,34,-1,36,38,40,42,44,46,-1,-1,-1,48,-1,50,52,-1,-1,-1,54,-1,56,-1,-1,-1,-1,58,60,62,-1,-1,-1,-1,-1,-1,-1,-1,-1,-1,-1,-1,64,-1,66,68,-1,70,-1,-1,-1,-1,-1,-1],"split_conditions":[2E0,1E0,3E0,1E0,1E0,3E0,1E0,-1.2490552E-2,3.44068E-2,1E0,1E0,2E0,1E0,2E0,1E0,-5.0822835E-2,1E0,1E0,3E0,2E0,-3.8825016E-2,4E0,5E0,2E0,1E0,3E0,2E0,3.4382887E-2,-1.8830203E-2,4.4069808E-2,3E0,-2.4928993E-2,1E0,1E0,-1.8431671E-2,-8.440646E-2,-8.435601E-3,1E0,4.158429E-2,4E0,-4.2848468E-2,-3.0178567E-2,4.218259E-2,-5.238078E-2,1E0,4E0,1E0,1.5137154E-2,-3.5430755E-2,-1.3511923E-2,3.725192E-2,-9.448453E-3,4.7478963E-2,-1.8726928E-3,-5.9084065E-2,-3.5896987E-2,3.8378015E-2,3.8240615E-2,-4.6467867E-2,1E0,4.491825E-2,1E0,3E0,-3.1683136E-2,2E0,-3.989881E-2,2.9885814E-2,-2.6332363E-4,-6.390367E-2,3.3116378E-2,-1.4880175E-2],"split_indices":[7,5,7,10,9,8,4,0,0,1,1,10,4,8,5,0,0,7,2,5,0,2,8,2,2,8,5,0,0,0,2,0,6,9,0,0,0,3,0,7,0,0,0,0,6,2,1,0,0,0,0,0,0,0,0,0,0,0,0,0,0,6,8,0,10,0,0,0,0,0,0],"split_type":[0,0,0,0,0,0,0,0,0,0,0,0,0,0,0,0,0,0,0,0,0,0,0,0,0,0,0,0,0,0,0,0,0,0,0,0,0,0,0,0,0,0,0,0,0,0,0,0,0,0,0,0,0,0,0,0,0,0,0,0,0,0,0,0,0,0,0,0,0,0,0],"sum_hessian":[9.049625E1,2.868834E1,6.1807907E1,7.862671E0,2.0825668E1,1.5885266E1,4.592264E1,1.531383E0,6.3312883E0,8.295826E0,1.2529842E1,6.8160534E0,9.069213E0,1.752068E1,2.840196E1,3.5206208E0,4.7752047E0,6.826569E0,5.7032733E0,4.504992E0,2.3110611E0,3.7483864E0,5.3208265E0,5.075769E0,1.2444911E1,7.6460905E0,2.075587E1,2.3220375E0,2.4531672E0,3.5639532E0,3.262616E0,3.31701E0,2.3862634E0,3.042789E0,1.4622029E0,2.5813923E0,1.1669941E0,3.9205139E0,1.4003128E0,2.4326763E0,2.6430926E0,2.4546487E0,9.990262E0,4.2262063E0,3.419884E0,9.038295E0,1.1717575E1,2.1999178E0,1.0626984E0,1.012755E0,1.3735082E0,1.0372411E0,2.005548E0,1.8313111E0,2.0892026E0,1.0361934E0,1.396483E0,1.412127E0,2.007757E0,7.2523336E0,1.7859616E0,3.9652393E0,7.7523365E0,3.4468696E0,3.8054638E0,1.0004163E0,2.964823E0,3.97971E0,3.7726262E0,2.3401434E0,1.4653205E0],"tree_param":{"num_deleted":"0","num_feature":"11","num_nodes":"71","size_leaf_vector":"1"}},{"base_weights":[-2.0418628E-1,1.4623976E-3,-3.2743865E-1,3.0551406E-3,-3.3604648E-2,-3.5952285E-1,2.3323333E-2,-4.6685916E-1,-7.109972E-3,-5.01372E-1,1.6341826E-2,-1.2852658E-1,-3.1884108E-2,-6.46814E-1,9.095798E-3,7.7811107E-3,-5.8990207E-2],"categories":[],"categories_nodes":[],"categories_segments":[],"categories_sizes":[],"default_left":[0,0,0,0,0,0,0,0,0,0,0,0,0,0,0,0,0],"id":22,"left_children":[1,3,5,-1,-1,7,-1,9,-1,11,-1,13,-1,15,-1,-1,-1],"loss_changes":[2.423103E0,1.519887E0,1.6900663E0,0E0,0E0,1.2867875E0,0E0,1.2155514E0,0E0,1.8080206E0,0E0,1.9210585E0,0E0,2.0731971E0,0E0,0E0,0E0],"parents":[2147483647,0,0,1,1,2,2,5,5,7,7,9,9,11,11,13,13],"right_children":[2,4,6,-1,-1,8,-1,10,-1,12,-1,14,-1,16,-1,-1,-1],"split_conditions":[1E0,2E0,2E0,3.0551406E-3,-3.3604648E-2,4E0,2.3323333E-2,2E0,-7.109972E-3,1E0,1.6341826E-2,2E0,-3.1884108E-2,2E0,9.095798E-3,7.7811107E-3,-5.8990207E-2],"split_indices":[4,3,1,0,0,7,0,0,0,7,0,8,0,6,0,0,0],"split_type":[0,0,0,0,0,0,0,0,0,0,0,0,0,0,0,0,0],"sum_hessian":[9.4579506E1,3.581302E1,5.8766487E1,3.3735195E1,2.0778227E0,5.7009693E1,1.7567931E0,3.7393013E1,1.961668E1,3.6187744E1,1.2052683E0,1.0208266E1,2.5979479E1,3.418132E0,6.790134E0,1.6468138E0,1.7713184E0],"tree_param":{"num_deleted":"0","num_feature":"11","num_nodes":"17","size_leaf_vector":"1"}},{"base_weights":[-2.675351E-1,-2.9225484E-1,2.2046285E-2,-5.3732294E-1,-2.172763E-1,-3.2037493E-2,9.669168E-3,2.5695514E-2,-3.062516E-1,-5.066977E-1,3.2065517E-1,4.9598634E-2,-4.6790838E-1,1.313543E-2,-5.6062907E-2,8.298536E-1,-7.226878E-1,3.0131385E-1,-4.8432495E-2,-1.1299444E-1,-6.5587777E-1,-2.1847252E-2,2.7159894E-2,2.7848792E-1,5.57664E-2,1.6414628E-3,-6.4409025E-2,5.2404785E-1,-5.1129002E-2,-3.983852E-2,1.1821714E-2,-3.4675777E-1,-9.0122724E-1,-2.0479461E-2,3.4582254E-2,-3.9366004E-4,3.507688E-2,1.4126192E-1,-5.1722395E-1,-1.4218328E-3,-5.289739E-2,-2.1200042E-2,3.9410647E-2,-7.679915E-1,1.5443492E-2,-1.0071926E0,5.873803E-3,-3.6150345E-3,-6.1575312E-2],"categories":[],"categories_nodes":[],"categories_segments":[],"categories_sizes":[],"default_left":[0,0,0,0,0,0,0,0,0,0,0,0,0,0,0,0,0,0,0,0,0,0,0,0,0,0,0,0,0,0,0,0,0,0,0,0,0,0,0,0,0,0,0,0,0,0,0,0,0],"id":23,"left_children":[1,3,-1,5,7,-1,-1,9,11,13,15,17,19,21,-1,23,25,27,-1,29,31,-1,-1,33,-1,-1,-1,35,-1,-1,-1,37,39,-1,-1,-1,-1,41,43,-1,-1,-1,-1,45,-1,47,-1,-1,-1],"loss_changes":[1.8681474E0,1.6576586E0,0E0,1.7823405E0,1.6427212E0,0E0,0E0,3.4904425E0,3.2118669E0,2.5522492E0,8.170114E0,4.9616175E0,2.4750595E0,1.499751E0,0E0,1.2699456E0,2.267384E0,5.068366E0,0E0,3.6381698E0,1.5663071E0,0E0,0E0,1.6359998E0,0E0,0E0,0E0,1.3101249E0,0E0,0E0,0E0,1.1201968E0,1.7734804E0,0E0,0E0,0E0,0E0,1.8130739E0,2.2141418E0,0E0,0E0,0E0,0E0,1.72966E0,0E0,1.1889434E0,0E0,0E0,0E0],"parents":[2147483647,0,0,1,1,3,3,4,4,7,7,8,8,9,9,10,10,11,11,12,12,13,13,15,15,16,16,17,17,19,19,20,20,23,23,27,27,31,31,32,32,37,37,38,38,43,43,45,45],"right_children":[2,4,-1,6,8,-1,-1,10,12,14,16,18,20,22,-1,24,26,28,-1,30,32,-1,-1,34,-1,-1,-1,36,-1,-1,-1,38,40,-1,-1,-1,-1,42,44,-1,-1,-1,-1,46,-1,48,-1,-1,-1],"split_conditions":[2E0,1E0,2.2046285E-2,5E0,1E0,-3.2037493E-2,9.669168E-3,1E0,2E0,1E0,2E0,5E0,1E0,1E0,-5.6062907E-2,1E0,1E0,3E0,-4.8432495E-2,2E0,1E0,-2.1847252E-2,2.7159894E-2,1E0,5.57664E-2,1.6414628E-3,-6.4409025E-2,1E0,-5.1129002E-2,-3.983852E-2,1.1821714E-2,1E0,1E0,-2.0479461E-2,3.4582254E-2,-3.9366004E-4,3.507688E-2,5E0,3E0,-1.4218328E-3,-5.289739E-2,-2.1200042E-2,3.9410647E-2,2E0,1.5443492E-2,2E0,5.873803E-3,-3.6150345E-3,-6.1575312E-2],"split_indices":[1,2,0,8,6,0,0,5,7,1,10,8,4,9,0,3,1,6,0,8,1,0,0,0,0,0,0,10,0,0,0,9,8,0,0,0,0,7,6,0,0,0,0,10,0,8,0,0,0],"split_type":[0,0,0,0,0,0,0,0,0,0,0,0,0,0,0,0,0,0,0,0,0,0,0,0,0,0,0,0,0,0,0,0,0,0,0,0,0,0,0,0,0,0,0,0,0,0,0,0,0],"sum_hessian":[9.831416E1,9.556709E1,2.747064E0,2.094425E1,7.462285E1,1.8455147E1,2.4891036E0,2.0192583E1,5.4430264E1,6.942937E0,1.3249645E1,1.7219244E1,3.7211018E1,4.291526E0,2.6514115E0,9.041572E0,4.208074E0,1.4370809E1,2.8484368E0,1.3438423E1,2.3772594E1,2.4158661E0,1.8756595E0,3.7583039E0,5.2832675E0,2.2046003E0,2.0034738E0,1.2818385E1,1.5524235E0,4.1118956E0,9.326528E0,1.1587112E1,1.2185482E1,1.4132669E0,2.345037E0,3.4461675E0,9.372217E0,3.0439758E0,8.543137E0,2.0348225E0,1.015066E1,1.8084708E0,1.2355049E0,6.607661E0,1.9354761E0,5.094073E0,1.5135875E0,1.2416129E0,3.8524601E0],"tree_param":{"num_deleted":"0","num_feature":"11","num_nodes":"49","size_leaf_vector":"1"}},{"base_weights":[-2.8163424E-1,-2.9978397E-1,2.6747707E-1,-1.4233357E-1,-3.768798E-1,3.904838E-2,-1.6683523E-2,1.26253E-1,-2.6275003E-1,-4.119609E-1,2.5773395E-2,3.2053348E-2,-2.0864375E-1,-8.936411E-1,-9.551905E-2,-5.4770166E-1,-2.7382088E-1,1.5119898E-2,-2.2578314E-2,3.5790752E-3,-6.8498716E-2,-8.199476E-3,-3.427018E-2,-1.2922995E-1,-7.546396E-1,-6.497415E-2,-4.9073917E-1,-1.7724319E-1,4.2758334E-1,2.1480864E-2,-1.6079156E-2,-6.1303068E-2,-5.136636E-1,4.4753736E-1,-3.0764034E-1,-9.4008344E-1,-2.5416607E-1,1.2690609E-5,-6.007234E-1,-2.6629798E-3,4.2922765E-2,-3.2740498E-1,-5.7329662E-2,3.8036417E-2,-2.0644194E-2,-3.423346E-2,-9.130695E-3,-6.9088126E-3,-7.62671E-2,2.4913002E-2,-2.465916E-2,-5.0454E-2,2.045607E-3,3.8355267E-1,-5.7552814E-1,-3.5738185E-2,2.9626232E-1,4.5682427E-2,-1.9563712E-2,-3.053466E-1,-6.1998915E-2,4.147574E-2,-2.3174832E-2,2.37841E-2,-2.7290646E-2],"categories":[],"categories_nodes":[],"categories_segments":[],"categories_sizes":[],"default_left":[0,0,0,0,0,0,0,0,0,0,0,0,0,0,0,0,0,0,0,0,0,0,0,0,0,0,0,0,0,0,0,0,0,0,0,0,0,0,0,0,0,0,0,0,0,0,0,0,0,0,0,0,0,0,0,0,0,0,0,0,0,0,0,0,0],"id":24,"left_children":[1,3,5,7,9,-1,-1,11,13,15,-1,-1,17,19,21,23,25,-1,-1,-1,-1,27,-1,29,31,33,35,37,39,-1,-1,-1,41,43,45,47,49,-1,51,-1,-1,53,-1,-1,-1,-1,55,-1,-1,-1,-1,-1,-1,57,59,-1,61,-1,-1,63,-1,-1,-1,-1,-1],"loss_changes":[1.0925293E0,1.1456575E0,1.426943E0,1.1354703E0,2.2695827E0,0E0,0E0,2.069166E0,2.4316216E0,1.0461073E0,0E0,0E0,1.0745494E0,2.3412755E0,1.023396E0,2.601985E0,1.490907E0,0E0,0E0,0E0,0E0,1.4322617E0,0E0,1.3766478E0,1.716279E0,2.4109137E0,1.4975872E0,1.0505466E0,1.1726936E0,0E0,0E0,0E0,1.438561E0,2.0066173E0,1.4565524E0,2.2595725E0,2.4167998E0,0E0,1.1228011E0,0E0,0E0,2.5648503E0,0E0,0E0,0E0,0E0,1.9933697E0,0E0,0E0,0E0,0E0,0E0,0E0,2.0159693E0,1.4615388E0,0E0,3.0086632E0,0E0,0E0,1.8774166E0,0E0,0E0,0E0,0E0,0E0],"parents":[2147483647,0,0,1,1,2,2,3,3,4,4,7,7,8,8,9,9,12,12,13,13,14,14,15,15,16,16,21,21,23,23,24,24,25,25,26,26,27,27,28,28,32,32,33,33,34,34,35,35,36,36,38,38,41,41,46,46,53,53,54,54,56,56,59,59],"right_children":[2,4,6,8,10,-1,-1,12,14,16,-1,-1,18,20,22,24,26,-1,-1,-1,-1,28,-1,30,32,34,36,38,40,-1,-1,-1,42,44,46,48,50,-1,52,-1,-1,54,-1,-1,-1,-1,56,-1,-1,-1,-1,-1,-1,58,60,-1,62,-1,-1,64,-1,-1,-1,-1,-1],"split_conditions":[2E0,1E0,1E0,1E0,2E0,3.904838E-2,-1.6683523E-2,2E0,1E0,3E0,2.5773395E-2,3.2053348E-2,1E0,2E0,3E0,1E0,1E0,1.5119898E-2,-2.2578314E-2,3.5790752E-3,-6.8498716E-2,4E0,-3.427018E-2,1E0,1E0,1E0,1E0,2E0,3E0,2.1480864E-2,-1.6079156E-2,-6.1303068E-2,4E0,2E0,3E0,3E0,4E0,1.2690609E-5,2E0,-2.6629798E-3,4.2922765E-2,1E0,-5.7329662E-2,3.8036417E-2,-2.0644194E-2,-3.423346E-2,1E0,-6.9088126E-3,-7.62671E-2,2.4913002E-2,-2.465916E-2,-5.0454E-2,2.045607E-3,4E0,3E0,-3.5738185E-2,5E0,4.5682427E-2,-1.9563712E-2,1E0,-6.1998915E-2,4.147574E-2,-2.3174832E-2,2.37841E-2,-2.7290646E-2],"split_indices":[0,4,1,0,1,0,0,8,8,7,0,0,5,2,6,7,1,0,0,0,0,2,0,6,6,9,9,10,7,0,0,0,2,10,8,8,7,0,2,0,0,5,0,0,0,0,2,0,0,0,0,0,0,8,6,0,7,0,0,0,0,0,0,0,0],"split_type":[0,0,0,0,0,0,0,0,0,0,0,0,0,0,0,0,0,0,0,0,0,0,0,0,0,0,0,0,0,0,0,0,0,0,0,0,0,0,0,0,0,0,0,0,0,0,0,0,0,0,0,0,0,0,0,0,0,0,0,0,0,0,0,0,0],"sum_hessian":[1.0057749E2,9.7799E1,2.7784877E0,3.3082283E1,6.471672E1,1.3371702E0,1.4413174E0,1.0225665E1,2.2856617E1,6.2786713E1,1.9300098E0,3.6699216E0,6.555743E0,3.8790107E0,1.8977606E1,3.017297E1,3.2613743E1,2.0333357E0,4.5224075E0,1.5625155E0,2.3164954E0,1.7413774E1,1.5638304E0,1.0521265E1,1.9651705E1,1.7278097E1,1.5335646E1,1.2974238E1,4.439537E0,2.3782396E0,8.143025E0,5.2646217E0,1.4387083E1,5.2807956E0,1.1997302E1,4.2636194E0,1.1072026E1,9.846562E0,3.127676E0,2.5122814E0,1.9272555E0,1.2288197E1,2.0988867E0,3.9565043E0,1.3242915E0,4.729784E0,7.267518E0,2.320382E0,1.9432374E0,2.4077637E0,8.664263E0,1.5613295E0,1.5663465E0,3.0378637E0,9.250333E0,1.7903382E0,5.47718E0,1.6974161E0,1.3404475E0,7.6138887E0,1.6364437E0,3.1643808E0,2.312799E0,1.5620906E0,6.0517983E0],"tree_param":{"num_deleted":"0","num_feature":"11","num_nodes":"65","size_leaf_vector":"1"}},{"base_weights":[-1.11367986E-1,9.984005E-2,-2.0528433E-1,-1.9109595E-1,2.8154233E-1,-4.161965E-1,-1.308754E-1,1.7399801E-1,-7.697367E-1,8.871088E-2,6.075901E-1,-5.314666E-1,1.5564441E-2,7.292233E-2,-2.4822529E-1,-2.4061939E-2,5.6261784E-1,1.3404759E-2,-5.687308E-2,-1.3719434E-1,2.6271893E-2,5.044421E-2,1.076558E-1,-1.3294614E-2,-4.894216E-2,4.3536535E-1,-1.5550603E-1,-3.528513E-1,2.8233925E-1,4.5588728E-2,-1.2959984E-2,1.8094136E-1,-2.4336524E-2,-3.6095314E-2,2.9568449E-2,-1.0157098E-2,4.2094637E-2,3.6681987E-2,-5.579225E-1,1.7689295E-2,-6.09993E-1,3.390884E-2,-2.436527E-2,6.022903E-1,-2.624241E-2,2.2222036E-2,-3.2659993E-1,1.38209015E-2,-4.782642E-2,-3.8870677E-1,4.701922E-1,-7.950916E-1,-1.9872981E-1,-1.2850979E-2,4.8347946E-2,5.402627E-3,-3.7095513E-2,-7.594664E-1,1.5904333E-2,-1.3349875E-2,3.7954103E-2,-1.5790716E-1,-1.0903403E0,-5.082227E-2,3.4152758E-1,5.3943493E-3,-1.1136689E0,-4.090214E-2,1.8487789E-2,-1.1867546E-2,-1.4123597E0,-6.4352714E-3,4.1541856E-2,-8.016294E-2,-1.3518611E-2,-8.23097E-2,-1.1672212E-2],"categories":[],"categories_nodes":[],"categories_segments":[],"categories_sizes":[],"default_left":[0,0,0,0,0,0,0,0,0,0,0,0,0,0,0,0,0,0,0,0,0,0,0,0,0,0,0,0,0,0,0,0,0,0,0,0,0,0,0,0,0,0,0,0,0,0,0,0,0,0,0,0,0,0,0,0,0,0,0,0,0,0,0,0,0,0,0,0,0,0,0,0,0,0,0,0,0],"id":25,"left_children":[1,3,5,7,9,11,13,15,17,19,21,23,-1,25,27,-1,29,-1,-1,31,-1,-1,33,-1,-1,35,37,39,41,-1,-1,43,-1,-1,-1,-1,-1,45,47,49,51,-1,-1,53,-1,-1,55,-1,-1,57,59,61,63,-1,-1,-1,-1,65,-1,-1,-1,67,69,-1,71,-1,73,-1,-1,-1,75,-1,-1,-1,-1,-1,-1],"loss_changes":[1.9728712E0,1.6908932E0,1.0198972E0,2.7749045E0,1.1700337E0,1.6240995E0,1.2632389E0,2.4302306E0,2.2209837E0,1.394454E0,1.3084846E0,1.5676208E0,0E0,1.7067764E0,1.9462643E0,0E0,1.8961083E0,0E0,0E0,1.1585771E0,0E0,0E0,2.1382017E0,0E0,0E0,2.2259893E0,1.0166503E0,2.7007093E0,2.1690662E0,0E0,0E0,2.0316598E0,0E0,0E0,0E0,0E0,0E0,1.5754629E0,1.6695145E0,2.4883175E0,1.1128106E0,0E0,0E0,1.5264065E0,0E0,0E0,1.1059897E0,0E0,0E0,2.1159165E0,1.5624015E0,1.930963E0,3.225197E0,0E0,0E0,0E0,0E0,1.652175E0,0E0,0E0,0E0,1.9428262E0,1.7166548E0,0E0,1.181773E0,0E0,1.0648742E0,0E0,0E0,0E0,1.054945E0,0E0,0E0,0E0,0E0,0E0,0E0],"parents":[2147483647,0,0,1,1,2,2,3,3,4,4,5,5,6,6,7,7,8,8,9,9,10,10,11,11,13,13,14,14,16,16,19,19,22,22,25,25,26,26,27,27,28,28,31,31,37,37,38,38,39,39,40,40,43,43,46,46,49,49,50,50,51,51,52,52,57,57,61,61,62,62,64,64,66,66,70,70],"right_children":[2,4,6,8,10,12,14,16,18,20,22,24,-1,26,28,-1,30,-1,-1,32,-1,-1,34,-1,-1,36,38,40,42,-1,-1,44,-1,-1,-1,-1,-1,46,48,50,52,-1,-1,54,-1,-1,56,-1,-1,58,60,62,64,-1,-1,-1,-1,66,-1,-1,-1,68,70,-1,72,-1,74,-1,-1,-1,76,-1,-1,-1,-1,-1,-1],"split_conditions":[2E0,1E0,1E0,2E0,2E0,5E0,1E0,1E0,1E0,4E0,3E0,4E0,1.5564441E-2,1E0,3E0,-2.4061939E-2,5E0,1.3404759E-2,-5.687308E-2,1E0,2.6271893E-2,5.044421E-2,1E0,-1.3294614E-2,-4.894216E-2,1E0,4E0,1E0,4E0,4.5588728E-2,-1.2959984E-2,3E0,-2.4336524E-2,-3.6095314E-2,2.9568449E-2,-1.0157098E-2,4.2094637E-2,4E0,3E0,3E0,4E0,3.390884E-2,-2.436527E-2,1E0,-2.624241E-2,2.2222036E-2,2E0,1.38209015E-2,-4.782642E-2,5E0,1E0,1E0,1E0,-1.2850979E-2,4.8347946E-2,5.402627E-3,-3.7095513E-2,2E0,1.5904333E-2,-1.3349875E-2,3.7954103E-2,1E0,1E0,-5.082227E-2,4E0,5.3943493E-3,1E0,-4.090214E-2,1.8487789E-2,-1.1867546E-2,3E0,-6.4352714E-3,4.1541856E-2,-8.016294E-2,-1.3518611E-2,-8.23097E-2,-1.1672212E-2],"split_indices":[7,9,2,6,5,8,4,4,4,8,2,8,0,9,6,0,8,0,0,1,0,0,6,0,0,3,2,3,8,0,0,8,0,0,0,0,0,7,7,8,8,0,0,4,0,0,6,0,0,7,10,6,0,0,0,0,0,2,0,0,0,5,0,0,2,0,1,0,0,0,8,0,0,0,0,0,0],"split_type":[0,0,0,0,0,0,0,0,0,0,0,0,0,0,0,0,0,0,0,0,0,0,0,0,0,0,0,0,0,0,0,0,0,0,0,0,0,0,0,0,0,0,0,0,0,0,0,0,0,0,0,0,0,0,0,0,0,0,0,0,0,0,0,0,0,0,0,0,0,0,0,0,0,0,0,0,0],"sum_hessian":[9.742643E1,2.9968142E1,6.745829E1,1.1501153E1,1.8466988E1,1.6394552E1,5.1063736E1,7.4805756E0,4.020578E0,1.2403423E1,6.063564E0,1.4384737E1,2.0098155E0,1.8797436E1,3.22663E1,2.6962333E0,4.7843423E0,1.1227552E0,2.8978229E0,8.62687E0,3.7765532E0,2.7988834E0,3.2646804E0,1.0026867E1,4.35787E0,6.9167852E0,1.18806505E1,2.7231306E1,5.034994E0,3.2809427E0,1.5033994E0,4.7688065E0,3.8580637E0,1.0210927E0,2.2435877E0,2.8853087E0,4.031476E0,8.655676E0,3.2249746E0,1.1537295E1,1.5694011E1,3.403419E0,1.6315753E0,3.0779476E0,1.6908588E0,3.9729314E0,4.6827445E0,1.141722E0,2.0832527E0,6.152593E0,5.3847027E0,1.017929E1,5.5147204E0,1.004985E0,2.0729628E0,2.6495864E0,2.0331578E0,3.9867542E0,2.1658387E0,1.537384E0,3.8473184E0,3.7091959E0,6.4700937E0,1.8433214E0,3.671399E0,1.3576407E0,2.6291137E0,1.4032896E0,2.3059063E0,2.2492313E0,4.2208624E0,2.2480032E0,1.423396E0,1.0932369E0,1.5358766E0,3.1914792E0,1.0293832E0],"tree_param":{"num_deleted":"0","num_feature":"11","num_nodes":"77","size_leaf_vector":"1"}},{"base_weights":[-2.0030762E-1,7.5767115E-2,-3.2873213E-1,2.1389805E-1,-4.1041037E-1,-4.3630084E-1,-5.9784684E-2,-7.985081E-3,2.4659583E-2,2.1612491E-2,-3.4133565E-2,-1.3577458E-1,-7.5969446E-1,-5.884021E-1,1.7801136E-1,-7.641688E-1,1.22122755E-2,-5.382625E-1,2.4746994E-2,-5.4135915E-2,-4.624779E-1,-4.788241E-2,-3.060229E-3,4.9989966E-1,-2.0879349E-1,-6.0667045E-2,1.3704483E-2,2.0920001E-2,-7.417739E-2,2.3760594E-1,