{"learner":{"attributes":{"scikit_learn":"{\"_estimator_type\": \"classifier\"}"},"feature_names":["Gender","Married","Dependent_No","Education","Self_Employed","Applicant_Income","CoApplicant_Income","Loan_Amount","Loan_Amount_Term","Credit History","Property_District"],"feature_types":["int","int","int","int","int","int","int","int","int","int","int"],"gradient_booster":{"model":{"gbtree_model_param":{"num_parallel_tree":"1","num_trees":"100"},"iteration_indptr":[0,1,2,3,4,5,6,7,8,9,10,11,12,13,14,15,16,17,18,19,20,21,22,23,24,25,26,27,28,29,30,31,32,33,34,35,36,37,38,39,40,41,42,43,44,45,46,47,48,49,50,51,52,53,54,55,56,57,58,59,60,61,62,63,64,65,66,67,68,69,70,71,72,73,74,75,76,77,78,79,80,81,82,83,84,85,86,87,88,89,90,91,92,93,94,95,96,97,98,99,100],"tree_info":[0,0,0,0,0,0,0,0,0,0,0,0,0,0,0,0,0,0,0,0,0,0,0,0,0,0,0,0,0,0,0,0,0,0,0,0,0,0,0,0,0,0,0,0,0,0,0,0,0,0,0,0,0,0,0,0,0,0,0,0,0,0,0,0,0,0,0,0,0,0,0,0,0,0,0,0,0,0,0,0,0,0,0,0,0,0,0,0,0,0,0,0,0,0,0,0,0,0,0,0],"trees":[{"base_weights":[-5.386989E-1,-1.0763762E0,-4.162174E-1,-1.2502042E0,-3.9365E-1,-6.6687447E-1,-2.4273755E-1,-1.3891596E0,-6.458365E-4,-1.0647805E-2,1.248774E-3,-8.555069E-3,-9.670875E-1,3.5802466E-1,-5.040613E-1,-8.8565046E-1,-1.9388622E0,8.620428E-3,-6.928268E-3,-6.84432E-1,-1.6002101E0,6.975313E-1,-9.519292E-2,-1.1382762E0,-2.9996815E-1,-1.4832228E-3,-1.23059545E-2,-3.5657738E-3,-2.6322374E-2,-1.072124E0,-2.1118537E-1,-6.061966E-3,-2.06072E0,1.0137129E-2,2.9132327E-1,4.777136E-1,-5.9980974E-3,-3.0580884E-1,-1.7440408E-2,-3.944786E-2,-4.8058668E-1,-1.8013151E0,-3.388138E-2,2.7395114E-1,-5.360154E-1,-6.186479E-3,-2.5451107E-2,-8.141247E-2,7.622587E-3,-2.9899424E-3,8.591263E-3,-7.8345975E-3,6.5064913E-4,-5.9143406E-1,7.1148235E-1,-7.329153E-1,1.4019825E-1,-2.4212893E-2,-4.9638962E-3,6.699367E-3,-4.2152196E-1,-4.7800485E-3,8.309665E-3,-1.3048472E-2,3.5423804E-2,3.488375E-3,-4.7800485E-3,1.248774E-3,-1.0056685E0,9.895331E-3,-6.458365E-4,3.5423804E-2,-1.0337368E-2,-3.9457264E-3,6.0386513E-3,-7.417564E-3,1.8547121E-3,7.1975016E-3,-4.9638962E-3,-1.5121142E-2,-3.0368122E-1,7.989594E-3,-7.417564E-3,-7.8345975E-3,2.7361747E-3],"categories":[],"categories_nodes":[],"categories_segments":[],"categories_sizes":[],"default_left":[0,0,0,0,0,0,0,0,0,0,0,0,0,0,0,0,0,0,0,0,0,0,0,0,0,0,0,0,0,0,0,0,0,0,0,0,0,0,0,0,0,0,0,0,0,0,0,0,0,0,0,0,0,0,0,0,0,0,0,0,0,0,0,0,0,0,0,0,0,0,0,0,0,0,0,0,0,0,0,0,0,0,0,0,0],"id":0,"left_children":[1,3,5,7,9,11,13,15,-1,-1,-1,17,19,21,23,25,27,-1,-1,29,31,33,35,37,39,-1,-1,-1,-1,41,43,-1,45,-1,47,49,-1,51,-1,53,55,57,59,61,63,-1,-1,65,-1,-1,-1,-1,-1,67,69,71,73,-1,-1,-1,75,-1,-1,-1,77,-1,-1,-1,79,-1,-1,81,-1,-1,-1,-1,-1,-1,-1,-1,83,-1,-1,-1,-1],"loss_changes":[5.7964725E0,1.5208492E0,3.2672205E0,2.061922E0,1.8387959E0,6.253319E0,7.7438536E0,1.5049324E0,0E0,0E0,0E0,7.109649E0,2.797144E0,2.4034462E0,4.057929E0,1.831028E0,4.244686E0,0E0,0E0,2.8531208E0,1.4817276E0,8.353796E-1,2.4214656E0,3.4589596E0,1.2548714E0,0E0,0E0,0E0,0E0,6.738264E0,1.534178E0,0E0,9.823055E-1,0E0,9.8475814E-1,1.4463133E0,0E0,8.5648656E-1,0E0,5.4666953E0,2.5930173E0,3.0507278E0,1.5713593E0,2.1531937E0,2.511465E0,0E0,0E0,8.215844E-1,0E0,0E0,0E0,0E0,0E0,2.3694296E0,1.2747312E0,2.6863165E0,1.585629E0,0E0,0E0,0E0,8.4906906E-1,0E0,0E0,0E0,1.8830302E0,0E0,0E0,0E0,1.283484E0,0E0,0E0,3.0804183E0,0E0,0E0,0E0,0E0,0E0,0E0,0E0,0E0,1.1299429E0,0E0,0E0,0E0,0E0],"parents":[2147483647,0,0,1,1,2,2,3,3,4,4,5,5,6,6,7,7,11,11,12,12,13,13,14,14,15,15,16,16,19,19,20,20,21,21,22,22,23,23,24,24,29,29,30,30,32,32,34,34,35,35,37,37,39,39,40,40,41,41,42,42,43,43,44,44,47,47,53,53,54,54,55,55,56,56,60,60,64,64,68,68,71,71,80,80],"right_children":[2,4,6,8,10,12,14,16,-1,-1,-1,18,20,22,24,26,28,-1,-1,30,32,34,36,38,40,-1,-1,-1,-1,42,44,-1,46,-1,48,50,-1,52,-1,54,56,58,60,62,64,-1,-1,66,-1,-1,-1,-1,-1,68,70,72,74,-1,-1,-1,76,-1,-1,-1,78,-1,-1,-1,80,-1,-1,82,-1,-1,-1,-1,-1,-1,-1,-1,84,-1,-1,-1,-1],"split_conditions":[1E0,2E0,1E0,2E0,1E0,1E0,1E0,2E0,-6.458365E-4,-1.0647805E-2,1.248774E-3,2E0,5E0,4E0,1E0,1E0,1E0,8.620428E-3,-6.928268E-3,3E0,2E0,3E0,1E0,1E0,2E0,-1.4832228E-3,-1.23059545E-2,-3.5657738E-3,-2.6322374E-2,2E0,3E0,-6.061966E-3,1E0,1.0137129E-2,3E0,1E0,-5.9980974E-3,3E0,-1.7440408E-2,3E0,3E0,3E0,2E0,1E0,4E0,-6.186479E-3,-2.5451107E-2,1E0,7.622587E-3,-2.9899424E-3,8.591263E-3,-7.8345975E-3,6.5064913E-4,1E0,4E0,1E0,1E0,-2.4212893E-2,-4.9638962E-3,6.699367E-3,4E0,-4.7800485E-3,8.309665E-3,-1.3048472E-2,2E0,3.488375E-3,-4.7800485E-3,1.248774E-3,1E0,9.895331E-3,-6.458365E-4,1E0,-1.0337368E-2,-3.9457264E-3,6.0386513E-3,-7.417564E-3,1.8547121E-3,7.1975016E-3,-4.9638962E-3,-1.5121142E-2,1E0,7.989594E-3,-7.417564E-3,-7.8345975E-3,2.7361747E-3],"split_indices":[7,10,3,0,2,5,6,6,0,0,0,2,7,7,2,4,5,0,0,7,5,8,9,9,6,0,0,0,0,5,8,0,9,0,7,2,0,7,0,8,6,2,8,6,8,0,0,1,0,0,0,0,0,4,2,9,4,0,0,0,8,0,0,0,2,0,0,0,8,0,0,1,0,0,0,0,0,0,0,0,0,0,0,0,0],"split_type":[0,0,0,0,0,0,0,0,0,0,0,0,0,0,0,0,0,0,0,0,0,0,0,0,0,0,0,0,0,0,0,0,0,0,0,0,0,0,0,0,0,0,0,0,0,0,0,0,0,0,0,0,0,0,0,0,0,0,0,0,0,0,0,0,0,0,0,0,0,0,0,0,0,0,0,0,0,0,0,0,0,0,0,0,0],"sum_hessian":[9.382085E1,1.5961959E1,7.785889E1,1.2060146E1,3.901812E0,3.0682432E1,4.7176456E1,1.0641306E1,1.4188408E0,1.2414857E0,2.6603265E0,9.931886E0,2.0750546E1,1.4188408E1,3.298805E1,6.9168487E0,3.724457E0,4.256522E0,5.675363E0,1.5784603E1,4.965943E0,7.803624E0,6.3847833E0,6.9168487E0,2.60712E1,2.6603265E0,4.256522E0,1.5961958E0,2.128261E0,7.9809794E0,7.803624E0,2.3056161E0,2.6603265E0,3.547102E0,4.256522E0,3.0150366E0,3.369747E0,3.547102E0,3.369747E0,1.1173371E1,1.4897828E1,4.256522E0,3.724457E0,3.1923916E0,4.6112323E0,1.2414857E0,1.4188408E0,2.8376815E0,1.4188408E0,1.0641305E0,1.950906E0,1.0641305E0,2.4829714E0,6.5621386E0,4.6112323E0,1.0463951E1,4.4338775E0,2.3056161E0,1.950906E0,1.0641305E0,2.6603265E0,1.4188408E0,1.773551E0,1.4188408E0,3.1923916E0,1.4188408E0,1.4188408E0,2.6603265E0,3.901812E0,3.1923916E0,1.4188408E0,3.1923916E0,7.271559E0,2.128261E0,2.3056161E0,1.5961958E0,1.0641305E0,1.2414857E0,1.950906E0,1.5961958E0,2.3056161E0,1.5961958E0,1.5961958E0,1.0641305E0,1.2414857E0],"tree_param":{"num_deleted":"0","num_feature":"11","num_nodes":"85","size_leaf_vector":"1"}},{"base_weights":[-5.2858204E-1,-3.3144772E-1,-8.063635E-1,-3.929537E-2,-5.503906E-1,-5.075585E-1,-1.200977E0,-6.560799E-1,3.108421E-1,-1.3554246E0,-3.4461442E-1,-6.19223E-1,7.6451264E-3,-1.540156E0,-3.146785E-2,-8.549965E-1,-2.0774612E-5,-6.9315827E-1,5.3778076E-1,-1.5955429E-3,-1.8307581E0,-1.4631614E-2,-5.4430294E-1,-8.802147E-2,-8.1845033E-1,-7.521803E-1,-1.9486482E0,-7.373084E-3,5.6508365E-3,-1.0963054E0,2.8902685E-4,2.735746E-3,-1.3018318E-2,7.166194E-1,-3.0183506E-3,-2.40258E-2,-6.0195415E-3,7.191188E-3,-1.7125499E-1,8.905472E-4,-7.018303E-1,9.090125E-3,-7.1911424E-1,-1.5068436E0,-3.7823617E-1,3.4877583E-3,-1.1702992E0,-2.2655755E-2,-1.636946E-3,2.7041207E-4,-1.5118512E-2,-7.4326777E-4,8.857601E-3,4.377569E-1,-4.5696822E-1,-7.4082403E-4,-8.069971E-1,-1.3415216E-2,1.8494654E-3,-2.0471683E-2,-5.0581986E-1,-5.4985225E-1,6.7101214E-3,-6.922269E-4,-2.1094041E-2,-2.9860165E-3,8.288473E-3,3.5561319E-4,-8.2437927E-1,-1.2624384E-2,-5.135438E-1,2.7466472E-3,-1.0603053E-2,4.7156313E-3,-8.14013E-1,-1.50721455E-2,1.118783E-3,-1.1225571E-2,-1.2419214E-2,-9.799697E-3,1.8836319E-3,-4.358334E-3,5.6333384E-3],"categories":[],"categories_nodes":[],"categories_segments":[],"categories_sizes":[],"default_left":[0,0,0,0,0,0,0,0,0,0,0,0,0,0,0,0,0,0,0,0,0,0,0,0,0,0,0,0,0,0,0,0,0,0,0,0,0,0,0,0,0,0,0,0,0,0,0,0,0,0,0,0,0,0,0,0,0,0,0,0,0,0,0,0,0,0,0,0,0,0,0,0,0,0,0,0,0,0,0,0,0,0,0],"id":1,"left_children":[1,3,5,7,9,11,13,15,17,19,21,23,-1,25,27,29,-1,31,33,-1,35,37,39,41,43,45,47,-1,-1,49,-1,-1,-1,51,-1,-1,-1,-1,53,-1,55,-1,57,59,61,-1,63,-1,-1,-1,-1,-1,-1,65,67,-1,69,-1,-1,-1,71,73,-1,-1,-1,-1,-1,-1,75,-1,77,-1,-1,-1,79,-1,-1,81,-1,-1,-1,-1,-1],"loss_changes":[5.100456E0,3.7543197E0,4.1058025E0,5.897685E0,5.1100464E0,3.952074E0,6.4968567E0,1.2820511E0,4.3592343E0,3.4100227E0,1.8472114E0,2.3690424E0,0E0,2.6447258E0,2.4084985E0,1.6451674E0,0E0,2.5112782E0,2.4436731E0,0E0,1.7613392E0,1.46106E0,1.8097172E0,5.3173933E0,4.476962E0,3.1648924E0,4.031143E0,0E0,0E0,2.8267727E0,0E0,0E0,0E0,1.7414908E0,0E0,0E0,0E0,0E0,2.0099483E0,0E0,8.7349844E-1,0E0,3.1162808E0,2.296773E0,2.4385443E0,0E0,4.579312E0,0E0,0E0,0E0,0E0,0E0,0E0,1.3511276E0,1.399065E0,0E0,9.564514E-1,0E0,0E0,0E0,1.8006674E0,3.1973505E0,0E0,0E0,0E0,0E0,0E0,0E0,2.9666688E0,0E0,3.2745342E0,0E0,0E0,0E0,1.6237874E0,0E0,0E0,1.7894483E0,0E0,0E0,0E0,0E0,0E0],"parents":[2147483647,0,0,1,1,2,2,3,3,4,4,5,5,6,6,7,7,8,8,9,9,10,10,11,11,13,13,14,14,15,15,17,17,18,18,20,20,21,21,22,22,23,23,24,24,25,25,26,26,29,29,33,33,38,38,40,40,42,42,43,43,44,44,46,46,53,53,54,54,56,56,60,60,61,61,68,68,70,70,74,74,77,77],"right_children":[2,4,6,8,10,12,14,16,18,20,22,24,-1,26,28,30,-1,32,34,-1,36,38,40,42,44,46,48,-1,-1,50,-1,-1,-1,52,-1,-1,-1,-1,54,-1,56,-1,58,60,62,-1,64,-1,-1,-1,-1,-1,-1,66,68,-1,70,-1,-1,-1,72,74,-1,-1,-1,-1,-1,-1,76,-1,78,-1,-1,-1,80,-1,-1,82,-1,-1,-1,-1,-1],"split_conditions":[2E0,1E0,2E0,1E0,1E0,2E0,2E0,4E0,1E0,2E0,2E0,2E0,7.6451264E-3,1E0,1E0,2E0,-2.0774612E-5,1E0,5E0,-1.5955429E-3,4E0,2E0,1E0,1E0,1E0,1E0,3E0,-7.373084E-3,5.6508365E-3,1E0,2.8902685E-4,2.735746E-3,-1.3018318E-2,1E0,-3.0183506E-3,-2.40258E-2,-6.0195415E-3,7.191188E-3,1E0,8.905472E-4,2E0,9.090125E-3,3E0,4E0,2E0,3.4877583E-3,3E0,-2.2655755E-2,-1.636946E-3,2.7041207E-4,-1.5118512E-2,-7.4326777E-4,8.857601E-3,3E0,1E0,-7.4082403E-4,1E0,-1.3415216E-2,1.8494654E-3,-2.0471683E-2,3E0,1E0,6.7101214E-3,-6.922269E-4,-2.1094041E-2,-2.9860165E-3,8.288473E-3,3.5561319E-4,4E0,-1.2624384E-2,2E0,2.7466472E-3,-1.0603053E-2,4.7156313E-3,4E0,-1.50721455E-2,1.118783E-3,4E0,-1.2419214E-2,-9.799697E-3,1.8836319E-3,-4.358334E-3,5.6333384E-3],"split_indices":[6,4,5,0,8,0,10,8,2,2,2,7,0,4,4,5,0,1,7,0,2,8,10,3,3,9,6,0,0,8,0,0,0,7,0,0,0,0,5,0,8,0,8,7,3,0,8,0,0,0,0,0,0,7,1,0,0,0,0,0,8,8,0,0,0,0,0,0,8,0,10,0,0,0,2,0,0,7,0,0,0,0,0],"split_type":[0,0,0,0,0,0,0,0,0,0,0,0,0,0,0,0,0,0,0,0,0,0,0,0,0,0,0,0,0,0,0,0,0,0,0,0,0,0,0,0,0,0,0,0,0,0,0,0,0,0,0,0,0,0,0,0,0,0,0,0,0,0,0,0,0,0,0,0,0,0,0,0,0,0,0,0,0,0,0,0,0,0,0],"sum_hessian":[9.70222E1,5.803176E1,3.8990437E1,2.5364902E1,3.266686E1,2.3489891E1,1.5500546E1,8.868616E0,1.6496286E1,5.512819E0,2.7154041E1,2.2066109E1,1.4237818E0,1.1770082E1,3.730464E0,6.5646353E0,2.3039808E0,2.662541E0,1.3833746E1,1.9478866E0,3.5649323E0,1.0641825E1,1.6512217E1,6.4118786E0,1.565423E1,4.9885664E0,6.781516E0,1.6006372E0,2.1298268E0,4.9680324E0,1.596603E0,1.2414048E0,1.421136E0,1.1525334E1,2.3084116E0,1.7809513E0,1.783981E0,1.2402241E0,9.401601E0,3.3754585E0,1.3136757E1,2.3146665E0,4.0972123E0,5.16086E0,1.049337E1,1.4187297E0,3.5698369E0,5.530318E0,1.2511984E0,1.5939713E0,3.374061E0,2.1292E0,9.396133E0,2.8322866E0,6.569314E0,2.1295784E0,1.1007179E1,2.1400173E0,1.9571948E0,2.6729834E0,2.4878764E0,9.427376E0,1.0659945E0,2.1374466E0,1.4323901E0,1.0644996E0,1.767787E0,3.192649E0,3.376665E0,3.0192604E0,7.9879184E0,1.2429582E0,1.2449182E0,1.775811E0,7.6515646E0,1.5999525E0,1.7767128E0,5.32855E0,2.6593685E0,6.5838704E0,1.0676942E0,3.202962E0,2.125588E0],"tree_param":{"num_deleted":"0","num_feature":"11","num_nodes":"83","size_leaf_vector":"1"}},{"base_weights":[-6.583057E-1,-3.4671646E-1,-8.746179E-1,3.8320888E-3,-6.027533E-1,-5.739626E-1,-1.0386697E0,2.3827088E-1,-8.1786406E-1,-1.213471E-2,-4.114877E-1,-8.7309554E-2,-7.934096E-1,-1.1386966E-2,-1.775259E-1,5.28338E-1,-1.9653584E-1,3.0668E-4,-1.3155257E-2,-9.221641E-1,-1.3410842E-1,5.467272E-3,-6.526515E-1,-2.554845E-1,-1.0253178E0,-8.734445E-3,3.578972E-3,-7.983851E-2,8.003754E-3,-6.478468E-1,7.98112E-3,-1.329063E0,6.703349E-3,2.8333902E-1,-1.251228E0,1.176299E-3,-1.1555868E-2,1.3603228E-1,-8.853014E-3,-3.4194419E-3,-1.235368E-2,-7.375797E-3,7.192108E-3,3.4431758E-4,-9.549045E-3,1.8547489E-3,-1.707358E-2,-7.040967E-3,5.972914E-1,2.9104628E-4,-2.1022247E-2,6.6806204E-3,-2.1695995E-3,2.4175288E-1,9.761164E-3,-3.585478E-3,5.430796E-1,8.837684E-3,-1.7562468E-3],"categories":[],"categories_nodes":[],"categories_segments":[],"categories_sizes":[],"default_left":[0,0,0,0,0,0,0,0,0,0,0,0,0,0,0,0,0,0,0,0,0,0,0,0,0,0,0,0,0,0,0,0,0,0,0,0,0,0,0,0,0,0,0,0,0,0,0,0,0,0,0,0,0,0,0,0,0,0,0],"id":2,"left_children":[1,3,5,7,9,11,13,15,17,-1,19,21,23,-1,25,27,29,-1,-1,31,33,-1,35,37,39,-1,-1,41,-1,43,-1,45,-1,47,49,-1,-1,51,-1,-1,-1,-1,-1,-1,-1,-1,-1,-1,53,-1,-1,-1,-1,55,-1,-1,57,-1,-1],"loss_changes":[6.3430595E0,3.7775784E0,2.2422028E0,3.8064692E0,2.3408365E0,2.3389702E0,2.8984756E0,2.0411983E0,1.8930151E0,0E0,2.7134373E0,3.27171E0,1.6614628E0,0E0,2.1498494E0,1.6331892E0,3.603528E0,0E0,0E0,5.3487773E0,6.9528794E0,0E0,1.9779155E0,1.5941473E0,1.0764065E0,0E0,0E0,2.5490558E0,0E0,1.1393745E0,0E0,3.6481943E0,0E0,3.866481E0,4.4560957E0,0E0,0E0,9.99877E-1,0E0,0E0,0E0,0E0,0E0,0E0,0E0,0E0,0E0,0E0,9.728465E-1,0E0,0E0,0E0,0E0,1.2726305E0,0E0,0E0,1.2240447E0,0E0,0E0],"parents":[2147483647,0,0,1,1,2,2,3,3,4,4,5,5,6,6,7,7,8,8,10,10,11,11,12,12,14,14,15,15,16,16,19,19,20,20,22,22,23,23,24,24,27,27,29,29,31,31,33,33,34,34,37,37,48,48,53,53,56,56],"right_children":[2,4,6,8,10,12,14,16,18,-1,20,22,24,-1,26,28,30,-1,-1,32,34,-1,36,38,40,-1,-1,42,-1,44,-1,46,-1,48,50,-1,-1,52,-1,-1,-1,-1,-1,-1,-1,-1,-1,-1,54,-1,-1,-1,-1,56,-1,-1,58,-1,-1],"split_conditions":[1E0,1E0,2E0,5E0,1E0,1E0,3E0,2E0,1E0,-1.213471E-2,1E0,1E0,1E0,-1.1386966E-2,1E0,1E0,3E0,3.0668E-4,-1.3155257E-2,5E0,5E0,5.467272E-3,3E0,2E0,1E0,-8.734445E-3,3.578972E-3,2E0,8.003754E-3,1E0,7.98112E-3,1E0,6.703349E-3,1E0,2E0,1.176299E-3,-1.1555868E-2,1E0,-8.853014E-3,-3.4194419E-3,-1.235368E-2,-7.375797E-3,7.192108E-3,3.4431758E-4,-9.549045E-3,1.8547489E-3,-1.707358E-2,-7.040967E-3,3E0,2.9104628E-4,-2.1022247E-2,6.6806204E-3,-2.1695995E-3,1E0,9.761164E-3,-3.585478E-3,2E0,8.837684E-3,-1.7562468E-3],"split_indices":[4,1,2,7,2,0,6,6,9,0,0,2,9,0,5,0,2,0,0,8,8,0,8,6,10,0,0,5,0,0,0,8,0,8,6,0,0,5,0,0,0,0,0,0,0,0,0,0,7,0,0,0,0,3,0,0,5,0,0],"split_type":[0,0,0,0,0,0,0,0,0,0,0,0,0,0,0,0,0,0,0,0,0,0,0,0,0,0,0,0,0,0,0,0,0,0,0,0,0,0,0,0,0,0,0,0,0,0,0,0,0,0,0,0,0,0,0,0,0,0,0],"sum_hessian":[9.7609055E1,4.1062702E1,5.6546352E1,1.774815E1,2.3314554E1,2.1550238E1,3.4996117E1,1.4360866E1,3.3872845E0,4.285708E0,1.9028845E1,7.1319785E0,1.4418259E1,3.106538E1,3.9307356E0,8.485158E0,5.8757076E0,1.5991125E0,1.788172E0,5.879562E0,1.3149283E1,3.3772666E0,3.754712E0,4.976537E0,9.441721E0,1.4346831E0,2.4960525E0,2.8407624E0,5.644396E0,4.28163E0,1.5940773E0,4.8147655E0,1.0647964E0,1.0115623E1,3.03366E0,1.7857784E0,1.9689336E0,3.5523083E0,1.4242291E0,2.8376572E0,6.6040635E0,1.6003528E0,1.2404096E0,1.6044428E0,2.6771874E0,1.0641304E0,3.7506351E0,2.1405454E0,7.975078E0,1.5969033E0,1.4367565E0,1.0608408E0,2.4914675E0,4.9590383E0,3.01604E0,1.593862E0,3.365176E0,2.1271634E0,1.2380126E0],"tree_param":{"num_deleted":"0","num_feature":"11","num_nodes":"59","size_leaf_vector":"1"}},{"base_weights":[-5.3368986E-1,-2.3132697E-1,-6.5278196E-1,-1.0772008E-2,-1.1528225E0,-6.935764E-1,3.5158666E-3,-5.0471205E-1,2.7111173E-1,-3.8673192E-1,-1.4926851E-2,-8.0947673E-1,-3.4223413E-1,6.471459E-2,-9.423035E-1,3.6720756E-2,8.318601E-3,1.8769101E-3,-7.7302135E-3,-4.9810123E-1,-1.0222981E0,-4.5693126E-1,7.201008E-3,-7.737962E-3,4.8043546E-3,-1.4919249E-2,-2.0809741E-1,-4.5501417E-1,2.862762E-1,-1.1524364E0,-1.7228521E-1,-1.2277683E0,-3.27408E-1,-8.714744E-1,-1.10004924E-1,-6.032072E-3,2.8027433E-3,1.1232939E-3,-8.347337E-3,-1.8992431E-1,6.748464E-3,-1.4856431E-2,-1.4766376E-3,-8.972515E-3,7.1645804E-2,-3.8784838E-1,-1.5264149E0,-9.844653E-1,5.1997465E-1,-1.423206E-1,-1.2129499E-2,-5.7982258E-3,3.930447E-1,6.012419E-3,-1.1197747E-2,-2.068057E-1,5.099899E-3,3.1087329E-3,-7.795242E-1,-9.546347E-1,-1.8206921E0,3.544019E-3,-1.6299294E-2,8.644368E-3,-1.6550907E-3,-8.783397E-3,7.1946643E-3,9.081736E-3,-2.045744E-3,-5.9114325E-1,4.4360238E-1,1.8975615E-3,-1.0961243E0,2.8234576E-3,-1.2411752E0,-8.839478E-1,-2.1557279E-2,1.762524E-3,-1.0044074E-2,8.338449E-3,-2.9615865E-3,-1.5965418E-3,-1.484351E-2,-1.577227E-2,-2.4004697E-3,-5.6620856E-4,-1.7120859E-2],"categories":[],"categories_nodes":[],"categories_segments":[],"categories_sizes":[],"default_left":[0,0,0,0,0,0,0,0,0,0,0,0,0,0,0,0,0,0,0,0,0,0,0,0,0,0,0,0,0,0,0,0,0,0,0,0,0,0,0,0,0,0,0,0,0,0,0,0,0,0,0,0,0,0,0,0,0,0,0,0,0,0,0,0,0,0,0,0,0,0,0,0,0,0,0,0,0,0,0,0,0,0,0,0,0,0,0],"id":3,"left_children":[1,3,5,7,9,11,-1,13,15,17,-1,19,21,23,25,27,-1,-1,-1,29,31,33,-1,-1,-1,-1,35,37,39,41,43,45,47,49,51,-1,-1,-1,-1,53,-1,-1,-1,-1,55,57,59,61,63,65,-1,-1,67,-1,-1,69,-1,-1,71,73,75,-1,-1,-1,-1,-1,-1,-1,-1,77,79,-1,81,-1,83,85,-1,-1,-1,-1,-1,-1,-1,-1,-1,-1,-1],"loss_changes":[3.500164E0,6.1255884E0,3.2018795E0,3.6702678E0,9.388361E-1,2.5617676E0,0E0,2.445613E0,2.1785583E0,8.4163594E-1,0E0,2.9160652E0,2.6471808E0,2.1475732E0,1.8991861E0,1.7131977E0,0E0,0E0,0E0,4.691152E0,3.8461494E0,2.4616055E0,0E0,0E0,0E0,0E0,8.456439E-1,1.1124828E0,1.8250655E0,2.2743034E0,2.9799166E0,5.0768356E0,5.051633E0,1.8086872E0,2.7864087E0,0E0,0E0,0E0,0E0,4.2787647E0,0E0,0E0,0E0,0E0,1.7242503E0,2.2315269E0,1.0097923E0,4.8451653E0,1.1384277E0,2.9603915E0,0E0,0E0,1.9786642E0,0E0,0E0,2.467499E0,0E0,0E0,1.7247937E0,3.0624385E0,1.1323357E0,0E0,0E0,0E0,0E0,0E0,0E0,0E0,0E0,2.0715673E0,1.3578234E0,0E0,1.1712193E0,0E0,1.7737617E0,2.81151E0,0E0,0E0,0E0,0E0,0E0,0E0,0E0,0E0,0E0,0E0,0E0],"parents":[2147483647,0,0,1,1,2,2,3,3,4,4,5,5,7,7,8,8,9,9,11,11,12,12,13,13,14,14,15,15,19,19,20,20,21,21,26,26,27,27,28,28,29,29,30,30,31,31,32,32,33,33,34,34,39,39,44,44,45,45,46,46,47,47,48,48,49,49,52,52,55,55,58,58,59,59,60,60,69,69,70,70,72,72,74,74,75,75],"right_children":[2,4,6,8,10,12,-1,14,16,18,-1,20,22,24,26,28,-1,-1,-1,30,32,34,-1,-1,-1,-1,36,38,40,42,44,46,48,50,52,-1,-1,-1,-1,54,-1,-1,-1,-1,56,58,60,62,64,66,-1,-1,68,-1,-1,70,-1,-1,72,74,76,-1,-1,-1,-1,-1,-1,-1,-1,78,80,-1,82,-1,84,86,-1,-1,-1,-1,-1,-1,-1,-1,-1,-1,-1],"split_conditions":[1E0,5E0,2E0,1E0,2E0,2E0,3.5158666E-3,3E0,2E0,3E0,-1.4926851E-2,2E0,2E0,1E0,1E0,1E0,8.318601E-3,1.8769101E-3,-7.7302135E-3,1E0,3E0,2E0,7.201008E-3,-7.737962E-3,4.8043546E-3,-1.4919249E-2,2E0,1E0,2E0,4E0,1E0,1E0,3E0,2E0,2E0,-6.032072E-3,2.8027433E-3,1.1232939E-3,-8.347337E-3,3E0,6.748464E-3,-1.4856431E-2,-1.4766376E-3,-8.972515E-3,4E0,2E0,1E0,1E0,4E0,1E0,-1.2129499E-2,-5.7982258E-3,1E0,6.012419E-3,-1.1197747E-2,2E0,5.099899E-3,3.1087329E-3,1E0,1E0,1E0,3.544019E-3,-1.6299294E-2,8.644368E-3,-1.6550907E-3,-8.783397E-3,7.1946643E-3,9.081736E-3,-2.045744E-3,1E0,3E0,1.8975615E-3,2E0,2.8234576E-3,3E0,4E0,-2.1557279E-2,1.762524E-3,-1.0044074E-2,8.338449E-3,-2.9615865E-3,-1.5965418E-3,-1.484351E-2,-1.577227E-2,-2.4004697E-3,-5.6620856E-4,-1.7120859E-2],"split_indices":[6,7,0,3,2,10,0,2,10,8,0,6,3,9,1,5,0,0,0,0,6,6,0,0,0,0,5,10,2,2,7,5,2,8,2,0,0,0,0,8,0,0,0,0,8,8,4,10,2,8,0,0,1,0,0,5,0,0,3,0,3,0,0,0,0,0,0,0,0,4,2,0,2,0,2,2,0,0,0,0,0,0,0,0,0,0,0],"split_type":[0,0,0,0,0,0,0,0,0,0,0,0,0,0,0,0,0,0,0,0,0,0,0,0,0,0,0,0,0,0,0,0,0,0,0,0,0,0,0,0,0,0,0,0,0,0,0,0,0,0,0,0,0,0,0,0,0,0,0,0,0,0,0,0,0,0,0,0,0,0,0,0,0,0,0,0,0,0,0,0,0,0,0,0,0,0,0],"sum_hessian":[1.00395996E2,2.920072E1,7.119528E1,2.4377731E1,4.8229885E0,6.8713776E1,2.4815073E0,8.570062E0,1.580767E1,2.1391032E0,2.6838853E0,5.0688694E1,1.8025078E1,4.0943284E0,4.4757333E0,1.1899291E1,3.9083786E0,1.0668244E0,1.0722789E0,2.193557E1,2.8753124E1,1.6782953E1,1.2421252E0,1.0715903E0,3.022738E0,1.969417E0,2.5063164E0,3.728733E0,8.170558E0,6.4483314E0,1.5487238E1,2.1599554E1,7.15357E0,6.957469E0,9.825483E0,1.2554632E0,1.2508531E0,1.7773505E0,1.9513826E0,3.9010127E0,4.2695456E0,4.4830556E0,1.9652754E0,3.2247972E0,1.2262441E1,6.26852E0,1.5331035E1,3.938162E0,3.215408E0,2.6709535E0,4.2865157E0,5.001641E0,4.8238425E0,2.298622E0,1.6023906E0,7.821905E0,4.440536E0,2.3257852E0,3.9427347E0,6.651392E0,8.679643E0,1.4276875E0,2.5104747E0,1.966275E0,1.249133E0,1.4302362E0,1.2407173E0,2.3116338E0,2.512209E0,4.973875E0,2.8480303E0,1.0693948E0,2.87334E0,1.2537326E0,5.3976593E0,3.2450376E0,5.434605E0,1.9417416E0,3.0321333E0,1.781214E0,1.0668163E0,1.2556748E0,1.6176652E0,3.6103215E0,1.7873378E0,2.1577613E0,1.0872762E0],"tree_param":{"num_deleted":"0","num_feature":"11","num_nodes":"87","size_leaf_vector":"1"}},{"base_weights":[-4.9666804E-1,-3.744014E-1,-9.566618E-1,8.660607E-2,-5.654078E-1,-2.544509E-1,-1.2571785E0,5.948593E-1,-2.7687493E-1,-9.2580515E-1,-4.4048965E-1,-1.3033367E-2,3.3033144E-1,-5.6705705E-4,-1.391593E0,-1.1429743E-2,8.469678E-3,-9.721212E-1,2.7175838E-1,9.875293E-4,-1.277803E0,-5.440808E-1,1.07486285E-1,-1.5151176E-3,6.4380113E-3,-1.708753E-2,-5.731789E-1,4.1885553E-3,-4.682605E-3,-1.4870177E-2,5.0757706E-5,9.4292145E-3,-1.5587434E-1,-5.02488E-1,-1.538028E-2,-1.6955264E-1,-7.690018E-1,7.29996E-3,-4.4222075E-1,1.399002E-1,-1.4849163E-2,7.655408E-3,-5.764727E-3,1.9271184E-3,-1.2570041E-2,2.9930058E-1,-3.8224733E-1,-3.4129876E-1,-9.176594E-1,1.8397357E-3,-9.452887E-3,-4.5797247E-3,7.2535328E-3,-7.307056E-4,7.6690894E-3,-6.128299E-1,1.9238347E-1,1.8985724E-1,-7.1266377E-3,-1.1045843E0,-2.3134357E-1,4.753936E-3,-1.0026505E-2,-7.5929044E-3,8.351722E-3,7.2364323E-3,-3.4225252E-3,-6.844303E-1,-1.5399122E0,-8.822216E-3,7.6231756E-3,1.2644463E-3,-9.326683E-3,-2.8076442E-3,-1.7922157E-2],"categories":[],"categories_nodes":[],"categories_segments":[],"categories_sizes":[],"default_left":[0,0,0,0,0,0,0,0,0,0,0,0,0,0,0,0,0,0,0,0,0,0,0,0,0,0,0,0,0,0,0,0,0,0,0,0,0,0,0,0,0,0,0,0,0,0,0,0,0,0,0,0,0,0,0,0,0,0,0,0,0,0,0,0,0,0,0,0,0,0,0,0,0,0,0],"id":4,"left_children":[1,3,5,7,9,11,13,15,17,19,21,-1,23,-1,25,27,-1,29,31,-1,33,35,37,-1,-1,-1,39,-1,-1,-1,-1,-1,41,43,-1,45,47,-1,49,51,-1,-1,-1,-1,-1,53,55,57,59,-1,-1,-1,-1,-1,-1,61,63,65,-1,67,69,-1,-1,-1,-1,-1,-1,71,73,-1,-1,-1,-1,-1,-1],"loss_changes":[5.176403E0,7.0393E0,3.9050694E0,4.6212077E0,2.125143E0,4.879947E0,2.142542E0,1.5956659E0,5.889218E0,5.0215855E0,2.538477E0,0E0,9.21516E-1,0E0,2.2231998E0,9.8910564E-1,0E0,3.3902078E0,2.7370057E0,0E0,1.279995E0,2.978674E0,2.9854488E0,0E0,0E0,0E0,3.4264326E0,0E0,0E0,0E0,0E0,0E0,2.9100704E0,2.3624897E0,0E0,1.6233106E0,1.134963E0,0E0,1.6717743E0,1.6244651E0,0E0,0E0,0E0,0E0,0E0,9.759133E-1,1.5552751E0,1.6081475E0,1.8368254E0,0E0,0E0,0E0,0E0,0E0,0E0,3.8621037E0,3.0000305E0,1.3446122E0,0E0,1.2421398E0,3.7485914E0,0E0,0E0,0E0,0E0,0E0,0E0,1.766125E0,1.2013245E0,0E0,0E0,0E0,0E0,0E0,0E0],"parents":[2147483647,0,0,1,1,2,2,3,3,4,4,5,5,6,6,7,7,8,8,9,9,10,10,12,12,14,14,15,15,17,17,18,18,20,20,21,21,22,22,26,26,32,32,33,33,35,35,36,36,38,38,39,39,45,45,46,46,47,47,48,48,55,55,56,56,57,57,59,59,60,60,67,67,68,68],"right_children":[2,4,6,8,10,12,14,16,18,20,22,-1,24,-1,26,28,-1,30,32,-1,34,36,38,-1,-1,-1,40,-1,-1,-1,-1,-1,42,44,-1,46,48,-1,50,52,-1,-1,-1,-1,-1,54,56,58,60,-1,-1,-1,-1,-1,-1,62,64,66,-1,68,70,-1,-1,-1,-1,-1,-1,72,74,-1,-1,-1,-1,-1,-1],"split_conditions":[5E0,1E0,1E0,1E0,1E0,1E0,1E0,1E0,1E0,1E0,4E0,-1.3033367E-2,2E0,-5.6705705E-4,3E0,1E0,8.469678E-3,2E0,2E0,9.875293E-4,2E0,2E0,3E0,-1.5151176E-3,6.4380113E-3,-1.708753E-2,5E0,4.1885553E-3,-4.682605E-3,-1.4870177E-2,5.0757706E-5,9.4292145E-3,1E0,2E0,-1.538028E-2,1E0,2E0,7.29996E-3,1E0,1E0,-1.4849163E-2,7.655408E-3,-5.764727E-3,1.9271184E-3,-1.2570041E-2,4E0,2E0,1E0,2E0,1.8397357E-3,-9.452887E-3,-4.5797247E-3,7.2535328E-3,-7.307056E-4,7.6690894E-3,1E0,1E0,1E0,-7.1266377E-3,2E0,5E0,4.753936E-3,-1.0026505E-2,-7.5929044E-3,8.351722E-3,7.2364323E-3,-3.4225252E-3,2E0,3E0,-8.822216E-3,7.6231756E-3,1.2644463E-3,-9.326683E-3,-2.8076442E-3,-1.7922157E-2],"split_indices":[7,6,9,4,2,3,8,0,1,0,7,0,2,0,2,9,0,5,2,0,8,6,2,0,0,0,8,0,0,0,0,0,10,10,0,10,8,0,4,1,0,0,0,0,0,2,5,5,10,0,0,0,0,0,0,8,8,9,0,5,8,0,0,0,0,0,0,2,8,0,0,0,0,0,0],"split_type":[0,0,0,0,0,0,0,0,0,0,0,0,0,0,0,0,0,0,0,0,0,0,0,0,0,0,0,0,0,0,0,0,0,0,0,0,0,0,0,0,0,0,0,0,0,0,0,0,0,0,0,0,0,0,0,0,0,0,0,0,0,0,0,0,0,0,0,0,0,0,0,0,0,0,0],"sum_hessian":[9.740667E1,7.838564E1,1.9021029E1,2.3123072E1,5.5262573E1,6.254047E0,1.2766982E1,9.376044E0,1.3747027E1,1.2574116E1,4.2688457E1,1.7988365E0,4.4552107E0,1.4287246E0,1.1338257E1,3.0340943E0,6.3419495E0,5.7228928E0,8.024135E0,3.3992848E0,9.17483E0,3.5907497E1,6.7809606E0,1.9596455E0,2.4955652E0,7.387497E0,3.9507606E0,1.6052499E0,1.4288446E0,3.4063365E0,2.3165565E0,2.6538994E0,5.3702354E0,3.0421174E0,6.1327133E0,1.4131012E1,2.1776484E1,3.0261066E0,3.7548542E0,2.6919308E0,1.2588297E0,1.4260435E0,3.9441917E0,1.9708211E0,1.0712962E0,4.2828765E0,9.848136E0,6.4667797E0,1.5309705E1,1.9552953E0,1.7995589E0,1.4395696E0,1.2523613E0,2.8539345E0,1.4289416E0,6.980563E0,2.8675728E0,2.8620315E0,3.6047482E0,1.1553542E1,3.7561622E0,1.7831632E0,5.1973996E0,1.0829616E0,1.7846111E0,1.2490729E0,1.6129587E0,7.188155E0,4.365387E0,2.3373065E0,1.4188557E0,1.7997766E0,5.3883786E0,1.0813913E0,3.2839956E0],"tree_param":{"num_deleted":"0","num_feature":"11","num_nodes":"75","size_leaf_vector":"1"}},{"base_weights":[-5.773279E-1,-3.4077772E-1,-7.478287E-1,5.588156E-1,-4.65308E-1,-3.8488343E-1,-9.6615505E-1,7.0710026E-4,9.058763E-3,-5.25957E-2,-6.739387E-1,8.6913295E-2,-6.135691E-1,-1.0740949E0,-1.20727174E-1,-6.2711114E-1,3.6641002E-1,-2.663822E-1,-1.221303E0,-2.9911408E-1,6.7436653E-3,-4.3873925E-2,-8.860371E-1,-7.083046E-1,-1.239494E-2,-5.7930234E-3,7.2319373E-3,-1.002138E0,1.4884399E-4,5.8698403E-3,-4.519778E-3,-6.0995597E-1,4.1724825E-1,-1.4477116E0,-2.8265217E-1,-1.0387477E-2,1.3443622E-3,-1.2871369E-2,6.040734E-3,-3.9901656E-1,-1.48371905E-2,-1.0195072E-2,-1.0270735E0,-1.4873235E-2,1.8363548E-3,-1.1696322E-2,-1.9161177E-1,8.3236415E-3,4.4597063E-4,-4.7840425E-3,-1.669401E-2,2.842052E-3,-7.6138354E-3,1.0369063E-1,-1.1559671E-2,-8.652738E-3,6.176638E-3,1.9544708E-2,-1.4450207E0,5.4009444E-1,-9.01665E-3,4.0315124E-3,-3.6085907E-3,6.751861E-3,-5.8809826E-3,-6.463668E-1,-1.9270334E-2,-1.7137072E-3,8.792209E-3,-1.2130548E-2,5.21389E-4],"categories":[],"categories_nodes":[],"categories_segments":[],"categories_sizes":[],"default_left":[0,0,0,0,0,0,0,0,0,0,0,0,0,0,0,0,0,0,0,0,0,0,0,0,0,0,0,0,0,0,0,0,0,0,0,0,0,0,0,0,0,0,0,0,0,0,0,0,0,0,0,0,0,0,0,0,0,0,0,0,0,0,0,0,0,0,0,0,0,0,0],"id":5,"left_children":[1,3,5,7,9,11,13,-1,-1,15,17,19,21,23,25,27,29,31,33,35,-1,37,39,41,-1,-1,-1,43,-1,-1,-1,45,47,49,51,-1,-1,-1,-1,53,-1,55,57,-1,-1,-1,59,-1,-1,-1,-1,-1,-1,61,-1,-1,-1,63,65,67,-1,-1,-1,-1,-1,69,-1,-1,-1,-1,-1],"loss_changes":[3.799221E0,5.182552E0,4.190544E0,9.1803896E-1,3.3349667E0,2.5659406E0,3.0906029E0,0E0,0E0,3.654805E0,5.4559155E0,2.124458E0,2.4150977E0,1.0076828E0,2.4011648E0,1.5484159E0,1.8644286E0,4.0439568E0,1.8820953E0,2.0024972E0,0E0,5.7454057E0,2.5057783E0,2.6683998E0,0E0,0E0,0E0,2.594678E0,0E0,0E0,0E0,2.3850207E0,8.895129E-1,1.0157986E0,1.1221825E0,0E0,0E0,0E0,0E0,2.871775E0,0E0,3.1026437E0,3.6389256E0,0E0,0E0,0E0,4.421485E0,0E0,0E0,0E0,0E0,0E0,0E0,8.777029E-1,0E0,0E0,0E0,1.7285961E0,1.0303535E0,1.2014265E0,0E0,0E0,0E0,0E0,0E0,1.539664E0,0E0,0E0,0E0,0E0,0E0],"parents":[2147483647,0,0,1,1,2,2,3,3,4,4,5,5,6,6,9,9,10,10,11,11,12,12,13,13,14,14,15,15,16,16,17,17,18,18,19,19,21,21,22,22,23,23,27,27,31,31,32,32,33,33,34,34,39,39,41,41,42,42,46,46,53,53,57,57,58,58,59,59,65,65],"right_children":[2,4,6,8,10,12,14,-1,-1,16,18,20,22,24,26,28,30,32,34,36,-1,38,40,42,-1,-1,-1,44,-1,-1,-1,46,48,50,52,-1,-1,-1,-1,54,-1,56,58,-1,-1,-1,60,-1,-1,-1,-1,-1,-1,62,-1,-1,-1,64,66,68,-1,-1,-1,-1,-1,70,-1,-1,-1,-1,-1],"split_conditions":[2E0,1E0,1E0,1E0,1E0,2E0,3E0,7.0710026E-4,9.058763E-3,1E0,2E0,2E0,1E0,2E0,4E0,2E0,5E0,2E0,2E0,3E0,6.7436653E-3,2E0,4E0,1E0,-1.239494E-2,-5.7930234E-3,7.2319373E-3,2E0,1.4884399E-4,5.8698403E-3,-4.519778E-3,3E0,3E0,1E0,1E0,-1.0387477E-2,1.3443622E-3,-1.2871369E-2,6.040734E-3,4E0,-1.48371905E-2,1E0,1E0,-1.4873235E-2,1.8363548E-3,-1.1696322E-2,1E0,8.3236415E-3,4.4597063E-4,-4.7840425E-3,-1.669401E-2,2.842052E-3,-7.6138354E-3,2E0,-1.1559671E-2,-8.652738E-3,6.176638E-3,1E0,1E0,2E0,-9.01665E-3,4.0315124E-3,-3.6085907E-3,6.751861E-3,-5.8809826E-3,1E0,-1.9270334E-2,-1.7137072E-3,8.792209E-3,-1.2130548E-2,5.21389E-4],"split_indices":[2,8,4,3,0,8,6,0,0,4,6,5,9,7,8,10,7,5,10,2,0,7,7,6,0,0,0,5,0,0,0,8,8,5,1,0,0,0,0,2,0,5,3,0,0,0,5,0,0,0,0,0,0,7,0,0,0,5,1,7,0,0,0,0,0,0,0,0,0,0,0],"split_type":[0,0,0,0,0,0,0,0,0,0,0,0,0,0,0,0,0,0,0,0,0,0,0,0,0,0,0,0,0,0,0,0,0,0,0,0,0,0,0,0,0,0,0,0,0,0,0,0,0,0,0,0,0,0,0,0,0,0,0,0,0,0,0,0,0,0,0,0,0,0,0],"sum_hessian":[9.951731E1,4.2940712E1,5.6576595E1,4.797404E0,3.8143307E1,2.228798E1,3.4288616E1,2.493828E0,2.3035758E0,1.3227943E1,2.4915365E1,7.478722E0,1.48092575E1,3.0166626E1,4.121992E0,5.3692656E0,7.8586783E0,1.5133745E1,9.781619E0,4.809278E0,2.6694443E0,5.166922E0,9.642335E0,1.1037943E1,1.9128683E1,2.873908E0,1.2480841E0,3.035235E0,2.3340304E0,6.4129887E0,1.4456896E0,1.0143615E1,4.990131E0,7.4437957E0,2.3378234E0,1.2614102E0,3.5478678E0,1.4322593E0,3.7346625E0,6.2318916E0,3.4104435E0,3.7836554E0,7.2542877E0,1.9734482E0,1.0617869E0,3.5707176E0,6.572897E0,1.7770039E0,3.2131271E0,1.9733933E0,5.4704022E0,1.2564362E0,1.081387E0,4.263455E0,1.9684367E0,1.4418586E0,2.3417966E0,2.342204E0,4.9120836E0,3.354974E0,3.217923E0,2.672719E0,1.5907357E0,1.0731399E0,1.2690642E0,2.7298803E0,2.1822033E0,1.242649E0,2.1123252E0,1.1004541E0,1.6294262E0],"tree_param":{"num_deleted":"0","num_feature":"11","num_nodes":"71","size_leaf_vector":"1"}},{"base_weights":[-5.3464633E-1,-3.6781764E-1,-7.946225E-1,-8.308555E-1,-2.6219684E-1,-2.2140189E-1,-1.0261056E0,-1.2499536E0,-4.7196323E-1,-1.7056447E-1,-1.1566215E0,4.4708237E-1,-4.8000562E-1,-1.4674149E0,-3.1245184E-1,-3.4799422E-3,-1.641059E-2,-8.553159E-1,4.7863936E-3,-5.062423E-1,9.3091905E-2,-1.61381E0,1.8516276E-3,-2.9246744E-3,8.360394E-3,-8.8280475E-1,-1.0671905E-3,-1.6542583E0,-4.0072703E-1,3.293526E-1,-1.2432666E0,-3.127967E-1,-1.3034842E-2,4.9378362E-1,-8.937576E-1,-2.7912956E-1,2.9805943E-1,-2.8931084E-3,-2.0754099E-2,-5.4562604E-4,-1.2845054E-2,-8.289844E-1,-1.9003911E-2,-1.040531E-2,3.5812461E-3,-4.6739346E-1,8.357069E-3,4.2439573E-3,-2.2174241E-2,-1.2595193E-2,7.697135E-3,9.75388E-3,-1.9330001E-1,-1.1877788E-2,-4.3332162E-1,1.4890863E-1,-7.6947916E-1,6.037459E-1,-5.4414263E-3,-1.2772309E-3,-1.2797259E-2,-1.2162946E-2,3.6603755E-3,-5.9213E-3,2.9081139E-3,-1.0817836E-2,-7.688176E-2,5.093561E-1,-3.7638296E-3,-1.1356292E-2,-1.4254213E-3,-8.656389E-4,8.244519E-1,2.1174161E-1,-7.0588654E-3,-6.138934E-3,1.9235532E-3,8.2672825E-3,-6.3215406E-4,1.059354E-2,-4.7708096E-4,-4.7498564E-3,4.921777E-1,-2.1002034E-3,9.800063E-3],"categories":[],"categories_nodes":[],"categories_segments":[],"categories_sizes":[],"default_left":[0,0,0,0,0,0,0,0,0,0,0,0,0,0,0,0,0,0,0,0,0,0,0,0,0,0,0,0,0,0,0,0,0,0,0,0,0,0,0,0,0,0,0,0,0,0,0,0,0,0,0,0,0,0,0,0,0,0,0,0,0,0,0,0,0,0,0,0,0,0,0,0,0,0,0,0,0,0,0,0,0,0,0,0,0],"id":6,"left_children":[1,3,5,7,9,11,13,15,17,19,21,23,25,27,29,-1,-1,31,-1,33,35,37,-1,-1,-1,39,-1,41,43,45,47,49,-1,51,53,55,57,-1,-1,-1,-1,59,-1,-1,-1,61,-1,-1,-1,-1,-1,-1,63,-1,65,67,69,71,73,-1,-1,-1,-1,-1,-1,-1,75,77,-1,-1,-1,-1,79,81,-1,-1,-1,-1,-1,-1,-1,-1,83,-1,-1],"loss_changes":[3.9294605E0,2.772935E0,4.7070503E0,1.0491452E0,4.00356E0,2.284255E0,7.797329E0,9.882517E-1,3.1341095E0,4.2657137E0,3.1146245E0,1.354075E0,1.2762918E0,2.511406E0,7.152202E0,0E0,0E0,9.7501945E-1,0E0,8.62749E0,2.1844296E0,1.5556402E0,0E0,0E0,0E0,1.3427839E0,0E0,1.1126595E0,2.1659713E0,3.4047053E0,8.764479E0,4.954489E0,0E0,2.3538828E0,1.5945606E0,2.2757506E0,1.6959617E0,0E0,0E0,0E0,0E0,1.3581376E0,0E0,0E0,0E0,2.6574786E0,0E0,0E0,0E0,0E0,0E0,0E0,8.5399765E-1,0E0,1.6841668E0,1.3912853E0,9.7698545E-1,1.457586E0,1.6929499E0,0E0,0E0,0E0,0E0,0E0,0E0,0E0,9.8712206E-1,8.12255E-1,0E0,0E0,0E0,0E0,1.4824615E0,1.8734375E0,0E0,0E0,0E0,0E0,0E0,0E0,0E0,0E0,2.4448953E0,0E0,0E0],"parents":[2147483647,0,0,1,1,2,2,3,3,4,4,5,5,6,6,7,7,8,8,9,9,10,10,11,11,12,12,13,13,14,14,17,17,19,19,20,20,21,21,25,25,27,27,28,28,29,29,30,30,31,31,33,33,34,34,35,35,36,36,41,41,45,45,52,52,54,54,55,55,56,56,57,57,58,58,66,66,67,67,72,72,73,73,82,82],"right_children":[2,4,6,8,10,12,14,16,18,20,22,24,26,28,30,-1,-1,32,-1,34,36,38,-1,-1,-1,40,-1,42,44,46,48,50,-1,52,54,56,58,-1,-1,-1,-1,60,-1,-1,-1,62,-1,-1,-1,-1,-1,-1,64,-1,66,68,70,72,74,-1,-1,-1,-1,-1,-1,-1,76,78,-1,-1,-1,-1,80,82,-1,-1,-1,-1,-1,-1,-1,-1,84,-1,-1],"split_conditions":[2E0,1E0,1E0,1E0,2E0,1E0,3E0,1E0,4E0,1E0,2E0,1E0,1E0,2E0,4E0,-3.4799422E-3,-1.641059E-2,2E0,4.7863936E-3,1E0,1E0,3E0,1.8516276E-3,-2.9246744E-3,8.360394E-3,2E0,-1.0671905E-3,2E0,3E0,2E0,3E0,1E0,-1.3034842E-2,2E0,1E0,1E0,1E0,-2.8931084E-3,-2.0754099E-2,-5.4562604E-4,-1.2845054E-2,2E0,-1.9003911E-2,-1.040531E-2,3.5812461E-3,2E0,8.357069E-3,4.2439573E-3,-2.2174241E-2,-1.2595193E-2,7.697135E-3,9.75388E-3,3E0,-1.1877788E-2,1E0,3E0,3E0,2E0,2E0,-1.2772309E-3,-1.2797259E-2,-1.2162946E-2,3.6603755E-3,-5.9213E-3,2.9081139E-3,-1.0817836E-2,3E0,4E0,-3.7638296E-3,-1.1356292E-2,-1.4254213E-3,-8.656389E-4,5E0,2E0,-7.0588654E-3,-6.138934E-3,1.9235532E-3,8.2672825E-3,-6.3215406E-4,1.059354E-2,-4.7708096E-4,-4.7498564E-3,4E0,-2.1002034E-3,9.800063E-3],"split_indices":[6,7,0,5,3,2,2,4,8,3,5,5,3,10,8,0,0,5,0,5,0,7,0,0,0,7,0,8,8,7,7,10,0,2,6,6,4,0,0,0,0,2,0,0,0,8,0,0,0,0,0,0,8,0,0,8,8,7,10,0,0,0,0,0,0,0,7,7,0,0,0,0,7,8,0,0,0,0,0,0,0,0,7,0,0],"split_type":[0,0,0,0,0,0,0,0,0,0,0,0,0,0,0,0,0,0,0,0,0,0,0,0,0,0,0,0,0,0,0,0,0,0,0,0,0,0,0,0,0,0,0,0,0,0,0,0,0,0,0,0,0,0,0,0,0,0,0,0,0,0,0,0,0,0,0,0,0,0,0,0,0,0,0,0,0,0,0,0,0,0,0,0,0],"sum_hessian":[9.633907E1,6.015315E1,3.618593E1,9.897309E0,5.025584E1,1.0972135E1,2.5213795E1,3.4203582E0,6.4769506E0,4.666571E1,3.5901296E0,2.857287E0,8.114848E0,1.4927021E1,1.0286773E1,1.606122E0,1.8142363E0,4.687033E0,1.7899175E0,2.0124208E1,2.65415E1,2.5265272E0,1.0636023E0,1.0703094E0,1.7869775E0,3.2466073E0,4.8682404E0,1.2233363E1,2.6936588E0,6.4710784E0,3.8156946E0,2.8884432E0,1.7985901E0,5.543742E0,1.4580466E1,9.296753E0,1.7244747E1,1.0733758E0,1.4531513E0,1.4313087E0,1.8152986E0,3.8138175E0,8.419545E0,1.2600727E0,1.433586E0,2.5444086E0,3.9266696E0,1.6151175E0,2.200577E0,1.4536332E0,1.43481E0,3.0125322E0,2.5312102E0,7.9342184E0,6.646248E0,5.3355455E0,3.9612074E0,8.0985775E0,9.146171E0,1.994362E0,1.8194554E0,1.0982051E0,1.4462035E0,1.2655075E0,1.2657026E0,1.635626E0,5.0106215E0,3.182261E0,2.1532845E0,1.9884814E0,1.9727259E0,2.1092355E0,5.9893417E0,7.5140395E0,1.6321311E0,1.2457557E0,3.764866E0,1.761814E0,1.420447E0,4.5494018E0,1.43994E0,1.9775958E0,5.536443E0,2.503006E0,3.0334375E0],"tree_param":{"num_deleted":"0","num_feature":"11","num_nodes":"85","size_leaf_vector":"1"}},{"base_weights":[-4.5544735E-1,-1.7723224E-1,-6.4429003E-1,1.8382883E-1,-3.6850625E-1,-7.5345576E-1,2.8076923E-1,-2.3177639E-1,7.9216367E-1,4.8563424E-1,-5.4090637E-1,-3.2226256E-1,-1.0342092E-2,-3.4315917E-1,9.524892E-3,3.9163738E-1,-6.682794E-1,1.1657814E-3,1.0230439E-2,-1.6490107E-3,7.288361E-3,-7.053644E-1,1.4696185E-1,-6.769455E-1,1.9089207E-1,-9.27206E-3,4.1975956E-3,8.244078E-3,-1.4075382E-3,-1.29838595E-2,-7.0478814E-3,-4.4101736E-1,-1.1548067E-2,-5.7977913E-3,6.666459E-3,-9.298178E-1,-1.5373686E-1,5.3436607E-3,-4.1154575E-1,6.75581E-3,-4.813777E-3,4.154004E-1,-6.845893E-1,-4.785099E-1,-1.8580645E-2,-1.2442337E-2,3.724715E-3,-1.2116832E-2,2.5380307E-3,-2.830016E-3,8.106148E-3,-9.099601E-3,4.13808E-3,5.219069E-3,-9.2878836E-1,-1.8793921E-1,-1.8943151E-2,-8.207507E-3,7.2738393E-3],"categories":[],"categories_nodes":[],"categories_segments":[],"categories_sizes":[],"default_left":[0,0,0,0,0,0,0,0,0,0,0,0,0,0,0,0,0,0,0,0,0,0,0,0,0,0,0,0,0,0,0,0,0,0,0,0,0,0,0,0,0,0,0,0,0,0,0,0,0,0,0,0,0,0,0,0,0,0,0],"id":7,"left_children":[1,3,5,7,9,11,13,15,17,19,21,23,-1,25,-1,27,29,-1,-1,-1,-1,31,33,35,37,-1,-1,-1,-1,-1,39,41,-1,-1,-1,43,45,-1,47,-1,-1,49,51,53,-1,-1,-1,-1,-1,-1,-1,-1,-1,-1,55,57,-1,-1,-1],"loss_changes":[5.2556973E0,3.0169868E0,6.321457E0,4.0912495E0,4.4224234E0,6.250927E0,3.3087196E0,2.9710002E0,8.945513E-1,9.5413375E-1,2.8161464E0,4.2972856E0,0E0,2.3603542E0,0E0,1.2060077E0,2.584643E0,0E0,0E0,0E0,0E0,1.810277E0,2.4463937E0,1.6777163E0,2.3179839E0,0E0,0E0,0E0,0E0,0E0,1.634342E0,3.1862023E0,0E0,0E0,0E0,2.9144015E0,3.7238827E0,0E0,2.568342E0,0E0,0E0,1.2514151E0,3.1511254E0,3.8433657E0,0E0,0E0,0E0,0E0,0E0,0E0,0E0,0E0,0E0,0E0,3.5792112E0,3.0431004E0,0E0,0E0,0E0],"parents":[2147483647,0,0,1,1,2,2,3,3,4,4,5,5,6,6,7,7,8,8,9,9,10,10,11,11,13,13,15,15,16,16,21,21,22,22,23,23,24,24,30,30,31,31,35,35,36,36,38,38,41,41,42,42,43,43,54,54,55,55],"right_children":[2,4,6,8,10,12,14,16,18,20,22,24,-1,26,-1,28,30,-1,-1,-1,-1,32,34,36,38,-1,-1,-1,-1,-1,40,42,-1,-1,-1,44,46,-1,48,-1,-1,50,52,54,-1,-1,-1,-1,-1,-1,-1,-1,-1,-1,56,58,-1,-1,-1],"split_conditions":[1E0,1E0,3E0,3E0,1E0,2E0,3E0,1E0,2E0,1E0,2E0,4E0,-1.0342092E-2,3E0,9.524892E-3,2E0,2E0,1.1657814E-3,1.0230439E-2,-1.6490107E-3,7.288361E-3,4E0,1E0,4E0,2E0,-9.27206E-3,4.1975956E-3,8.244078E-3,-1.4075382E-3,-1.29838595E-2,4E0,1E0,-1.1548067E-2,-5.7977913E-3,6.666459E-3,3E0,1E0,5.3436607E-3,1E0,6.75581E-3,-4.813777E-3,1E0,3E0,2E0,-1.8580645E-2,-1.2442337E-2,3.724715E-3,-1.2116832E-2,2.5380307E-3,-2.830016E-3,8.106148E-3,-9.099601E-3,4.13808E-3,5.219069E-3,2E0,1E0,-1.8943151E-2,-8.207507E-3,7.2738393E-3],"split_indices":[4,9,6,2,8,2,8,1,7,0,10,7,0,7,0,6,8,0,0,0,0,7,0,8,5,0,0,0,0,0,8,2,0,0,0,7,7,0,3,0,0,5,7,8,0,0,0,0,0,0,0,0,0,0,6,6,0,0,0],"split_type":[0,0,0,0,0,0,0,0,0,0,0,0,0,0,0,0,0,0,0,0,0,0,0,0,0,0,0,0,0,0,0,0,0,0,0,0,0,0,0,0,0,0,0,0,0,0,0,0,0,0,0,0,0,0,0,0,0,0,0],"sum_hessian":[1.0120785E2,4.1704556E1,5.9503292E1,1.4455796E1,2.724876E1,5.338846E1,6.114836E0,8.956113E0,5.499683E0,4.2710977E0,2.2977661E1,2.1900534E1,3.1487923E1,3.4237826E0,2.6910534E0,3.7307043E0,5.2254086E0,1.7841005E0,3.7155824E0,1.2498527E0,3.0212448E0,1.8523548E1,4.454113E0,1.2761108E1,9.139426E0,1.8172554E0,1.6065272E0,1.7553304E0,1.975374E0,2.1822717E0,3.043137E0,1.2910989E1,5.6125603E0,1.8088826E0,2.6452305E0,8.0792E0,4.6819077E0,5.8927345E0,3.2466912E0,1.0736763E0,1.9694606E0,2.7026856E0,1.02083025E1,6.4558864E0,1.6233137E0,1.0797477E0,3.6021602E0,1.1012372E0,2.1454542E0,1.079312E0,1.6233737E0,8.612695E0,1.5956086E0,1.9544547E0,4.501432E0,3.2230406E0,1.2783911E0,1.9666868E0,1.2563537E0],"tree_param":{"num_deleted":"0","num_feature":"11","num_nodes":"59","size_leaf_vector":"1"}},{"base_weights":[-5.5845726E-1,-3.2717037E-1,-7.2409624E-1,1.4383167E-1,-5.7352316E-1,-7.5178415E-1,2.8661664E-3,5.562349E-1,-4.6025637E-1,-6.255565E-2,-7.923313E-1,-4.0045068E-1,-8.758499E-1,1.016346E-2,1.1667625E-1,-7.939569E-1,4.094358E-3,-4.042519E-3,3.8717887E-1,-5.135412E-1,-1.6499816E-2,-5.6507397E-1,3.6884837E-3,-1.5124172E0,-7.1834195E-1,-5.9185005E-3,4.207336E-1,-1.2942728E-2,-4.2927034E-2,-4.6079913E-3,8.991308E-3,2.600732E-1,-6.467463E-1,5.2162077E-2,-1.0949714E0,-1.9774534E0,-4.731114E-3,-7.7961034E-1,-3.982807E-2,-3.5399857E-3,9.039116E-3,6.8236277E-3,-7.445785E-3,-2.8225984E-3,6.7784414E-3,-1.0367553E0,-2.5321585E-1,3.5486387E-3,-5.6799524E-3,-4.0983677E-1,-1.907854E-2,-2.3478972E-2,-5.682631E-3,-9.6635395E-1,-4.9402952E-1,4.3414915E-3,-5.678673E-3,-2.1210158E-1,-1.4520885E0,-6.724041E-1,6.085212E-3,6.8415324E-3,-8.454995E-1,-1.4305291E0,-3.1297898E-1,-1.1857795E0,5.943097E-3,3.5950881E-3,-7.839452E-3,-2.1087002E-2,-4.6879845E-4,7.363272E-4,-1.1939506E-2,-1.2522644E-2,-3.1558506E-4,-6.941042E-1,-1.7280543E-2,5.324221E-1,-9.046728E-1,-3.0771825E-1,-1.8799359E-2,-3.9794618E-1,5.575757E-3,2.9757058E-3,-1.1586599E-2,-1.6941256E-3,8.791051E-3,-1.696883E-2,-3.2858106E-3,2.8711604E-3,-7.0080343E-3,1.4232771E-3,-8.76092E-3],"categories":[],"categories_nodes":[],"categories_segments":[],"categories_sizes":[],"default_left":[0,0,0,0,0,0,0,0,0,0,0,0,0,0,0,0,0,0,0,0,0,0,0,0,0,0,0,0,0,0,0,0,0,0,0,0,0,0,0,0,0,0,0,0,0,0,0,0,0,0,0,0,0,0,0,0,0,0,0,0,0,0,0,0,0,0,0,0,0,0,0,0,0,0,0,0,0,0,0,0,0,0,0,0,0,0,0,0,0,0,0,0,0],"id":8,"left_children":[1,3,5,7,9,11,-1,13,15,17,19,21,23,-1,25,27,-1,-1,29,31,-1,33,-1,35,37,-1,39,-1,41,-1,-1,43,45,47,49,51,-1,53,55,-1,-1,-1,-1,-1,-1,57,59,-1,-1,61,-1,-1,-1,63,65,-1,-1,67,69,71,-1,-1,73,75,77,79,81,-1,-1,-1,-1,-1,-1,-1,-1,83,-1,85,87,89,-1,91,-1,-1,-1,-1,-1,-1,-1,-1,-1,-1,-1],"loss_changes":[3.6036339E0,5.148302E0,1.8271122E0,4.1903925E0,3.1777477E0,2.1046295E0,0E0,1.8711405E0,2.343379E0,1.6533734E0,3.964716E0,2.3035126E0,3.0031052E0,0E0,1.5763203E0,1.960815E0,0E0,0E0,2.4617426E0,1.8829517E0,0E0,4.6432934E0,0E0,2.5374222E0,1.4074001E0,0E0,2.15256E0,0E0,2.126298E0,0E0,0E0,9.067278E-1,1.960269E0,1.5966606E0,3.4453459E0,1.0931587E0,0E0,1.2122192E0,1.2275168E0,0E0,0E0,0E0,0E0,0E0,0E0,2.0726528E0,3.4911556E0,0E0,0E0,3.1484978E0,0E0,0E0,0E0,5.0446987E0,5.0469365E0,0E0,0E0,1.4256161E0,4.0084305E0,2.5060766E0,0E0,0E0,1.3853941E0,1.0590782E0,4.8846326E0,3.150858E0,2.3281407E0,0E0,0E0,0E0,0E0,0E0,0E0,0E0,0E0,2.4812212E0,0E0,1.1838894E0,1.9746885E0,1.112449E0,0E0,1.6853163E0,0E0,0E0,0E0,0E0,0E0,0E0,0E0,0E0,0E0,0E0,0E0],"parents":[2147483647,0,0,1,1,2,2,3,3,4,4,5,5,7,7,8,8,9,9,10,10,11,11,12,12,14,14,15,15,18,18,19,19,21,21,23,23,24,24,26,26,28,28,31,31,32,32,33,33,34,34,35,35,37,37,38,38,45,45,46,46,49,49,53,53,54,54,57,57,58,58,59,59,62,62,63,63,64,64,65,65,66,66,75,75,77,77,78,78,79,79,81,81],"right_children":[2,4,6,8,10,12,-1,14,16,18,20,22,24,-1,26,28,-1,-1,30,32,-1,34,-1,36,38,-1,40,-1,42,-1,-1,44,46,48,50,52,-1,54,56,-1,-1,-1,-1,-1,-1,58,60,-1,-1,62,-1,-1,-1,64,66,-1,-1,68,70,72,-1,-1,74,76,78,80,82,-1,-1,-1,-1,-1,-1,-1,-1,84,-1,86,88,90,-1,92,-1,-1,-1,-1,-1,-1,-1,-1,-1,-1,-1],"split_conditions":[1E0,2E0,2E0,2E0,1E0,1E0,2.8661664E-3,1E0,3E0,3E0,5E0,4E0,1E0,1.016346E-2,1E0,3E0,4.094358E-3,-4.042519E-3,1E0,1E0,-1.6499816E-2,2E0,3.6884837E-3,2E0,2E0,-5.9185005E-3,2E0,-1.2942728E-2,2E0,-4.6079913E-3,8.991308E-3,1E0,4E0,2E0,3E0,4E0,-4.731114E-3,4E0,3E0,-3.5399857E-3,9.039116E-3,6.8236277E-3,-7.445785E-3,-2.8225984E-3,6.7784414E-3,2E0,3E0,3.5486387E-3,-5.6799524E-3,1E0,-1.907854E-2,-2.3478972E-2,-5.682631E-3,4E0,1E0,4.3414915E-3,-5.678673E-3,2E0,2E0,1E0,6.085212E-3,6.8415324E-3,1E0,1E0,5E0,5E0,1E0,3.5950881E-3,-7.839452E-3,-2.1087002E-2,-4.6879845E-4,7.363272E-4,-1.1939506E-2,-1.2522644E-2,-3.1558506E-4,2E0,-1.7280543E-2,1E0,1E0,4E0,-1.8799359E-2,2E0,5.575757E-3,2.9757058E-3,-1.1586599E-2,-1.6941256E-3,8.791051E-3,-1.696883E-2,-3.2858106E-3,2.8711604E-3,-7.0080343E-3,1.4232771E-3,-8.76092E-3],"split_indices":[4,8,0,6,9,10,0,1,2,2,7,2,8,0,9,7,0,0,5,10,0,2,0,6,3,0,7,0,5,0,0,5,8,6,8,2,0,7,7,0,0,0,0,0,0,7,7,0,0,9,0,0,0,8,3,0,0,5,5,1,0,0,1,0,8,7,1,0,0,0,0,0,0,0,0,7,0,2,2,8,0,10,0,0,0,0,0,0,0,0,0,0,0],"split_type":[0,0,0,0,0,0,0,0,0,0,0,0,0,0,0,0,0,0,0,0,0,0,0,0,0,0,0,0,0,0,0,0,0,0,0,0,0,0,0,0,0,0,0,0,0,0,0,0,0,0,0,0,0,0,0,0,0,0,0,0,0,0,0,0,0,0,0,0,0,0,0,0,0,0,0,0,0,0,0,0,0,0,0,0,0,0,0,0,0,0,0,0,0],"sum_hessian":[9.924865E1,4.2658485E1,5.6590168E1,1.479262E1,2.7865864E1,5.53306E1,1.2595667E0,8.838145E0,5.9544744E0,8.74055E0,1.9125315E1,1.5543039E1,3.978756E1,3.677012E0,5.161134E0,4.366235E0,1.5882397E0,5.0243306E0,3.7162197E0,1.5640084E1,3.4852297E0,1.3021929E1,2.5211108E0,6.1857476E0,3.3601814E1,1.2655625E0,3.895571E0,2.1863902E0,2.1798449E0,1.4366024E0,2.2796173E0,2.1575077E0,1.3482576E1,6.4317026E0,6.5902257E0,3.6499255E0,2.535822E0,3.068227E1,2.919543E0,1.5990282E0,2.296543E0,1.0853846E0,1.0944604E0,1.0799403E0,1.0775673E0,5.9506636E0,7.5319133E0,4.609545E0,1.8221574E0,4.3923388E0,2.197887E0,2.362695E0,1.2872306E0,1.7110052E1,1.3572219E1,1.6322321E0,1.2873111E0,2.4991736E0,3.4514897E0,5.214872E0,2.3170412E0,1.0885398E0,3.3037992E0,9.307972E0,7.8020797E0,5.1185837E0,8.453636E0,1.4355376E0,1.0636362E0,2.0111217E0,1.4403682E0,2.4990168E0,2.7158551E0,1.8438296E0,1.4599694E0,3.6374922E0,5.67048E0,3.2535875E0,4.548492E0,2.897164E0,2.2214196E0,5.041211E0,3.4124246E0,1.2750748E0,2.3624172E0,1.2448372E0,2.0087504E0,1.095926E0,3.4525661E0,1.2600231E0,1.637141E0,2.6965818E0,2.3446293E0],"tree_param":{"num_deleted":"0","num_feature":"11","num_nodes":"93","size_leaf_vector":"1"}},{"base_weights":[-5.5811375E-1,-1.0616341E0,-4.462778E-1,-1.2683951E0,-3.8426456E-1,-8.00611E-1,-2.278119E-1,-1.4587707E-2,2.796558E-3,-9.897343E-1,3.0992976E-1,-9.639503E-3,-1.1634854E0,8.099102E-2,-4.5275542E-1,-1.6922733E-2,1.9639507E-3,7.2422936E-3,-2.8918087E-3,7.2624385E-3,-7.0438105E-1,-7.7581567E-1,-1.9283653E0,2.745191E-1,-6.13363E-1,-1.4081283E-1,-6.949317E-1,-1.0890404E-2,1.3315686E-3,-1.0783689E0,-8.4277414E-2,-7.689187E-3,-2.276649E-2,-4.2390892E-1,5.9862006E-3,-1.4634339E-2,1.0565039E-2,-5.824677E-1,3.4592655E-1,-1.043964E0,1.0828219E-1,-2.723343E-1,-1.2662652E0,5.393484E-3,-5.363143E-1,4.6850573E-3,-8.530129E-3,7.287639E-3,-5.6822333E-3,-1.0610126E0,2.0411706E-1,8.533076E-3,2.3294128E-2,-1.2584928E0,-1.8037596E-1,6.733786E-3,-1.471253E-1,-1.022329E-2,6.7885285E-3,-4.3187867E-4,-1.5057231E-2,-8.968557E-3,2.1009354E-3,1.9036016E-3,-1.4327762E-2,-4.540926E-3,7.770688E-3,-7.5896927E-3,3.723441E-1,-2.3221737E-1,-1.7207152E0,-5.819572E-3,2.9974144E-3,2.730298E-3,-5.6902883E-3,-2.3211767E-3,8.426696E-3,-1.0689704E-2,7.7129444E-3,-7.2352105E-1,-2.2110263E-2,2.1151793E-3,-1.221383E-2],"categories":[],"categories_nodes":[],"categories_segments":[],"categories_sizes":[],"default_left":[0,0,0,0,0,0,0,0,0,0,0,0,0,0,0,0,0,0,0,0,0,0,0,0,0,0,0,0,0,0,0,0,0,0,0,0,0,0,0,0,0,0,0,0,0,0,0,0,0,0,0,0,0,0,0,0,0,0,0,0,0,0,0,0,0,0,0,0,0,0,0,0,0,0,0,0,0,0,0,0,0,0,0],"id":9,"left_children":[1,3,5,7,9,11,13,-1,-1,15,17,19,21,23,25,-1,-1,-1,-1,-1,27,29,31,33,35,37,39,-1,-1,41,43,-1,-1,45,-1,-1,47,49,51,53,55,57,59,-1,61,-1,-1,-1,-1,63,65,-1,67,69,71,-1,73,-1,-1,-1,-1,-1,-1,-1,-1,-1,-1,-1,75,77,79,-1,-1,-1,-1,-1,-1,-1,-1,81,-1,-1,-1],"loss_changes":[5.1367493E0,1.9470634E0,6.262064E0,4.2046337E0,2.6183167E0,8.988209E0,3.711056E0,0E0,0E0,2.978926E0,1.0343939E0,6.0683227E0,4.8747826E0,3.278032E0,2.2255783E0,0E0,0E0,0E0,0E0,0E0,2.1097252E0,3.2424593E0,8.959122E-1,4.5066485E0,2.8547022E0,3.3606553E0,4.895726E0,0E0,0E0,1.3208189E0,1.9619563E0,0E0,0E0,2.904251E0,0E0,0E0,2.110127E0,3.2570064E0,1.227246E0,1.9936018E0,9.7568715E-1,3.086071E0,2.4668703E0,0E0,1.2491187E0,0E0,0E0,0E0,0E0,2.6841173E0,1.8213639E0,0E0,1.834928E0,4.075492E0,8.593542E-1,0E0,1.0423527E0,0E0,0E0,0E0,0E0,0E0,0E0,0E0,0E0,0E0,0E0,0E0,1.5039098E0,4.255025E0,1.5041828E0,0E0,0E0,0E0,0E0,0E0,0E0,0E0,0E0,1.9244057E0,0E0,0E0,0E0],"parents":[2147483647,0,0,1,1,2,2,3,3,4,4,5,5,6,6,9,9,10,10,11,11,12,12,13,13,14,14,20,20,21,21,22,22,23,23,24,24,25,25,26,26,29,29,30,30,33,33,36,36,37,37,38,38,39,39,40,40,41,41,42,42,44,44,49,49,50,50,52,52,53,53,54,54,56,56,68,68,69,69,70,70,79,79],"right_children":[2,4,6,8,10,12,14,-1,-1,16,18,20,22,24,26,-1,-1,-1,-1,-1,28,30,32,34,36,38,40,-1,-1,42,44,-1,-1,46,-1,-1,48,50,52,54,56,58,60,-1,62,-1,-1,-1,-1,64,66,-1,68,70,72,-1,74,-1,-1,-1,-1,-1,-1,-1,-1,-1,-1,-1,76,78,80,-1,-1,-1,-1,-1,-1,-1,-1,82,-1,-1,-1],"split_conditions":[1E0,2E0,1E0,2E0,2E0,1E0,1E0,-1.4587707E-2,2.796558E-3,1E0,1E0,2E0,5E0,5E0,2E0,-1.6922733E-2,1.9639507E-3,7.2422936E-3,-2.8918087E-3,7.2624385E-3,4E0,2E0,3E0,1E0,1E0,4E0,4E0,-1.0890404E-2,1.3315686E-3,1E0,1E0,-7.689187E-3,-2.276649E-2,2E0,5.9862006E-3,-1.4634339E-2,2E0,4E0,1E0,5E0,1E0,3E0,1E0,5.393484E-3,3E0,4.6850573E-3,-8.530129E-3,7.287639E-3,-5.6822333E-3,1E0,1E0,8.533076E-3,1E0,1E0,3E0,6.733786E-3,1E0,-1.022329E-2,6.7885285E-3,-4.3187867E-4,-1.5057231E-2,-8.968557E-3,2.1009354E-3,1.9036016E-3,-1.4327762E-2,-4.540926E-3,7.770688E-3,-7.5896927E-3,1E0,1E0,3E0,-5.819572E-3,2.9974144E-3,2.730298E-3,-5.6902883E-3,-2.3211767E-3,8.426696E-3,-1.0689704E-2,7.7129444E-3,1E0,-2.2110263E-2,2.1151793E-3,-1.221383E-2],"split_indices":[7,10,3,0,6,5,4,0,0,5,3,2,7,7,2,0,0,0,0,0,8,6,8,5,0,7,2,0,0,9,1,0,0,8,0,0,6,8,6,7,10,8,8,0,7,0,0,0,0,6,2,0,10,6,2,0,5,0,0,0,0,0,0,0,0,0,0,0,0,1,7,0,0,0,0,0,0,0,0,1,0,0,0],"split_type":[0,0,0,0,0,0,0,0,0,0,0,0,0,0,0,0,0,0,0,0,0,0,0,0,0,0,0,0,0,0,0,0,0,0,0,0,0,0,0,0,0,0,0,0,0,0,0,0,0,0,0,0,0,0,0,0,0,0,0,0,0,0,0,0,0,0,0,0,0,0,0,0,0,0,0,0,0,0,0,0,0,0,0],"sum_hessian":[9.8633545E1,1.6382347E1,8.22512E1,1.1882721E1,4.4996266E0,3.0354334E1,5.1896862E1,1.0632798E1,1.2499235E0,2.1760046E0,2.3236217E0,9.869016E0,2.0485317E1,2.2141253E1,2.9755608E1,1.0985936E0,1.0774112E0,1.2502218E0,1.0733999E0,4.7705817E0,5.098434E0,1.4931682E1,5.553636E0,1.7788063E1,4.3531895E0,1.3695781E1,1.6059828E1,3.2880366E0,1.8103974E0,9.998072E0,4.93361E0,2.0238655E0,3.5297704E0,5.5404987E0,1.2247565E1,1.2731156E0,3.0800738E0,7.077325E0,6.618456E0,1.0986129E1,5.0736985E0,2.3531113E0,7.6449604E0,1.9921321E0,2.941478E0,1.7692134E0,3.7712853E0,1.2588676E0,1.8212061E0,4.183356E0,2.8939688E0,1.9332858E0,4.68517E0,8.433765E0,2.5523634E0,1.0699395E0,4.003759E0,1.2738836E0,1.0792277E0,1.4449518E0,6.2000084E0,1.8475051E0,1.0939729E0,1.0699179E0,3.113438E0,1.443323E0,1.4506458E0,1.0832006E0,3.6019697E0,3.085469E0,5.348296E0,1.2743518E0,1.2780116E0,2.1828334E0,1.8209255E0,1.7978497E0,1.8041201E0,1.6469619E0,1.4385071E0,2.5789232E0,2.7693732E0,1.0958829E0,1.4830403E0],"tree_param":{"num_deleted":"0","num_feature":"11","num_nodes":"83","size_leaf_vector":"1"}},{"base_weights":[-4.3840614E-1,-2.1698403E-1,-5.868739E-1,2.6728934E-1,-3.2382575E-1,-2.8160083E-1,-7.076641E-1,-7.75134E-3,5.3793114E-1,-3.934636E-1,7.6224026E-3,-1.0884029E0,-4.7226846E-3,-1.2056311E0,-5.5625635E-1,8.735145E-3,-3.7836635E-3,-2.5899354E-1,-8.529386E-1,-3.3456136E-3,-1.6252493E-2,5.0567985E-1,-3.8175148E-1,2.476682E-3,-1.7043763E0,3.8082354E-2,-7.6315904E-1,-6.232061E-1,-5.896043E-2,3.154405E-3,-1.4983332E0,-7.0548535E-4,7.92293E-3,-1.0213607E-2,2.9209755E-2,-5.666469E-3,-2.012834E-2,3.994129E-1,-6.437367E-1,-9.135531E-1,5.742503E-3,-9.21263E-1,2.6280945E-3,3.223724E-1,-4.9971625E-1,-4.280569E-3,-1.851378E-2,5.488903E-3,-3.2916406E-1,-3.1993901E-3,6.821793E-3,2.0262892E-3,-1.0669276E-2,-1.1824106E0,-1.4118434E-1,-1.27990255E-2,1.1952365E-3,-1.2388601E-1,7.190651E-1,-9.7180796E-1,6.0527544E-3,-6.5627536E-3,2.815115E-3,-8.386849E-3,-1.8801885E-2,8.110525E-3,-5.752004E-1,3.9652935E-3,-6.8645845E-3,-6.1969855E-4,9.909832E-3,-1.5481638E0,-1.04220375E-1,-9.203061E-3,3.0399405E-3,-1.4464713E-3,-2.161984E-2,6.8234494E-3,-6.8268394E-3],"categories":[],"categories_nodes":[],"categories_segments":[],"categories_sizes":[],"default_left":[0,0,0,0,0,0,0,0,0,0,0,0,0,0,0,0,0,0,0,0,0,0,0,0,0,0,0,0,0,0,0,0,0,0,0,0,0,0,0,0,0,0,0,0,0,0,0,0,0,0,0,0,0,0,0,0,0,0,0,0,0,0,0,0,0,0,0,0,0,0,0,0,0,0,0,0,0,0,0],"id":10,"left_children":[1,3,5,7,9,11,13,-1,15,17,-1,19,21,23,25,-1,-1,27,29,-1,-1,31,33,-1,35,37,39,41,43,-1,45,-1,-1,-1,47,-1,-1,49,51,53,-1,55,-1,57,59,-1,-1,-1,61,-1,-1,-1,-1,63,65,-1,-1,67,69,71,-1,-1,-1,-1,-1,-1,73,-1,-1,-1,-1,75,77,-1,-1,-1,-1,-1,-1],"loss_changes":[3.1452808E0,2.2360928E0,1.9765015E0,2.6899877E0,2.9082634E0,4.102764E0,2.467085E0,0E0,2.4788241E0,1.8222928E0,0E0,1.3559294E0,3.0209382E0,6.8344307E0,4.181759E0,0E0,0E0,1.9316614E0,5.789438E0,0E0,0E0,1.1580539E0,2.4012332E0,0E0,1.2153893E0,2.6401258E0,5.5726023E0,2.7440069E0,3.277942E0,0E0,9.8941994E-1,0E0,0E0,0E0,1.3846796E0,0E0,0E0,1.6297889E0,1.5533957E0,4.597994E0,0E0,2.8819532E0,0E0,1.956774E0,5.2800636E0,0E0,0E0,0E0,1.0739452E0,0E0,0E0,0E0,0E0,2.4730206E0,3.384554E0,0E0,0E0,1.975545E0,1.278822E0,3.1816988E0,0E0,0E0,0E0,0E0,0E0,0E0,1.9288514E0,0E0,0E0,0E0,0E0,3.0857687E0,2.167866E0,0E0,0E0,0E0,0E0,0E0,0E0],"parents":[2147483647,0,0,1,1,2,2,3,3,4,4,5,5,6,6,8,8,9,9,11,11,12,12,13,13,14,14,17,17,18,18,21,21,22,22,24,24,25,25,26,26,27,27,28,28,30,30,34,34,37,37,38,38,39,39,41,41,43,43,44,44,48,48,53,53,54,54,57,57,58,58,59,59,66,66,71,71,72,72],"right_children":[2,4,6,8,10,12,14,-1,16,18,-1,20,22,24,26,-1,-1,28,30,-1,-1,32,34,-1,36,38,40,42,44,-1,46,-1,-1,-1,48,-1,-1,50,52,54,-1,56,-1,58,60,-1,-1,-1,62,-1,-1,-1,-1,64,66,-1,-1,68,70,72,-1,-1,-1,-1,-1,-1,74,-1,-1,-1,-1,76,78,-1,-1,-1,-1,-1,-1],"split_conditions":[1E0,1E0,1E0,1E0,2E0,1E0,1E0,-7.75134E-3,4E0,5E0,7.6224026E-3,4E0,2E0,1E0,2E0,8.735145E-3,-3.7836635E-3,1E0,1E0,-3.3456136E-3,-1.6252493E-2,3E0,1E0,2.476682E-3,1E0,5E0,3E0,2E0,2E0,3.154405E-3,1E0,-7.0548535E-4,7.92293E-3,-1.0213607E-2,2E0,-5.666469E-3,-2.012834E-2,2E0,2E0,2E0,5.742503E-3,4E0,2.6280945E-3,2E0,3E0,-4.280569E-3,-1.851378E-2,5.488903E-3,5E0,-3.1993901E-3,6.821793E-3,2.0262892E-3,-1.0669276E-2,2E0,2E0,-1.27990255E-2,1.1952365E-3,1E0,3E0,1E0,6.0527544E-3,-6.5627536E-3,2.815115E-3,-8.386849E-3,-1.8801885E-2,8.110525E-3,5E0,3.9652935E-3,-6.8645845E-3,-6.1969855E-4,9.909832E-3,1E0,2E0,-9.203061E-3,3.0399405E-3,-1.4464713E-3,-2.161984E-2,6.8234494E-3,-6.8268394E-3],"split_indices":[4,8,5,2,1,7,2,0,2,7,0,8,2,0,2,0,0,0,9,0,0,8,0,0,10,7,6,6,6,0,10,0,0,0,8,0,0,7,6,10,0,7,0,7,2,0,0,0,7,0,0,0,0,6,7,0,0,6,8,1,0,0,0,0,0,0,7,0,0,0,0,9,7,0,0,0,0,0,0],"split_type":[0,0,0,0,0,0,0,0,0,0,0,0,0,0,0,0,0,0,0,0,0,0,0,0,0,0,0,0,0,0,0,0,0,0,0,0,0,0,0,0,0,0,0,0,0,0,0,0,0,0,0,0,0,0,0,0,0,0,0,0,0,0,0,0,0,0,0,0,0,0,0,0,0,0,0,0,0,0,0],"sum_hessian":[9.855038E1,4.054451E1,5.8005863E1,7.0568275E0,3.3487682E1,1.7389278E1,4.061659E1,1.070305E0,5.9865227E0,3.2069145E1,1.4185371E0,3.6940663E0,1.3695211E1,7.8466873E0,3.27699E1,4.41593E0,1.5705926E0,2.6018295E1,6.0508504E0,2.2116535E0,1.4824129E0,5.673496E0,8.021715E0,2.1334426E0,5.7132444E0,8.6727915E0,2.4097107E1,8.473875E0,1.754442E1,2.3349884E0,3.7158623E0,2.1349957E0,3.5384998E0,2.5569103E0,5.464805E0,1.8236909E0,3.8895538E0,5.9393983E0,2.7333937E0,2.1946146E1,2.1509607E0,6.311047E0,2.1628273E0,9.550294E0,7.994126E0,1.4704818E0,2.2453806E0,2.0134592E0,3.4513462E0,1.6388183E0,4.30058E0,1.0848744E0,1.6485193E0,1.5885574E1,6.0605726E0,4.522809E0,1.7882382E0,4.818001E0,4.7322936E0,5.6855755E0,2.3085504E0,2.1988504E0,1.2524959E0,1.211812E1,3.7674541E0,1.6254963E0,4.435076E0,2.656094E0,2.1619065E0,1.4214729E0,3.3108206E0,2.9448233E0,2.7407522E0,3.1513371E0,1.2837392E0,1.2720034E0,1.6728197E0,1.0853571E0,1.655395E0],"tree_param":{"num_deleted":"0","num_feature":"11","num_nodes":"79","size_leaf_vector":"1"}},{"base_weights":[-5.6627667E-1,-4.5910215E-1,-9.9945277E-1,-1.47911E-1,-6.5589345E-1,-1.5937686E-2,-6.2148774E-1,2.975796E-1,-4.849046E-1,-1.6219917E-1,-8.642758E-1,-9.564439E-1,-5.1856376E-2,4.916776E-1,-1.0272172E-2,-1.2481439E-2,-1.9793285E-1,3.9547436E-2,-4.9821946E-1,-9.983492E-1,2.0871201E-1,-3.4957993E-1,-1.4181337E-2,5.244132E-1,-8.863921E-3,6.0980082E-3,-1.550054E-3,-7.542318E-1,6.033321E-2,1.975858E-1,-7.4201385E-3,1.2627637E-3,-7.7907136E-3,-6.112814E-1,-1.204064E0,-3.4288195E-1,8.0512455E-3,-1.2425799E-2,3.7327152E-1,-2.7487664E-3,8.884897E-3,-1.0716071E-2,2.0214166E-3,-5.7092137E-3,3.377733E-3,-2.6036248E-1,6.799849E-1,-9.4365865E-1,4.4081304E-3,-7.7501786E-1,-1.6544644E0,2.0808761E-3,-7.268766E-3,-2.6493531E-3,7.6958393E-3,3.0389293E-3,-4.824729E-3,9.9591715E-3,-2.60951E-3,1.291777E-3,-1.1862702E0,-1.0154032E0,-2.4136802E-2,-9.5659643E-1,-2.2599868E-2,-1.6002066E0,-4.9016215E-3,-1.1986206E-2,-3.2048373E-4,4.9997703E-3,-7.1324585E-3,-1.563275E-2,-2.738172E-1,-4.3245465E-3,-1.9733114E-2,4.471659E-3,-9.866899E-3],"categories":[],"categories_nodes":[],"categories_segments":[],"categories_sizes":[],"default_left":[0,0,0,0,0,0,0,0,0,0,0,0,0,0,0,0,0,0,0,0,0,0,0,0,0,0,0,0,0,0,0,0,0,0,0,0,0,0,0,0,0,0,0,0,0,0,0,0,0,0,0,0,0,0,0,0,0,0,0,0,0,0,0,0,0,0,0,0,0,0,0,0,0,0,0,0,0],"id":11,"left_children":[1,3,5,7,9,-1,11,13,15,17,19,21,23,25,-1,-1,27,29,31,33,35,37,-1,39,-1,-1,-1,41,43,45,-1,-1,-1,47,49,51,-1,-1,53,-1,-1,-1,-1,-1,-1,55,57,59,-1,61,63,-1,-1,-1,-1,-1,-1,-1,-1,-1,65,67,69,71,-1,73,-1,-1,-1,-1,-1,-1,75,-1,-1,-1,-1],"loss_changes":[4.312481E0,5.0617714E0,3.3976135E0,5.2374115E0,5.138851E0,0E0,2.5414972E0,4.4213967E0,4.0666933E0,1.1356409E0,5.3660755E0,1.8841858E0,3.3916185E0,1.1609304E0,0E0,0E0,2.272687E0,1.5315169E0,1.1944233E0,1.8154297E0,1.8582402E0,3.6895766E0,0E0,1.4746569E0,0E0,0E0,0E0,1.7309384E0,2.2091188E0,2.4118352E0,0E0,0E0,0E0,5.014855E0,2.5617275E0,8.282533E-1,0E0,0E0,1.0969133E0,0E0,0E0,0E0,0E0,0E0,0E0,8.8764167E-1,1.8067183E0,2.8373575E0,0E0,2.1539044E0,1.5665665E0,0E0,0E0,0E0,0E0,0E0,0E0,0E0,0E0,0E0,1.667347E0,1.6042957E0,1.7836145E0,1.9881234E0,0E0,1.2789907E0,0E0,0E0,0E0,0E0,0E0,0E0,2.4748414E0,0E0,0E0,0E0,0E0],"parents":[2147483647,0,0,1,1,2,2,3,3,4,4,6,6,7,7,8,8,9,9,10,10,11,11,12,12,13,13,16,16,17,17,18,18,19,19,20,20,21,21,23,23,27,27,28,28,29,29,33,33,34,34,35,35,38,38,45,45,46,46,47,47,49,49,50,50,60,60,61,61,62,62,63,63,65,65,72,72],"right_children":[2,4,6,8,10,-1,12,14,16,18,20,22,24,26,-1,-1,28,30,32,34,36,38,-1,40,-1,-1,-1,42,44,46,-1,-1,-1,48,50,52,-1,-1,54,-1,-1,-1,-1,-1,-1,56,58,60,-1,62,64,-1,-1,-1,-1,-1,-1,-1,-1,-1,66,68,70,72,-1,74,-1,-1,-1,-1,-1,-1,76,-1,-1,-1,-1],"split_conditions":[5E0,1E0,1E0,1E0,1E0,-1.5937686E-2,3E0,3E0,1E0,2E0,3E0,2E0,4E0,4E0,-1.0272172E-2,-1.2481439E-2,1E0,5E0,1E0,2E0,3E0,1E0,-1.4181337E-2,1E0,-8.863921E-3,6.0980082E-3,-1.550054E-3,4E0,1E0,3E0,-7.4201385E-3,1.2627637E-3,-7.7907136E-3,4E0,2E0,1E0,8.0512455E-3,-1.2425799E-2,1E0,-2.7487664E-3,8.884897E-3,-1.0716071E-2,2.0214166E-3,-5.7092137E-3,3.377733E-3,1E0,2E0,1E0,4.4081304E-3,2E0,3E0,2.0808761E-3,-7.268766E-3,-2.6493531E-3,7.6958393E-3,3.0389293E-3,-4.824729E-3,9.9591715E-3,-2.60951E-3,1.291777E-3,1E0,5E0,4E0,2E0,-2.2599868E-2,1E0,-4.9016215E-3,-1.1986206E-2,-3.2048373E-4,4.9997703E-3,-7.1324585E-3,-1.563275E-2,1E0,-4.3245465E-3,-1.9733114E-2,4.471659E-3,-9.866899E-3],"split_indices":[7,4,3,1,0,0,2,6,2,10,6,6,8,2,0,0,0,8,6,2,8,0,0,0,0,0,0,8,7,8,0,0,0,7,5,5,0,0,4,0,0,0,0,0,0,7,5,8,0,6,7,0,0,0,0,0,0,0,0,0,2,8,8,8,0,9,0,0,0,0,0,0,1,0,0,0,0],"split_type":[0,0,0,0,0,0,0,0,0,0,0,0,0,0,0,0,0,0,0,0,0,0,0,0,0,0,0,0,0,0,0,0,0,0,0,0,0,0,0,0,0,0,0,0,0,0,0,0,0,0,0,0,0,0,0,0,0,0,0,0,0,0,0,0,0,0,0,0,0,0,0,0,0,0,0,0,0],"sum_hessian":[1.01774055E2,8.323923E1,1.8534828E1,3.2925262E1,5.031396E1,5.954774E0,1.2580054E1,1.4230342E1,1.8694923E1,1.54614525E1,3.485251E1,7.4942236E0,5.0858307E0,1.2960364E1,1.2699772E0,4.1931973E0,1.4501725E1,1.0212296E1,5.249157E0,3.1043127E1,3.8093789E0,3.99725E0,3.4969735E0,3.2282484E0,1.8575824E0,1.1006879E1,1.9534855E0,3.9890466E0,1.0512679E1,9.116128E0,1.096168E0,1.7991003E0,3.4500566E0,1.2151213E1,1.8891916E1,2.1998935E0,1.6094855E0,1.4665269E0,2.530723E0,1.0869572E0,2.1412911E0,2.9046426E0,1.084404E0,2.8867314E0,7.6259475E0,4.912704E0,4.2034235E0,9.312331E0,2.838881E0,1.1068716E1,7.8231993E0,1.0916507E0,1.1082426E0,1.0964842E0,1.4342389E0,1.2836014E0,3.6291025E0,3.1030867E0,1.1003369E0,1.8037302E0,7.508601E0,8.117664E0,2.951052E0,4.8329663E0,2.9902327E0,3.8941677E0,3.6144335E0,6.6582055E0,1.4594588E0,1.8320861E0,1.118966E0,1.8762561E0,2.9567103E0,1.465738E0,2.4284296E0,1.6553023E0,1.3014079E0],"tree_param":{"num_deleted":"0","num_feature":"11","num_nodes":"77","size_leaf_vector":"1"}},{"base_weights":[-6.293171E-1,-3.4117106E-1,-7.6876056E-1,-8.7760526E-1,-5.5791023E-3,-6.542859E-1,-1.2335067E0,-3.8093567E-1,-1.0773646E-2,-6.343961E-1,2.7091601E-1,-3.3185834E-1,-8.5628575E-1,-1.5049907E-2,-5.910516E-1,-8.621931E-3,2.54357E-1,5.31722E-3,-1.1620513E0,5.72818E-1,-4.602097E-2,-1.3149868E-1,-1.0119882E0,-1.1194595E0,-3.7044308E-1,-1.1216541E-2,2.0848447E-3,-2.760328E-3,6.678545E-3,-1.593363E-2,-3.6124793E-1,9.796873E-3,1.6248593E-1,-2.9940456E-1,7.697597E-3,1.4312515E-1,-5.237658E-1,-1.657943E-2,-3.3605257E-3,-1.3357128E0,-1.22441664E-1,3.4118807E-1,-7.5028455E-1,-7.5497376E-3,2.0520114E-3,-2.3725009E-1,7.665635E-3,1.4739484E-1,-9.674511E-3,4.2564812E-1,-2.1117778E-1,-9.606665E-1,8.027699E-3,-5.358171E-1,-1.607631E0,4.4649094E-3,-5.295569E-3,-5.8574006E-3,7.591712E-3,1.0136462E-1,-1.4684898E0,-6.982436E-3,3.5971163E-3,-1.9095434E-3,7.186352E-3,1.1007993E-3,8.502802E-3,6.6903858E-3,-5.2641284E-1,4.19525E-3,-1.4772212E-2,2.0953747E-3,-9.495656E-3,-8.1265986E-1,-1.85076E-2,6.5568886E-3,-6.6941637E-3,-2.4591577E-3,-1.7475858E-2,-8.391081E-3,2.569098E-3,3.5332732E-3,-1.4027165E0,-2.0982819E-2,-1.3668683E-3],"categories":[],"categories_nodes":[],"categories_segments":[],"categories_sizes":[],"default_left":[0,0,0,0,0,0,0,0,0,0,0,0,0,0,0,0,0,0,0,0,0,0,0,0,0,0,0,0,0,0,0,0,0,0,0,0,0,0,0,0,0,0,0,0,0,0,0,0,0,0,0,0,0,0,0,0,0,0,0,0,0,0,0,0,0,0,0,0,0,0,0,0,0,0,0,0,0,0,0,0,0,0,0,0,0],"id":12,"left_children":[1,3,5,7,9,11,13,15,-1,17,19,21,23,-1,25,-1,27,-1,29,31,33,35,37,39,41,-1,-1,-1,-1,-1,43,-1,45,47,-1,49,51,-1,-1,53,55,57,59,-1,-1,61,-1,63,-1,65,67,69,-1,71,73,-1,-1,-1,-1,75,77,-1,-1,-1,-1,-1,-1,-1,79,-1,-1,-1,-1,81,-1,-1,-1,-1,-1,-1,-1,-1,83,-1,-1],"loss_changes":[3.9379692E0,6.455864E0,2.8982735E0,9.5924854E-1,4.1852818E0,3.4941711E0,1.3142471E0,1.9029269E0,0E0,5.139966E0,1.6275587E0,3.1344101E0,4.064783E0,0E0,2.524702E0,0E0,8.742511E-1,0E0,1.2804599E0,1.2840726E0,2.1093125E0,2.194038E0,1.7599831E0,4.629404E0,3.9873278E0,0E0,0E0,0E0,0E0,0E0,8.62873E-1,0E0,1.5106618E0,2.4275723E0,0E0,1.3266981E0,5.590312E0,0E0,0E0,3.0899773E0,1.40918E0,2.5722432E0,5.845073E0,0E0,0E0,1.3726437E0,0E0,1.1915729E0,0E0,8.719965E-1,2.058661E0,5.403729E0,0E0,2.0828567E0,1.0198059E0,0E0,0E0,0E0,0E0,2.658981E0,1.3161573E0,0E0,0E0,0E0,0E0,0E0,0E0,0E0,1.4618174E0,0E0,0E0,0E0,0E0,3.8262713E0,0E0,0E0,0E0,0E0,0E0,0E0,0E0,0E0,2.7209992E0,0E0,0E0],"parents":[2147483647,0,0,1,1,2,2,3,3,4,4,5,5,6,6,7,7,9,9,10,10,11,11,12,12,14,14,16,16,18,18,19,19,20,20,21,21,22,22,23,23,24,24,30,30,32,32,33,33,35,35,36,36,39,39,40,40,41,41,42,42,45,45,47,47,49,49,50,50,51,51,53,53,54,54,59,59,60,60,68,68,73,73,82,82],"right_children":[2,4,6,8,10,12,14,16,-1,18,20,22,24,-1,26,-1,28,-1,30,32,34,36,38,40,42,-1,-1,-1,-1,-1,44,-1,46,48,-1,50,52,-1,-1,54,56,58,60,-1,-1,62,-1,64,-1,66,68,70,-1,72,74,-1,-1,-1,-1,76,78,-1,-1,-1,-1,-1,-1,-1,80,-1,-1,-1,-1,82,-1,-1,-1,-1,-1,-1,-1,-1,84,-1,-1],"split_conditions":[1E0,1E0,5E0,2E0,2E0,1E0,3E0,3E0,-1.0773646E-2,1E0,1E0,4E0,4E0,-1.5049907E-2,1E0,-8.621931E-3,1E0,5.31722E-3,3E0,1E0,2E0,2E0,1E0,4E0,2E0,-1.1216541E-2,2.0848447E-3,-2.760328E-3,6.678545E-3,-1.593363E-2,1E0,9.796873E-3,5E0,2E0,7.697597E-3,2E0,3E0,-1.657943E-2,-3.3605257E-3,1E0,2E0,2E0,3E0,-7.5497376E-3,2.0520114E-3,3E0,7.665635E-3,2E0,-9.674511E-3,3E0,1E0,1E0,8.027699E-3,2E0,1E0,4.4649094E-3,-5.295569E-3,-5.8574006E-3,7.591712E-3,1E0,1E0,-6.982436E-3,3.5971163E-3,-1.9095434E-3,7.186352E-3,1.1007993E-3,8.502802E-3,6.6903858E-3,2E0,4.19525E-3,-1.4772212E-2,2.0953747E-3,-9.495656E-3,1E0,-1.85076E-2,6.5568886E-3,-6.6941637E-3,-2.4591577E-3,-1.7475858E-2,-8.391081E-3,2.569098E-3,3.5332732E-3,2E0,-2.0982819E-2,-1.3668683E-3],"split_indices":[9,3,7,2,7,4,2,7,0,10,1,2,8,0,1,0,4,0,8,4,3,6,3,2,2,0,0,0,0,0,0,0,7,6,0,2,2,0,0,5,8,7,7,0,0,8,0,5,0,7,10,0,0,7,0,0,0,0,0,1,0,0,0,0,0,0,0,0,5,0,0,0,0,6,0,0,0,0,0,0,0,0,8,0,0],"split_type":[0,0,0,0,0,0,0,0,0,0,0,0,0,0,0,0,0,0,0,0,0,0,0,0,0,0,0,0,0,0,0,0,0,0,0,0,0,0,0,0,0,0,0,0,0,0,0,0,0,0,0,0,0,0,0,0,0,0,0,0,0,0,0,0,0,0,0,0,0,0,0,0,0,0,0,0,0,0,0,0,0,0,0,0,0],"sum_hessian":[1.0353557E2,3.488853E1,6.864703E1,1.2805002E1,2.2083529E1,5.7011894E1,1.163514E1,4.5067244E0,8.298278E0,6.3492875E0,1.57342415E1,2.2977922E1,3.403397E1,7.235186E0,4.3999543E0,2.3610125E0,2.145712E0,1.9755701E0,4.3737173E0,7.644771E0,8.08947E0,1.8670979E1,4.306945E0,2.122989E1,1.280408E1,2.4026098E0,1.9973446E0,1.0856286E0,1.0600834E0,2.1994119E0,2.1743057E0,3.1418686E0,4.5029025E0,6.6553E0,1.4341695E0,1.1355908E1,7.3150687E0,1.4594326E0,2.8475122E0,1.716672E1,4.063172E0,4.491339E0,8.31274E0,1.0863736E0,1.087932E0,3.0752025E0,1.4277E0,4.4550567E0,2.2002437E0,6.2059135E0,5.1499953E0,5.710197E0,1.6048717E0,5.108795E0,1.2057925E1,1.6544305E0,2.4087412E0,1.2711227E0,3.2202168E0,4.19599E0,4.1167502E0,1.6394799E0,1.4357226E0,3.2159495E0,1.2391071E0,4.2825465E0,1.923367E0,1.062072E0,4.087923E0,1.6062555E0,4.1039414E0,1.999794E0,3.109001E0,3.8410754E0,8.216849E0,2.527559E0,1.6684313E0,1.1147462E0,3.002004E0,2.8707354E0,1.2171876E0,1.4254663E0,2.4156091E0,1.134781E0,1.2808282E0],"tree_param":{"num_deleted":"0","num_feature":"11","num_nodes":"85","size_leaf_vector":"1"}},{"base_weights":[-4.9116108E-1,-2.2750993E-1,-6.686479E-1,-7.406419E-2,-8.8344514E-1,-3.0225292E-1,-8.9668536E-1,-1.5629305E-1,6.7241616E-3,1.2509186E-3,-1.2039481E-2,2.5584975E-1,-4.968231E-1,-1.0008328E0,-6.8058623E-3,-5.5680595E-2,-7.728219E-1,-2.2698592E-3,4.6964362E-1,1.15989104E-1,-6.9247353E-1,-4.3951675E-1,-1.2118311E0,-4.608455E-3,7.1748868E-3,-3.0904046E-1,4.622461E-1,-1.1312401E-2,1.8877601E-3,-2.8026444E-3,7.387445E-3,-5.619521E-3,6.3515743E-3,-2.5959185E-1,-8.9677536E-1,5.4575752E-2,-8.6967236E-1,-1.8302666E0,-9.773122E-1,-6.850189E-1,1.9500488E-1,7.709892E-1,-6.042402E-3,1.4644799E-1,-6.4748046E-3,-4.5812073E-1,-1.5572378E-2,-3.4698166E-3,5.425086E-3,6.903634E-4,-1.2785117E-2,-2.2065554E-2,-2.4555372E-3,-1.7799865E-1,-1.270333E-2,-1.2732134E0,-6.877386E-2,-5.9713244E-2,8.240559E-3,2.1269245E-1,1.05305435E-2,-4.5412052E-3,7.304878E-3,-7.485539E-1,3.7333795E-3,2.2887835E-1,-9.521416E-3,-1.6628312E-2,-2.3955533E-3,4.03769E-1,-7.994941E-3,4.0804857E-1,-6.5408805E-3,7.433438E-3,-3.5435401E-3,-1.1316369E0,2.9050836E-3,-3.08369E-3,6.009509E-3,6.8425667E-3,-2.9257343E-3,8.64411E-3,-2.400138E-3,-1.9638776E-3,-1.7832002E-2],"categories":[],"categories_nodes":[],"categories_segments":[],"categories_sizes":[],"default_left":[0,0,0,0,0,0,0,0,0,0,0,0,0,0,0,0,0,0,0,0,0,0,0,0,0,0,0,0,0,0,0,0,0,0,0,0,0,0,0,0,0,0,0,0,0,0,0,0,0,0,0,0,0,0,0,0,0,0,0,0,0,0,0,0,0,0,0,0,0,0,0,0,0,0,0,0,0,0,0,0,0,0,0,0,0],"id":13,"left_children":[1,3,5,7,9,11,13,15,-1,-1,-1,17,19,21,23,25,27,-1,29,31,33,35,37,-1,-1,39,41,-1,-1,-1,-1,-1,-1,43,45,47,49,51,53,55,57,59,-1,61,-1,63,-1,-1,-1,-1,-1,-1,-1,65,-1,67,69,71,-1,73,-1,-1,-1,75,-1,77,-1,-1,-1,79,-1,81,-1,-1,-1,83,-1,-1,-1,-1,-1,-1,-1,-1,-1],"loss_changes":[4.5390606E0,4.1468287E0,4.6919594E0,2.253946E0,2.6856585E0,2.7653842E0,3.339302E0,1.9633744E0,0E0,0E0,0E0,8.2306707E-1,2.281033E0,3.2946434E0,1.9057606E0,3.9332159E0,1.7508178E0,0E0,1.2435774E0,2.2218204E0,1.0103421E0,2.2573318E0,1.5350571E0,0E0,0E0,3.9230256E0,3.7220705E0,0E0,0E0,0E0,0E0,0E0,0E0,1.0263278E0,1.9352136E0,1.3207546E0,2.2441468E0,2.5323105E0,4.1682262E0,4.144136E0,1.5427864E0,1.0529003E0,0E0,1.631324E0,0E0,1.9481964E0,0E0,0E0,0E0,0E0,0E0,0E0,0E0,2.1695108E0,0E0,1.984272E0,2.656476E0,2.3707938E0,0E0,1.4593966E0,0E0,0E0,0E0,2.4997716E0,0E0,1.1583085E0,0E0,0E0,0E0,1.1315992E0,0E0,1.6420076E0,0E0,0E0,0E0,2.2026334E0,0E0,0E0,0E0,0E0,0E0,0E0,0E0,0E0,0E0],"parents":[2147483647,0,0,1,1,2,2,3,3,4,4,5,5,6,6,7,7,11,11,12,12,13,13,14,14,15,15,16,16,18,18,19,19,20,20,21,21,22,22,25,25,26,26,33,33,34,34,35,35,36,36,37,37,38,38,39,39,40,40,41,41,43,43,45,45,53,53,55,55,56,56,57,57,59,59,63,63,65,65,69,69,71,71,75,75],"right_children":[2,4,6,8,10,12,14,16,-1,-1,-1,18,20,22,24,26,28,-1,30,32,34,36,38,-1,-1,40,42,-1,-1,-1,-1,-1,-1,44,46,48,50,52,54,56,58,60,-1,62,-1,64,-1,-1,-1,-1,-1,-1,-1,66,-1,68,70,72,-1,74,-1,-1,-1,76,-1,78,-1,-1,-1,80,-1,82,-1,-1,-1,84,-1,-1,-1,-1,-1,-1,-1,-1,-1],"split_conditions":[1E0,5E0,2E0,2E0,1E0,1E0,3E0,3E0,6.7241616E-3,1.2509186E-3,-1.2039481E-2,2E0,1E0,1E0,4E0,2E0,3E0,-2.2698592E-3,1E0,3E0,1E0,3E0,1E0,-4.608455E-3,7.1748868E-3,3E0,4E0,-1.1312401E-2,1.8877601E-3,-2.8026444E-3,7.387445E-3,-5.619521E-3,6.3515743E-3,2E0,5E0,2E0,1E0,2E0,2E0,3E0,4E0,1E0,-6.042402E-3,3E0,-6.4748046E-3,4E0,-1.5572378E-2,-3.4698166E-3,5.425086E-3,6.903634E-4,-1.2785117E-2,-2.2065554E-2,-2.4555372E-3,2E0,-1.270333E-2,3E0,5E0,2E0,8.240559E-3,1E0,1.05305435E-2,-4.5412052E-3,7.304878E-3,4E0,3.7333795E-3,1E0,-9.521416E-3,-1.6628312E-2,-2.3955533E-3,1E0,-7.994941E-3,1E0,-6.5408805E-3,7.433438E-3,-3.5435401E-3,2E0,2.9050836E-3,-3.08369E-3,6.009509E-3,6.8425667E-3,-2.9257343E-3,8.64411E-3,-2.400138E-3,-1.9638776E-3,-1.7832002E-2],"split_indices":[4,7,2,3,9,10,6,6,0,0,0,8,6,5,7,5,2,0,6,7,0,8,8,0,0,7,2,0,0,0,0,0,0,5,8,6,1,6,7,8,8,6,0,8,0,8,0,0,0,0,0,0,0,6,0,2,8,8,0,1,0,0,0,7,0,9,0,0,0,5,0,1,0,0,0,6,0,0,0,0,0,0,0,0,0],"split_type":[0,0,0,0,0,0,0,0,0,0,0,0,0,0,0,0,0,0,0,0,0,0,0,0,0,0,0,0,0,0,0,0,0,0,0,0,0,0,0,0,0,0,0,0,0,0,0,0,0,0,0,0,0,0,0,0,0,0,0,0,0,0,0,0,0,0,0,0,0,0,0,0,0,0,0,0,0,0,0,0,0,0,0,0,0],"sum_hessian":[9.925052E1,4.085038E1,5.8400143E1,3.400772E1,6.842658E0,2.3295689E1,3.5104454E1,3.1345472E1,2.6622474E0,1.7971647E0,5.0454936E0,5.9406505E0,1.7355038E1,3.1314827E1,3.7896268E0,2.7885157E1,3.460316E0,1.8042338E0,4.136417E0,4.298507E0,1.3056531E1,9.397588E0,2.1917238E1,2.5529728E0,1.236654E0,1.8995993E1,8.889165E0,2.3922362E0,1.0680797E0,1.0813937E0,3.0550232E0,1.8284584E0,2.470049E0,4.914387E0,8.142144E0,4.7801075E0,4.6174803E0,4.155274E0,1.7761965E1,1.06745615E1,8.32143E0,7.108392E0,1.7807729E0,2.7051249E0,2.2092626E0,5.9103475E0,2.2317965E0,2.7806065E0,1.9995008E0,1.6530844E0,2.964396E0,3.0408306E0,1.1144433E0,5.1958857E0,1.2566079E1,4.9161267E0,5.758435E0,6.5672607E0,1.75417E0,2.9746554E0,4.1337366E0,1.443363E0,1.2617619E0,4.4541855E0,1.4561619E0,3.867524E0,1.3283616E0,3.1282902E0,1.7878364E0,3.7687156E0,1.9897193E0,3.8504844E0,2.7167761E0,1.3760349E0,1.5986205E0,3.1892676E0,1.2649181E0,1.6525571E0,2.2149668E0,2.6989365E0,1.0697792E0,2.0635226E0,1.7869618E0,1.8439238E0,1.3453437E0],"tree_param":{"num_deleted":"0","num_feature":"11","num_nodes":"85","size_leaf_vector":"1"}},{"base_weights":[-5.003394E-1,-2.3908138E-1,-6.150689E-1,-5.525967E-1,5.8621727E-2,-7.551046E-1,-4.1373077E-1,7.0764445E-2,-8.283718E-1,5.8275497E-1,-4.046382E-1,-2.5157288E-1,-9.735849E-1,-5.2743024E-1,4.853179E-1,5.915904E-1,-1.0122798E-2,-1.4766861E-2,-3.901752E-2,8.269589E-3,-2.3988064E-3,6.660781E-1,-1.2933533E0,-5.409349E-1,5.2220095E-3,-1.2653337E0,-6.191564E-1,-7.14358E-1,1.3764904E-1,-2.6612612E-3,8.5570775E-3,9.379611E-3,-2.7800696E-3,-1.2259455E-2,6.025864E-3,-1.6073746E-3,9.673414E-3,-1.707337E-2,-5.0737846E-1,-1.2083442E0,-9.489309E-2,-1.7109703E0,-5.047307E-1,3.695617E-3,-7.5650537E-1,-4.9762544E-1,-1.3747629E0,6.2537775E-3,-2.4202545E-1,-9.55527E-3,2.2609322E-3,-6.5085886E-4,-1.7908389E-2,5.151568E-1,-6.9183147E-1,-2.1168107E-2,-6.2172294E-1,8.483994E-3,-1.1781138E-2,-1.5144911E-1,-1.00391E-2,-2.9987368E-1,-8.387909E-1,-2.4470582E-3,-1.6414067E-2,-7.4863913E-3,4.3576686E-3,-6.856112E-4,8.359767E-3,6.5527484E-4,-1.2209081E-2,2.1975618E-3,-1.0542933E-2,5.686533E-3,-8.901334E-3,-6.2837154E-1,9.652461E-2,-1.3894965E-2,-1.0819996E-1,-1.4589701E-3,-9.896297E-3,-6.975127E-3,4.823124E-1,7.260098E-3,-8.223397E-3,-2.9439651E-3,9.350666E-3],"categories":[],"categories_nodes":[],"categories_segments":[],"categories_sizes":[],"default_left":[0,0,0,0,0,0,0,0,0,0,0,0,0,0,0,0,0,0,0,0,0,0,0,0,0,0,0,0,0,0,0,0,0,0,0,0,0,0,0,0,0,0,0,0,0,0,0,0,0,0,0,0,0,0,0,0,0,0,0,0,0,0,0,0,0,0,0,0,0,0,0,0,0,0,0,0,0,0,0,0,0,0,0,0,0,0,0],"id":14,"left_children":[1,3,5,7,9,11,13,15,17,19,21,23,25,27,29,31,-1,-1,33,-1,-1,35,37,39,-1,41,43,45,47,-1,-1,-1,-1,-1,-1,-1,-1,-1,49,51,53,55,57,-1,59,61,63,-1,65,-1,-1,-1,-1,67,69,-1,71,-1,-1,73,-1,75,77,-1,-1,-1,-1,-1,-1,-1,-1,-1,-1,-1,-1,79,81,-1,83,-1,-1,-1,85,-1,-1,-1,-1],"loss_changes":[2.9395542E0,3.117859E0,1.6870823E0,2.8430705E0,4.5725784E0,4.2231464E0,3.4558368E0,3.9208288E0,5.729333E0,1.9641271E0,1.044479E1,3.336114E0,2.1094112E0,3.6126757E0,1.350821E0,1.6486896E0,0E0,0E0,5.404327E0,0E0,0E0,1.4577041E0,1.0350094E0,2.9865427E0,0E0,4.012844E0,2.260808E0,2.4973679E0,1.4550825E0,0E0,0E0,0E0,0E0,0E0,0E0,0E0,0E0,0E0,1.3463656E0,2.605783E0,3.0255382E0,2.509184E0,7.13492E0,0E0,1.8146486E0,9.832864E-1,1.0823364E0,0E0,1.9331378E0,0E0,0E0,0E0,0E0,8.434942E-1,1.7354532E0,0E0,1.6020553E0,0E0,0E0,3.1608474E0,0E0,1.7721035E0,2.3279324E0,0E0,0E0,0E0,0E0,0E0,0E0,0E0,0E0,0E0,0E0,0E0,0E0,1.1315274E0,2.4264684E0,0E0,2.820267E0,0E0,0E0,0E0,2.0979528E0,0E0,0E0,0E0,0E0],"parents":[2147483647,0,0,1,1,2,2,3,3,4,4,5,5,6,6,7,7,8,8,9,9,10,10,11,11,12,12,13,13,14,14,15,15,18,18,21,21,22,22,23,23,25,25,26,26,27,27,28,28,38,38,39,39,40,40,41,41,42,42,44,44,45,45,46,46,48,48,53,53,54,54,56,56,59,59,61,61,62,62,75,75,76,76,78,78,82,82],"right_children":[2,4,6,8,10,12,14,16,18,20,22,24,26,28,30,32,-1,-1,34,-1,-1,36,38,40,-1,42,44,46,48,-1,-1,-1,-1,-1,-1,-1,-1,-1,50,52,54,56,58,-1,60,62,64,-1,66,-1,-1,-1,-1,68,70,-1,72,-1,-1,74,-1,76,78,-1,-1,-1,-1,-1,-1,-1,-1,-1,-1,-1,-1,80,82,-1,84,-1,-1,-1,86,-1,-1,-1,-1],"split_conditions":[1E0,3E0,3E0,1E0,2E0,1E0,3E0,2E0,3E0,2E0,1E0,2E0,2E0,2E0,1E0,4E0,-1.0122798E-2,-1.4766861E-2,1E0,8.269589E-3,-2.3988064E-3,3E0,2E0,1E0,5.2220095E-3,1E0,1E0,5E0,3E0,-2.6612612E-3,8.5570775E-3,9.379611E-3,-2.7800696E-3,-1.2259455E-2,6.025864E-3,-1.6073746E-3,9.673414E-3,-1.707337E-2,1E0,1E0,2E0,4E0,2E0,3.695617E-3,1E0,2E0,1E0,6.2537775E-3,5E0,-9.55527E-3,2.2609322E-3,-6.5085886E-4,-1.7908389E-2,1E0,2E0,-2.1168107E-2,5E0,8.483994E-3,-1.1781138E-2,1E0,-1.00391E-2,1E0,2E0,-2.4470582E-3,-1.6414067E-2,-7.4863913E-3,4.3576686E-3,-6.856112E-4,8.359767E-3,6.5527484E-4,-1.2209081E-2,2.1975618E-3,-1.0542933E-2,5.686533E-3,-8.901334E-3,4E0,1E0,-1.3894965E-2,2E0,-1.4589701E-3,-9.896297E-3,-6.975127E-3,1E0,7.260098E-3,-8.223397E-3,-2.9439651E-3,9.350666E-3],"split_indices":[9,7,2,10,2,5,6,7,8,10,4,10,5,10,5,8,0,0,2,0,0,2,5,2,0,1,10,8,8,0,0,0,0,0,0,0,0,0,3,3,2,8,7,0,0,5,1,0,8,0,0,0,0,3,7,0,8,0,0,2,0,1,7,0,0,0,0,0,0,0,0,0,0,0,0,7,8,0,8,0,0,0,3,0,0,0,0],"split_type":[0,0,0,0,0,0,0,0,0,0,0,0,0,0,0,0,0,0,0,0,0,0,0,0,0,0,0,0,0,0,0,0,0,0,0,0,0,0,0,0,0,0,0,0,0,0,0,0,0,0,0,0,0,0,0,0,0,0,0,0,0,0,0,0,0,0,0,0,0,0,0,0,0,0,0,0,0,0,0,0,0,0,0,0,0,0,0],"sum_hessian":[1.0197595E2,3.205815E1,6.99178E1,1.5197378E1,1.6860771E1,3.9614506E1,3.0303295E1,4.8892145E0,1.0308164E1,7.789627E0,9.071144E0,1.2638351E1,2.6976154E1,2.7268137E1,3.0351586E0,3.6079538E0,1.2812606E0,5.1816263E0,5.1265373E0,6.002497E0,1.7871299E0,4.22791E0,4.843234E0,9.417483E0,3.220868E0,1.3386746E1,1.3589408E1,2.1227753E1,6.040384E0,1.0950425E0,1.940116E0,2.524E0,1.083954E0,1.4792547E0,3.6472824E0,1.2536713E0,2.9742389E0,2.4044983E0,2.438736E0,3.0879567E0,6.329527E0,7.6532326E0,5.733514E0,1.451315E0,1.2138092E1,1.7302809E1,3.9249434E0,2.3606973E0,3.6796865E0,1.3258815E0,1.1128545E0,1.4175253E0,1.6704314E0,3.198141E0,3.1313856E0,4.888475E0,2.7647576E0,1.8188063E0,3.9147077E0,3.990652E0,8.14744E0,1.2143165E1,5.1596456E0,1.1154227E0,2.8095207E0,2.045934E0,1.6337526E0,1.4131923E0,1.7849488E0,1.6481916E0,1.483194E0,1.1057391E0,1.6590184E0,2.1372988E0,1.8533534E0,6.3202934E0,5.8228707E0,2.427763E0,2.7318823E0,3.307224E0,3.0130694E0,1.639792E0,4.183079E0,1.2523501E0,1.4795324E0,1.6692361E0,2.5138426E0],"tree_param":{"num_deleted":"0","num_feature":"11","num_nodes":"87","size_leaf_vector":"1"}},{"base_weights":[-5.1556194E-1,-2.4675168E-1,-6.868968E-1,2.729938E-1,-4.934156E-1,-2.8989956E-1,-8.4198666E-1,5.2692248E-3,-9.037747E-3,-8.0194074E-1,8.536525E-3,2.573984E-1,-6.3011277E-1,-9.363793E-3,6.984096E-2,-5.276671E-1,-1.6591182E-2,8.469568E-3,-5.450034E-1,-4.6605915E-3,5.772832E-3,-2.698483E-1,-9.612268E-1,-5.282903E-3,8.167856E-3,-7.4265194E-1,-2.1693747E-2,3.0204043E-1,-9.6301395E-1,5.5612354E-3,-7.097517E-3,-1.60571E-1,-1.5512052E-2,-1.1266425E-2,6.820643E-2,5.418258E-3,-1.1311735E-2,-2.961113E-3,7.191078E-3,-3.6163453E-2,-1.584621E-2,-5.524982E-3,3.0451661E-3,-5.651294E-3,7.7285385E-3,6.7641605E-3,-7.1796165E-3],"categories":[],"categories_nodes":[],"categories_segments":[],"categories_sizes":[],"default_left":[0,0,0,0,0,0,0,0,0,0,0,0,0,0,0,0,0,0,0,0,0,0,0,0,0,0,0,0,0,0,0,0,0,0,0,0,0,0,0,0,0,0,0,0,0,0,0],"id":15,"left_children":[1,3,5,7,9,11,13,-1,-1,15,17,19,21,-1,23,25,-1,-1,27,-1,-1,29,31,-1,-1,33,35,37,39,-1,-1,41,-1,-1,43,-1,-1,-1,-1,45,-1,-1,-1,-1,-1,-1,-1],"loss_changes":[4.528414E0,5.4252577E0,3.5569973E0,4.637337E0,4.3959994E0,3.6753066E0,3.8411198E0,0E0,0E0,3.253726E0,5.9279294E0,2.1071455E0,1.1631379E0,0E0,2.6858273E0,1.5907679E0,0E0,0E0,3.0182748E0,0E0,0E0,2.9750004E0,2.5018215E0,0E0,0E0,3.2954545E0,4.010987E0,1.0378115E0,3.051773E0,0E0,0E0,8.21929E-1,0E0,0E0,2.3401394E0,0E0,0E0,0E0,0E0,2.0352979E0,0E0,0E0,0E0,0E0,0E0,0E0,0E0],"parents":[2147483647,0,0,1,1,2,2,3,3,4,4,5,5,6,6,9,9,10,10,11,11,12,12,14,14,15,15,18,18,21,21,22,22,25,25,26,26,27,27,28,28,31,31,34,34,39,39],"right_children":[2,4,6,8,10,12,14,-1,-1,16,18,20,22,-1,24,26,-1,-1,28,-1,-1,30,32,-1,-1,34,36,38,40,-1,-1,42,-1,-1,44,-1,-1,-1,-1,46,-1,-1,-1,-1,-1,-1,-1],"split_conditions":[1E0,1E0,1E0,5E0,3E0,2E0,3E0,5.2692248E-3,-9.037747E-3,3E0,1E0,2E0,3E0,-9.363793E-3,3E0,2E0,-1.6591182E-2,8.469568E-3,1E0,-4.6605915E-3,5.772832E-3,1E0,3E0,-5.282903E-3,8.167856E-3,4E0,5E0,3E0,3E0,5.5612354E-3,-7.097517E-3,4E0,-1.5512052E-2,-1.1266425E-2,1E0,5.418258E-3,-1.1311735E-2,-2.961113E-3,7.191078E-3,5E0,-1.584621E-2,-5.524982E-3,3.0451661E-3,-5.651294E-3,7.7285385E-3,6.7641605E-3,-7.1796165E-3],"split_indices":[4,6,5,7,2,2,6,0,0,6,1,7,7,0,7,5,0,0,9,0,0,9,8,0,0,7,7,7,7,0,0,2,0,0,1,0,0,0,0,8,0,0,0,0,0,0,0],"split_type":[0,0,0,0,0,0,0,0,0,0,0,0,0,0,0,0,0,0,0,0,0,0,0,0,0,0,0,0,0,0,0,0,0,0,0,0,0,0,0,0,0,0,0,0,0,0,0],"sum_hessian":[1.01003E2,4.026722E1,6.0735783E1,1.2925388E1,2.7341831E1,1.7867638E1,4.2868145E1,1.108553E1,1.8398587E0,1.6563452E1,1.07783785E1,6.9425845E0,1.0925053E1,3.8822323E1,4.045823E0,1.3772281E1,2.791171E0,4.075437E0,6.702942E0,1.9884682E0,4.9541163E0,6.1014347E0,4.8236184E0,2.409277E0,1.6365461E0,9.337196E0,4.435084E0,2.3065178E0,4.396424E0,2.0284953E0,4.0729394E0,2.586144E0,2.2374747E0,6.0721984E0,3.2649982E0,3.2805095E0,1.1545746E0,1.0666953E0,1.2398224E0,2.1896746E0,2.2067492E0,1.3014628E0,1.2846811E0,1.8237826E0,1.4412155E0,1.0745283E0,1.1151463E0],"tree_param":{"num_deleted":"0","num_feature":"11","num_nodes":"47","size_leaf_vector":"1"}},{"base_weights":[-5.3940725E-1,-8.715229E-1,-4.418401E-1,-4.8485345E-1,-1.1765535E-2,-1.2381005E-1,-5.5007434E-1,4.078534E-2,-7.562918E-1,4.104155E-1,-3.4548157E-1,-9.592142E-1,-4.3458793E-1,-8.213083E-3,6.4189928E-3,1.1424156E-3,-1.0306047E-2,9.536315E-3,-1.7173229E-1,-5.8167404E-1,2.0288211E-1,-1.6096486E-2,-6.4631754E-1,-5.1179796E-1,2.3587525E-1,-5.879849E-3,3.7246835E-3,-9.779526E-1,-1.6876444E-1,-4.503892E-3,6.806687E-3,-1.117223E-2,-3.2221124E-1,-3.400239E-1,-8.619589E-1,8.365452E-3,-2.3210402E-1,-1.6003164E-2,-3.8741943E-3,-6.87044E-3,2.0723219E-1,2.0464605E-1,-9.135419E-3,-7.1961904E-1,-3.3166442E-2,-7.461751E-2,-1.2733233E0,3.5432463E-3,-6.801125E-3,9.164327E-3,-8.373183E-3,7.750425E-3,-2.723872E-3,-9.205153E-3,-1.5235627E-1,5.564479E-1,-2.7432144E-1,-9.851815E-3,9.229405E-3,-3.41303E-1,-1.6193926E0,6.976512E-3,-5.817728E-1,-5.255215E-4,9.352049E-3,1.3635713E-1,-6.0272044E-1,2.9451114E-3,-7.7918875E-3,-2.5039776E-3,-1.853602E0,-9.56507E-3,-3.8762296E-6,-6.1747422E-3,7.709475E-3,-7.789877E-3,5.16638E-4,-2.1355275E-2,-5.473706E-3],"categories":[],"categories_nodes":[],"categories_segments":[],"categories_sizes":[],"default_left":[0,0,0,0,0,0,0,0,0,0,0,0,0,0,0,0,0,0,0,0,0,0,0,0,0,0,0,0,0,0,0,0,0,0,0,0,0,0,0,0,0,0,0,0,0,0,0,0,0,0,0,0,0,0,0,0,0,0,0,0,0,0,0,0,0,0,0,0,0,0,0,0,0,0,0,0,0,0,0],"id":16,"left_children":[1,3,5,7,-1,9,11,13,15,17,19,21,23,-1,-1,-1,-1,-1,25,27,29,-1,31,33,35,-1,-1,37,39,-1,-1,-1,41,43,45,-1,47,-1,-1,-1,49,51,-1,53,55,57,59,-1,-1,-1,-1,-1,-1,-1,61,63,65,-1,-1,67,69,-1,71,-1,-1,73,75,-1,-1,-1,77,-1,-1,-1,-1,-1,-1,-1,-1],"loss_changes":[3.0325527E0,2.1329498E0,2.8078308E0,1.7156913E0,0E0,2.80688E0,2.5147705E0,3.1028302E0,1.9895606E0,2.3953397E0,2.2483654E0,1.5707312E0,2.7201958E0,0E0,0E0,0E0,0E0,0E0,1.1825773E0,1.758393E0,2.0835392E0,0E0,1.2171388E0,2.4343653E0,1.8442626E0,0E0,0E0,1.5078869E0,1.499707E0,0E0,0E0,0E0,2.531664E0,3.712065E0,4.527502E0,0E0,1.313504E0,0E0,0E0,0E0,4.326868E0,1.516358E0,0E0,1.4881411E0,2.823535E0,6.3230324E0,2.45084E0,0E0,0E0,0E0,0E0,0E0,0E0,0E0,2.2073073E0,1.3830369E0,1.9704912E0,0E0,0E0,1.2842436E0,1.6275272E0,0E0,8.3277965E-1,0E0,0E0,3.8422594E0,9.589243E-1,0E0,0E0,0E0,8.2497597E-1,0E0,0E0,0E0,0E0,0E0,0E0,0E0,0E0],"parents":[2147483647,0,0,1,1,2,2,3,3,5,5,6,6,7,7,8,8,9,9,10,10,11,11,12,12,18,18,19,19,20,20,22,22,23,23,24,24,27,27,28,28,32,32,33,33,34,34,36,36,40,40,41,41,43,43,44,44,45,45,46,46,54,54,55,55,56,56,59,59,60,60,62,62,65,65,66,66,70,70],"right_children":[2,4,6,8,-1,10,12,14,16,18,20,22,24,-1,-1,-1,-1,-1,26,28,30,-1,32,34,36,-1,-1,38,40,-1,-1,-1,42,44,46,-1,48,-1,-1,-1,50,52,-1,54,56,58,60,-1,-1,-1,-1,-1,-1,-1,62,64,66,-1,-1,68,70,-1,72,-1,-1,74,76,-1,-1,-1,78,-1,-1,-1,-1,-1,-1,-1,-1],"split_conditions":[1E0,1E0,2E0,1E0,-1.1765535E-2,2E0,1E0,3E0,1E0,1E0,5E0,1E0,3E0,-8.213083E-3,6.4189928E-3,1.1424156E-3,-1.0306047E-2,9.536315E-3,2E0,1E0,1E0,-1.6096486E-2,3E0,2E0,1E0,-5.879849E-3,3.7246835E-3,1E0,1E0,-4.503892E-3,6.806687E-3,-1.117223E-2,4E0,1E0,3E0,8.365452E-3,1E0,-1.6003164E-2,-3.8741943E-3,-6.87044E-3,3E0,1E0,-9.135419E-3,4E0,1E0,2E0,1E0,3.5432463E-3,-6.801125E-3,9.164327E-3,-8.373183E-3,7.750425E-3,-2.723872E-3,-9.205153E-3,1E0,1E0,3E0,-9.851815E-3,9.229405E-3,1E0,2E0,6.976512E-3,1E0,-5.255215E-4,9.352049E-3,1E0,4E0,2.9451114E-3,-7.7918875E-3,-2.5039776E-3,2E0,-9.56507E-3,-3.8762296E-6,-6.1747422E-3,7.709475E-3,-7.789877E-3,5.16638E-4,-2.1355275E-2,-5.473706E-3],"split_indices":[2,1,2,9,0,8,8,7,6,6,8,7,6,0,0,0,0,0,6,1,3,0,2,6,10,0,0,4,6,0,0,0,7,3,8,0,1,0,0,0,7,3,0,2,9,7,9,0,0,0,0,0,0,0,5,0,7,0,0,4,7,0,6,0,0,7,2,0,0,0,10,0,0,0,0,0,0,0,0],"split_type":[0,0,0,0,0,0,0,0,0,0,0,0,0,0,0,0,0,0,0,0,0,0,0,0,0,0,0,0,0,0,0,0,0,0,0,0,0,0,0,0,0,0,0,0,0,0,0,0,0,0,0,0,0,0,0,0,0,0,0,0,0,0,0,0,0,0,0,0,0,0,0,0,0,0,0,0,0,0,0],"sum_hessian":[1.0447064E2,2.1920704E1,8.254994E1,1.0808686E1,1.1112018E1,2.1504902E1,6.1045036E1,3.9701867E0,6.8384995E0,6.0567513E0,1.5448152E1,1.1829648E1,4.921539E1,1.480542E0,2.4896445E0,1.7783701E0,5.060129E0,2.803041E0,3.2537103E0,1.0754992E1,4.6931596E0,2.496239E0,9.333409E0,4.434527E1,4.87012E0,1.7979918E0,1.4557185E0,4.7897344E0,5.965257E0,2.0067286E0,2.686431E0,2.8073797E0,6.526029E0,3.107315E1,1.3272118E1,1.7878171E0,3.082303E0,1.4994792E0,3.290255E0,2.1602602E0,3.804997E0,3.7969697E0,2.7290595E0,1.3288998E1,1.7784153E1,4.960065E0,8.312053E0,1.425492E0,1.6568111E0,2.3393455E0,1.4656516E0,1.4447476E0,2.3522222E0,9.353663E0,3.9353342E0,4.7828493E0,1.3001305E1,2.5995867E0,2.3604782E0,2.7884727E0,5.52358E0,1.1111742E0,2.82416E0,2.1642394E0,2.61861E0,6.0367913E0,6.964513E0,1.2707528E0,1.5177199E0,1.1092046E0,4.4143753E0,1.324942E0,1.499218E0,2.7714963E0,3.265295E0,5.336611E0,1.627902E0,3.1085713E0,1.305804E0],"tree_param":{"num_deleted":"0","num_feature":"11","num_nodes":"79","size_leaf_vector":"1"}},{"base_weights":[-5.3009176E-1,-3.064879E-1,-6.834866E-1,-7.0188826E-1,-4.482662E-2,-2.552475E-1,-9.442195E-1,-1.3664682E-1,-9.451677E-1,8.232688E-2,-5.7930744E-1,-5.693084E-1,1.8350309E-1,-1.0766197E0,9.043998E-2,-9.856996E-3,2.7131504E-1,-1.7272745E-1,-1.2113671E0,-3.5264173E-1,2.0846118E-1,3.404006E-3,-9.855134E-1,-5.2554343E-2,-8.445287E-1,6.34392E-1,-3.866682E-1,-1.207915E0,-6.813875E-1,-5.6484225E-3,4.5442376E-3,-4.245937E-3,6.685075E-3,4.2326134E-3,-6.967522E-3,-1.8071658E-3,-1.6037925E0,-8.416408E-3,2.7688694E-1,-8.767524E-2,6.227813E-1,-1.5647107E-5,-1.569243E-2,-7.3903725E-3,2.4700399E-1,8.976862E-2,-1.2040519E-2,8.599909E-3,-1.7921904E-3,5.819264E-3,-1.2060411E0,-7.194682E-1,-1.4765242E0,-1.1855212E0,3.230166E-1,-2.4342197E-3,-1.8522691E-2,6.8072155E-3,-2.5354233E-3,2.3532651E-1,-5.8878814E-3,8.365062E-4,8.610849E-3,-1.7278249E-3,7.631879E-3,-5.904662E-3,7.3134387E-3,-2.439326E-3,-1.5908739E-2,-4.695214E-2,-1.5404171E-2,-1.7137062E-2,-6.3643497E-3,-1.4157687E0,-9.121046E-4,8.497225E-3,-4.016869E-3,-5.8513544E-3,6.8965233E-3,-4.996386E-3,2.3538804E-1,-4.111533E-3,-1.8437933E-2,-3.5768643E-3,6.2462497E-3],"categories":[],"categories_nodes":[],"categories_segments":[],"categories_sizes":[],"default_left":[0,0,0,0,0,0,0,0,0,0,0,0,0,0,0,0,0,0,0,0,0,0,0,0,0,0,0,0,0,0,0,0,0,0,0,0,0,0,0,0,0,0,0,0,0,0,0,0,0,0,0,0,0,0,0,0,0,0,0,0,0,0,0,0,0,0,0,0,0,0,0,0,0,0,0,0,0,0,0,0,0,0,0,0,0],"id":17,"left_children":[1,3,5,7,9,11,13,15,17,19,21,23,25,27,29,-1,31,33,35,37,39,-1,41,43,45,47,49,51,53,-1,-1,-1,-1,-1,-1,-1,55,-1,57,59,61,-1,-1,-1,63,65,-1,-1,-1,-1,67,69,71,73,75,-1,-1,-1,-1,77,-1,-1,-1,-1,-1,-1,-1,-1,-1,79,-1,-1,-1,81,-1,-1,-1,-1,-1,-1,83,-1,-1,-1,-1],"loss_changes":[3.3500195E0,4.5247507E0,6.5408115E0,2.2730389E0,1.9213125E0,3.4606214E0,5.218342E0,2.4930506E0,2.2672186E0,1.3434232E0,2.3613281E0,2.0091424E0,3.0519543E0,9.007416E-1,1.4882215E0,0E0,1.700213E0,1.6231902E0,3.2655659E0,1.9491644E0,2.3332481E0,0E0,2.3053865E0,1.4336823E0,3.2504091E0,1.3426144E0,5.021018E0,2.0394554E0,5.738949E0,0E0,0E0,0E0,0E0,0E0,0E0,0E0,1.6582108E0,0E0,8.558284E-1,2.0334675E0,9.383776E-1,0E0,0E0,0E0,1.2121003E0,1.9724593E0,0E0,0E0,0E0,0E0,8.2402277E-1,5.63555E0,1.7592335E0,1.6993132E0,1.9905839E0,0E0,0E0,0E0,0E0,3.3233733E0,0E0,0E0,0E0,0E0,0E0,0E0,0E0,0E0,0E0,9.757904E-1,0E0,0E0,0E0,1.7903194E0,0E0,0E0,0E0,0E0,0E0,0E0,1.3349507E0,0E0,0E0,0E0,0E0],"parents":[2147483647,0,0,1,1,2,2,3,3,4,4,5,5,6,6,7,7,8,8,9,9,10,10,11,11,12,12,13,13,14,14,16,16,17,17,18,18,19,19,20,20,22,22,23,23,24,24,25,25,26,26,27,27,28,28,36,36,38,38,39,39,40,40,44,44,45,45,50,50,51,51,52,52,53,53,54,54,59,59,69,69,73,73,80,80],"right_children":[2,4,6,8,10,12,14,16,18,20,22,24,26,28,30,-1,32,34,36,38,40,-1,42,44,46,48,50,52,54,-1,-1,-1,-1,-1,-1,-1,56,-1,58,60,62,-1,-1,-1,64,66,-1,-1,-1,-1,68,70,72,74,76,-1,-1,-1,-1,78,-1,-1,-1,-1,-1,-1,-1,-1,-1,80,-1,-1,-1,82,-1,-1,-1,-1,-1,-1,84,-1,-1,-1,-1],"split_conditions":[1E0,1E0,2E0,2E0,5E0,4E0,3E0,1E0,1E0,1E0,1E0,1E0,5E0,2E0,1E0,-9.856996E-3,1E0,2E0,1E0,3E0,3E0,3.404006E-3,1E0,1E0,1E0,5E0,2E0,1E0,2E0,-5.6484225E-3,4.5442376E-3,-4.245937E-3,6.685075E-3,4.2326134E-3,-6.967522E-3,-1.8071658E-3,1E0,-8.416408E-3,5E0,2E0,1E0,-1.5647107E-5,-1.569243E-2,-7.3903725E-3,4E0,2E0,-1.2040519E-2,8.599909E-3,-1.7921904E-3,5.819264E-3,3E0,4E0,4E0,5E0,3E0,-2.4342197E-3,-1.8522691E-2,6.8072155E-3,-2.5354233E-3,1E0,-5.8878814E-3,8.365062E-4,8.610849E-3,-1.7278249E-3,7.631879E-3,-5.904662E-3,7.3134387E-3,-2.439326E-3,-1.5908739E-2,2E0,-1.5404171E-2,-1.7137062E-2,-6.3643497E-3,2E0,-9.121046E-4,8.497225E-3,-4.016869E-3,-5.8513544E-3,6.8965233E-3,-4.996386E-3,1E0,-4.111533E-3,-1.8437933E-2,-3.5768643E-3,6.2462497E-3],"split_indices":[4,3,2,8,7,7,6,2,5,7,9,0,7,10,5,0,0,6,9,8,2,0,10,7,10,8,6,3,6,0,0,0,0,0,0,0,2,0,8,6,0,0,0,0,8,5,0,0,0,0,8,2,2,7,7,0,0,0,0,0,0,0,0,0,0,0,0,0,0,7,0,0,0,7,0,0,0,0,0,0,6,0,0,0,0],"split_type":[0,0,0,0,0,0,0,0,0,0,0,0,0,0,0,0,0,0,0,0,0,0,0,0,0,0,0,0,0,0,0,0,0,0,0,0,0,0,0,0,0,0,0,0,0,0,0,0,0,0,0,0,0,0,0,0,0,0,0,0,0,0,0,0,0,0,0,0,0,0,0,0,0,0,0,0,0,0,0,0,0,0,0,0,0],"sum_hessian":[1.0277655E2,4.3038006E1,5.973854E1,1.6469007E1,2.6569E1,2.3356228E1,3.6382313E1,5.4253364E0,1.1043671E1,2.2146334E1,4.4226656E0,1.3438957E1,9.917271E0,3.221887E1,4.1634436E0,1.3011723E0,4.124164E0,3.2530487E0,7.790622E0,4.574749E0,1.7571585E1,1.4045546E0,3.0181112E0,5.084064E0,8.354893E0,5.475017E0,4.442253E0,2.2641277E1,9.577592E0,1.2897197E0,2.873724E0,1.473501E0,2.6506631E0,1.6119819E0,1.6410668E0,2.55108E0,5.2395425E0,2.3851204E0,2.1896284E0,1.07070675E1,6.8645177E0,1.4971534E0,1.5209577E0,1.0988331E0,3.985231E0,2.5301294E0,5.824764E0,4.2418327E0,1.2331845E0,2.1685565E0,2.273697E0,9.338456E0,1.3302821E1,6.2568235E0,3.320768E0,1.1149609E0,4.1245813E0,1.0822966E0,1.1073318E0,6.8330736E0,3.873994E0,2.5182755E0,4.3462424E0,2.564732E0,1.4204987E0,1.2667308E0,1.2633986E0,1.1164247E0,1.1572722E0,5.714427E0,3.6240287E0,9.562997E0,3.739824E0,4.9265113E0,1.3303123E0,1.8231869E0,1.4975812E0,2.3326485E0,4.500425E0,1.899406E0,3.815021E0,2.057632E0,2.8688793E0,1.5438055E0,2.2712157E0],"tree_param":{"num_deleted":"0","num_feature":"11","num_nodes":"85","size_leaf_vector":"1"}},{"base_weights":[-4.7047603E-1,-6.300626E-1,-2.21149E-1,-5.022723E-1,-1.0613909E0,2.895866E-1,-5.618141E-1,-3.5014978E-1,-7.729357E-1,6.9546467E-3,-1.2823797E0,-4.2034242E-1,5.671358E-1,-6.811082E-1,3.618261E-1,-1.1017895E-2,-1.5335998E-1,-1.6130418E-2,-4.8662204E-1,-3.0273792E-1,-1.6526302E0,-9.584799E-1,7.354241E-3,7.806012E-3,-2.499003E-1,-2.4294175E-1,-1.0127815E0,7.560865E-3,-2.6245057E-3,-3.4972087E-1,2.8285253E-1,-8.345018E-1,1.8642676E-1,-8.918441E-3,4.4490583E-3,-1.8653436E0,-3.9980677E-3,1.8962744E-3,-1.4265946E-2,3.0163866E-3,-7.2823307E-3,1.9218838E-1,-8.7675846E-1,-1.2780143E0,-4.1791478E-1,2.8171802E-1,-8.249092E-1,-6.74214E-4,5.239776E-1,-1.0810651E-2,-1.3738518E-2,-4.1361446E-3,5.0530607E-1,-5.435324E-3,-2.0757234E-2,-5.1073437E-3,5.3000057E-1,-9.809242E-4,-1.1572427E0,-4.7237977E-1,-1.5499083E-2,-8.795583E-3,8.528206E-2,7.88851E-3,-1.8204609E-1,-3.5978485E-2,-1.0102214E0,-1.1557798E-3,9.264721E-3,7.909392E-3,-6.2043005E-1,8.540643E-3,-1.5655193E-3,-1.7271383E-3,9.484839E-3,-1.5399411E-2,-2.2327106E-3,3.347649E-3,-1.1226409E-2,-4.9986346E-3,6.96564E-3,-6.6909736E-1,3.3208546E-3,-7.3865806E-3,6.862979E-3,-4.3459207E-1,-1.4292779E-2,-1.1712143E-2,2.2730909E-3,2.1083057E-3,-1.2318141E-2,4.229135E-3,-9.261429E-3],"categories":[],"categories_nodes":[],"categories_segments":[],"categories_sizes":[],"default_left":[0,0,0,0,0,0,0,0,0,0,0,0,0,0,0,0,0,0,0,0,0,0,0,0,0,0,0,0,0,0,0,0,0,0,0,0,0,0,0,0,0,0,0,0,0,0,0,0,0,0,0,0,0,0,0,0,0,0,0,0,0,0,0,0,0,0,0,0,0,0,0,0,0,0,0,0,0,0,0,0,0,0,0,0,0,0,0,0,0,0,0,0,0],"id":18,"left_children":[1,3,5,7,9,11,13,15,17,-1,19,21,23,25,27,-1,29,-1,31,33,35,37,-1,-1,39,41,43,-1,-1,45,47,49,51,-1,-1,53,-1,-1,-1,-1,-1,55,57,59,61,63,65,-1,67,69,-1,-1,71,-1,-1,-1,73,-1,75,77,-1,-1,79,-1,81,83,85,-1,-1,-1,87,-1,-1,-1,-1,-1,-1,-1,-1,-1,-1,89,-1,-1,-1,91,-1,-1,-1,-1,-1,-1,-1],"loss_changes":[3.8801117E0,2.832119E0,7.2902327E0,1.7467766E0,5.960702E0,3.5981288E0,2.9916139E0,4.741197E0,3.2563982E0,0E0,3.83362E0,4.042853E0,2.4073071E0,3.0109606E0,1.0605803E0,0E0,2.4518423E0,0E0,3.4248557E0,2.3794637E0,1.50531E0,2.4719012E0,0E0,0E0,1.1126881E0,3.1942737E0,1.4286957E0,0E0,0E0,6.0503607E0,8.0221426E-1,4.1557026E0,1.2757728E0,0E0,0E0,8.039665E-1,0E0,0E0,0E0,0E0,0E0,2.0101511E0,9.0113497E-1,1.0460997E0,1.3113308E0,2.2771268E0,1.6183839E0,0E0,1.5207785E0,2.7989528E0,0E0,0E0,1.0779458E0,0E0,0E0,0E0,1.7631091E0,0E0,8.4386444E-1,2.2059054E0,0E0,0E0,1.5851017E0,0E0,1.6121742E0,2.1258624E0,1.5808487E0,0E0,0E0,0E0,1.7805248E0,0E0,0E0,0E0,0E0,0E0,0E0,0E0,0E0,0E0,0E0,1.8353624E0,0E0,0E0,0E0,2.6183906E0,0E0,0E0,0E0,0E0,0E0,0E0,0E0],"parents":[2147483647,0,0,1,1,2,2,3,3,4,4,5,5,6,6,7,7,8,8,10,10,11,11,12,12,13,13,14,14,16,16,18,18,19,19,20,20,21,21,24,24,25,25,26,26,29,29,30,30,31,31,32,32,35,35,41,41,42,42,43,43,44,44,45,45,46,46,48,48,49,49,52,52,56,56,58,58,59,59,62,62,64,64,65,65,66,66,70,70,81,81,85,85],"right_children":[2,4,6,8,10,12,14,16,18,-1,20,22,24,26,28,-1,30,-1,32,34,36,38,-1,-1,40,42,44,-1,-1,46,48,50,52,-1,-1,54,-1,-1,-1,-1,-1,56,58,60,62,64,66,-1,68,70,-1,-1,72,-1,-1,-1,74,-1,76,78,-1,-1,80,-1,82,84,86,-1,-1,-1,88,-1,-1,-1,-1,-1,-1,-1,-1,-1,-1,90,-1,-1,-1,92,-1,-1,-1,-1,-1,-1,-1],"split_conditions":[3E0,5E0,1E0,2E0,1E0,1E0,3E0,1E0,1E0,6.9546467E-3,1E0,2E0,5E0,3E0,1E0,-1.1017895E-2,4E0,-1.6130418E-2,2E0,2E0,5E0,1E0,7.354241E-3,7.806012E-3,2E0,2E0,5E0,7.560865E-3,-2.6245057E-3,2E0,1E0,2E0,1E0,-8.918441E-3,4.4490583E-3,1E0,-3.9980677E-3,1.8962744E-3,-1.4265946E-2,3.0163866E-3,-7.2823307E-3,1E0,1E0,3E0,1E0,1E0,1E0,-6.74214E-4,1E0,2E0,-1.3738518E-2,-4.1361446E-3,2E0,-5.435324E-3,-2.0757234E-2,-5.1073437E-3,1E0,-9.809242E-4,2E0,4E0,-1.5499083E-2,-8.795583E-3,1E0,7.88851E-3,1E0,2E0,1E0,-1.1557798E-3,9.264721E-3,7.909392E-3,2E0,8.540643E-3,-1.5655193E-3,-1.7271383E-3,9.484839E-3,-1.5399411E-2,-2.2327106E-3,3.347649E-3,-1.1226409E-2,-4.9986346E-3,6.96564E-3,3E0,3.3208546E-3,-7.3865806E-3,6.862979E-3,1E0,-1.4292779E-2,-1.1712143E-2,2.2730909E-3,2.1083057E-3,-1.2318141E-2,4.229135E-3,-9.261429E-3],"split_indices":[2,7,4,2,8,0,6,7,8,0,9,6,8,7,1,0,8,0,5,10,8,9,0,0,7,5,7,0,0,8,4,7,9,0,0,5,0,0,0,0,0,3,3,8,9,6,3,0,2,8,0,0,10,0,0,0,7,0,8,7,0,0,1,0,8,6,2,0,0,0,6,0,0,0,0,0,0,0,0,0,0,7,0,0,0,6,0,0,0,0,0,0,0],"split_type":[0,0,0,0,0,0,0,0,0,0,0,0,0,0,0,0,0,0,0,0,0,0,0,0,0,0,0,0,0,0,0,0,0,0,0,0,0,0,0,0,0,0,0,0,0,0,0,0,0,0,0,0,0,0,0,0,0,0,0,0,0,0,0,0,0,0,0,0,0,0,0,0,0,0,0,0,0,0,0,0,0,0,0,0,0,0,0,0,0,0,0,0,0],"sum_hessian":[1.0001847E2,6.00532E1,3.9965267E1,4.7997406E1,1.2055793E1,1.6051022E1,2.3914246E1,3.2195858E1,1.5801548E1,1.1071247E0,1.09486685E1,4.3668356E0,1.1684185E1,2.1411407E1,2.502838E0,5.726115E0,2.6469744E1,2.8386145E0,1.2962934E1,3.5015666E0,7.4471016E0,3.0960014E0,1.2708342E0,9.299197E0,2.384988E0,9.971177E0,1.144023E1,1.4046161E0,1.0982219E0,1.8389843E1,8.079902E0,8.3876915E0,4.575242E0,1.8505511E0,1.6510155E0,5.9482527E0,1.4988488E0,1.0690185E0,2.026983E0,1.2792974E0,1.1056907E0,6.32541E0,3.6457672E0,7.1180897E0,4.322141E0,8.07147E0,1.0318372E1,3.5880525E0,4.4918494E0,3.7226033E0,4.6650877E0,1.4845843E0,3.090658E0,1.3087829E0,4.6394696E0,1.887011E0,4.438399E0,1.3229066E0,2.3228607E0,2.4868393E0,4.6312504E0,1.8640664E0,2.4580748E0,3.5206318E0,4.5508385E0,2.1898143E0,8.128557E0,2.0103269E0,2.4815228E0,1.4794508E0,2.2431526E0,1.8339012E0,1.2567568E0,1.8758202E0,2.5625787E0,1.1874776E0,1.135383E0,1.326049E0,1.1607904E0,1.3490121E0,1.1090626E0,2.1821828E0,2.3686557E0,1.0984687E0,1.0913457E0,4.282733E0,3.8458247E0,1.1284281E0,1.1147244E0,1.0950978E0,1.0870849E0,1.6113622E0,2.6713705E0],"tree_param":{"num_deleted":"0","num_feature":"11","num_nodes":"93","size_leaf_vector":"1"}},{"base_weights":[-5.180617E-1,-3.9135313E-1,-1.0012548E0,4.5890273E-3,-6.513932E-1,-5.0408727E-1,-1.2171432E-2,-4.9259374E-1,2.3000817E-1,-1.666902E-1,-8.6651236E-1,-1.5801258E-2,3.6003585E-3,-9.843713E-3,-6.423278E-2,5.7722676E-1,-2.8201634E-1,-8.352155E-1,3.59045E-2,-3.3721426E-1,-1.057616E0,-4.4681737E-3,3.1793845E-1,-5.4348475E-1,4.4246423E-3,6.896713E-1,-1.0974856E-2,-7.135933E-1,5.087101E-1,7.5897835E-5,-1.3847988E-2,9.752448E-3,-3.1345046E-1,5.270156E-3,-6.0035044E-1,-1.365839E0,-7.044337E-1,5.933379E-3,-2.4940274E-3,-1.0529825E-2,2.933753E-3,2.8991166E-1,1.0658411E-2,-7.7396324E-3,7.069903E-3,-1.6407793E-3,-1.3549449E-2,-2.7667733E-3,8.735952E-3,2.223867E-1,-8.0139047E-1,-4.1425668E-2,-1.016329E0,-2.0868808E-2,-3.4455416E-1,-7.131764E-2,-1.2659687E0,8.290955E-3,-3.694665E-4,-3.8381296E-3,6.7923865E-3,-1.113402E-2,2.4672186E-3,-6.9859824E-3,5.4827593E-3,-1.3023594E-2,-1.314143E-3,4.700701E-3,-7.6233894E-3,7.576359E-3,-3.76553E-1,-8.795021E-2,-2.0091726E-2,-1.1680515E-2,4.3193724E-2,-6.6822856E-3,6.913444E-3,8.521606E-3,-7.1262782E-3],"categories":[],"categories_nodes":[],"categories_segments":[],"categories_sizes":[],"default_left":[0,0,0,0,0,0,0,0,0,0,0,0,0,0,0,0,0,0,0,0,0,0,0,0,0,0,0,0,0,0,0,0,0,0,0,0,0,0,0,0,0,0,0,0,0,0,0,0,0,0,0,0,0,0,0,0,0,0,0,0,0,0,0,0,0,0,0,0,0,0,0,0,0,0,0,0,0,0,0],"id":19,"left_children":[1,3,5,7,9,11,-1,13,15,17,19,-1,21,-1,23,25,27,29,31,33,35,-1,37,39,-1,41,43,45,47,-1,-1,-1,49,-1,51,53,55,-1,-1,-1,-1,57,-1,-1,-1,-1,-1,-1,-1,59,61,63,65,-1,67,69,71,-1,-1,-1,-1,-1,-1,-1,-1,-1,-1,-1,-1,-1,73,75,-1,-1,77,-1,-1,-1,-1],"loss_changes":[5.757683E0,8.365105E0,1.5573006E0,3.8328636E0,4.96768E0,4.283413E0,0E0,2.1848228E0,4.3436985E0,2.2388778E0,3.054079E0,0E0,1.0365883E0,0E0,1.8852782E0,9.5614195E-1,3.8352776E0,1.7864692E0,4.7276416E0,2.684394E0,1.6838112E0,0E0,8.206768E-1,1.9844617E0,0E0,1.503932E0,2.347264E0,2.2441685E0,1.4385608E0,0E0,0E0,0E0,2.9440866E0,0E0,1.9225118E0,8.05444E0,4.6708226E0,0E0,0E0,0E0,0E0,1.3027625E0,0E0,0E0,0E0,0E0,0E0,0E0,0E0,1.8738041E0,2.1564019E0,2.1842773E0,1.0442872E0,0E0,2.4440465E0,2.146175E0,5.984727E0,0E0,0E0,0E0,0E0,0E0,0E0,0E0,0E0,0E0,0E0,0E0,0E0,0E0,2.058197E0,2.165976E0,0E0,0E0,3.6114695E0,0E0,0E0,0E0,0E0],"parents":[2147483647,0,0,1,1,2,2,3,3,4,4,5,5,7,7,8,8,9,9,10,10,12,12,14,14,15,15,16,16,17,17,18,18,19,19,20,20,22,22,23,23,25,25,26,26,27,27,28,28,32,32,34,34,35,35,36,36,41,41,49,49,50,50,51,51,52,52,54,54,55,55,56,56,70,70,71,71,74,74],"right_children":[2,4,6,8,10,12,-1,14,16,18,20,-1,22,-1,24,26,28,30,32,34,36,-1,38,40,-1,42,44,46,48,-1,-1,-1,50,-1,52,54,56,-1,-1,-1,-1,58,-1,-1,-1,-1,-1,-1,-1,60,62,64,66,-1,68,70,72,-1,-1,-1,-1,-1,-1,-1,-1,-1,-1,-1,-1,-1,74,76,-1,-1,78,-1,-1,-1,-1],"split_conditions":[5E0,1E0,1E0,1E0,1E0,1E0,-1.2171432E-2,1E0,2E0,1E0,1E0,-1.5801258E-2,1E0,-9.843713E-3,2E0,4E0,3E0,4E0,2E0,1E0,3E0,-4.4681737E-3,4E0,3E0,4.4246423E-3,2E0,3E0,2E0,1E0,7.5897835E-5,-1.3847988E-2,9.752448E-3,2E0,5.270156E-3,3E0,1E0,1E0,5.933379E-3,-2.4940274E-3,-1.0529825E-2,2.933753E-3,1E0,1.0658411E-2,-7.7396324E-3,7.069903E-3,-1.6407793E-3,-1.3549449E-2,-2.7667733E-3,8.735952E-3,1E0,2E0,1E0,4E0,-2.0868808E-2,1E0,4E0,3E0,8.290955E-3,-3.694665E-4,-3.8381296E-3,6.7923865E-3,-1.113402E-2,2.4672186E-3,-6.9859824E-3,5.4827593E-3,-1.3023594E-2,-1.314143E-3,4.700701E-3,-7.6233894E-3,7.576359E-3,1E0,2E0,-2.0091726E-2,-1.1680515E-2,3E0,-6.6822856E-3,6.913444E-3,8.521606E-3,-7.1262782E-3],"split_indices":[7,4,9,0,0,6,0,3,6,7,10,0,4,0,7,7,2,8,7,5,8,0,2,8,0,7,8,2,7,0,0,0,2,0,2,1,1,0,0,0,0,10,0,0,0,0,0,0,0,9,5,9,2,0,3,8,2,0,0,0,0,0,0,0,0,0,0,0,0,0,2,10,0,0,7,0,0,0,0],"split_type":[0,0,0,0,0,0,0,0,0,0,0,0,0,0,0,0,0,0,0,0,0,0,0,0,0,0,0,0,0,0,0,0,0,0,0,0,0,0,0,0,0,0,0,0,0,0,0,0,0,0,0,0,0,0,0,0,0,0,0,0,0,0,0,0,0,0,0,0,0,0,0,0,0,0,0,0,0,0,0],"sum_hessian":[9.944189E1,8.021651E1,1.9225384E1,3.21883E1,4.8028202E1,6.830479E0,1.2394904E1,9.671556E0,2.2516747E1,1.5309029E1,3.2719173E1,1.5124531E0,5.318026E0,3.8982246E0,5.7733316E0,1.33418865E1,9.17486E0,2.8341758E0,1.2474853E1,9.412903E0,2.330627E1,2.012641E0,3.305385E0,2.9297075E0,2.843624E0,1.1055865E1,2.2860212E0,5.9984593E0,3.1764007E0,1.5079193E0,1.3262566E0,2.8961554E0,9.578697E0,1.9629787E0,7.449924E0,1.0914195E1,1.2392076E1,2.1943698E0,1.1110154E0,1.660504E0,1.2692035E0,6.2183037E0,4.8375616E0,1.0704491E0,1.2155721E0,3.90686E0,2.091599E0,1.08429E0,2.0921106E0,4.8246665E0,4.754031E0,3.647965E0,3.801959E0,5.785887E0,5.128309E0,6.354522E0,6.037553E0,1.7669657E0,4.4513383E0,2.1421323E0,2.682534E0,3.6154568E0,1.1385745E0,1.6379472E0,2.0100176E0,2.51674E0,1.2852188E0,1.6960634E0,3.4322453E0,1.3112669E0,5.0432553E0,2.7681792E0,3.269374E0,1.1298994E0,3.913356E0,1.6683865E0,1.0997926E0,1.828656E0,2.0847E0],"tree_param":{"num_deleted":"0","num_feature":"11","num_nodes":"79","size_leaf_vector":"1"}},{"base_weights":[-5.097386E-1,-3.1640774E-1,-7.913224E-1,3.376563E-2,-5.64389E-1,-4.9653113E-1,-1.2404457E0,-5.7799673E-1,1.6285844E-1,-1.46607E-1,-8.4871393E-1,7.659098E-2,-7.530162E-1,-1.5285482E-1,-1.6847249E0,2.0918937E-3,-8.590387E-1,2.7320457E-1,-5.6000686E-1,-7.952083E-1,3.4775627E-1,-1.1598514E0,-3.4718132E-1,-1.8496157E-1,8.005694E-3,-9.011369E-1,7.1797627E-3,4.886599E-3,-5.843898E-1,-2.0218562E-2,-4.3085214E-1,-2.1154969E-4,-1.3796879E-2,6.38995E-1,3.5454743E-2,2.857481E-3,-1.200444E-2,2.8069408E-3,-1.0667709E0,-4.666209E-3,6.1488324E-1,-1.56169E0,-5.859559E-1,4.568868E-3,-5.718747E-1,-6.4121443E-1,3.0719244E-1,-1.4395663E0,-2.5669295E-1,-1.1617578E-2,3.083903E-3,-7.83859E-3,2.0208836E-3,-3.176092E-3,9.334866E-3,-8.075186E-1,3.9346796E-1,-1.291128E-2,-1.3594154E-3,9.740543E-3,1.6882864E-1,-2.167551E-2,-8.988494E-1,-2.1282391E-1,-1.1421076E-2,-9.8610625E-2,-9.000003E-3,-5.7113695E-5,-9.881209E-3,-3.1068618E-3,8.13059E-3,-2.7468562E-1,-1.9529877E-2,3.6535212E-1,-9.791347E-1,-1.2113171E0,2.0949838E-3,6.822946E-1,-6.787164E-3,6.9483127E-3,-2.0829404E-3,-1.3192905E-2,-2.754801E-3,-5.5463235E-3,4.0047434E-3,-9.331912E-3,5.720243E-3,-6.6986172E-3,3.0655172E-3,-1.4025667E-4,8.032919E-3,-1.1711641E-3,-1.2984625E-2,-1.6062975E-2,-2.3959293E-3,-3.273123E-4,8.347334E-3],"categories":[],"categories_nodes":[],"categories_segments":[],"categories_sizes":[],"default_left":[0,0,0,0,0,0,0,0,0,0,0,0,0,0,0,0,0,0,0,0,0,0,0,0,0,0,0,0,0,0,0,0,0,0,0,0,0,0,0,0,0,0,0,0,0,0,0,0,0,0,0,0,0,0,0,0,0,0,0,0,0,0,0,0,0,0,0,0,0,0,0,0,0,0,0,0,0,0,0,0,0,0,0,0,0,0,0,0,0,0,0,0,0,0,0,0,0],"id":20,"left_children":[1,3,5,7,9,11,13,15,17,19,21,23,25,27,29,-1,31,33,35,37,39,41,43,45,-1,47,-1,-1,49,-1,51,-1,-1,53,55,-1,-1,-1,57,-1,59,61,63,-1,65,67,69,71,73,-1,-1,-1,-1,-1,-1,75,77,-1,-1,-1,79,-1,81,83,-1,85,-1,-1,-1,-1,-1,87,-1,89,91,93,-1,95,-1,-1,-1,-1,-1,-1,-1,-1,-1,-1,-1,-1,-1,-1,-1,-1,-1,-1,-1],"loss_changes":[5.329344E0,5.4408774E0,4.820074E0,2.212895E0,4.2241554E0,3.9465523E0,7.2815876E0,1.2625593E0,1.9823287E0,5.417694E0,2.9639702E0,1.8687294E0,4.6492453E0,1.8427502E0,3.7693787E0,0E0,1.629735E0,1.7661409E0,2.1657617E0,2.4145837E0,2.417632E0,2.0569458E0,2.0114732E0,1.8782753E0,0E0,5.5749626E0,0E0,0E0,2.3264213E0,0E0,9.6208787E-1,0E0,0E0,2.5625231E0,4.399505E0,0E0,0E0,0E0,1.0751405E0,0E0,1.0862706E0,8.5458183E-1,1.1904681E0,0E0,1.1559923E0,9.223577E-1,1.5898001E0,4.915926E0,4.4090595E0,0E0,0E0,0E0,0E0,0E0,0E0,2.0440435E0,3.6111069E0,0E0,0E0,0E0,1.0754437E0,0E0,9.5788574E-1,1.346423E0,0E0,2.9992812E0,0E0,0E0,0E0,0E0,0E0,1.11322E0,0E0,9.370958E-1,1.0708609E0,8.6940145E-1,0E0,9.5456123E-1,0E0,0E0,0E0,0E0,0E0,0E0,0E0,0E0,0E0,0E0,0E0,0E0,0E0,0E0,0E0,0E0,0E0,0E0,0E0],"parents":[2147483647,0,0,1,1,2,2,3,3,4,4,5,5,6,6,7,7,8,8,9,9,10,10,11,11,12,12,13,13,14,14,16,16,17,17,18,18,19,19,20,20,21,21,22,22,23,23,25,25,28,28,30,30,33,33,34,34,38,38,40,40,41,41,42,42,44,44,45,45,46,46,47,47,48,48,55,55,56,56,60,60,62,62,63,63,65,65,71,71,73,73,74,74,75,75,77,77],"right_children":[2,4,6,8,10,12,14,16,18,20,22,24,26,28,30,-1,32,34,36,38,40,42,44,46,-1,48,-1,-1,50,-1,52,-1,-1,54,56,-1,-1,-1,58,-1,60,62,64,-1,66,68,70,72,74,-1,-1,-1,-1,-1,-1,76,78,-1,-1,-1,80,-1,82,84,-1,86,-1,-1,-1,-1,-1,88,-1,90,92,94,-1,96,-1,-1,-1,-1,-1,-1,-1,-1,-1,-1,-1,-1,-1,-1,-1,-1,-1,-1,-1],"split_conditions":[2E0,2E0,2E0,1E0,1E0,2E0,1E0,2E0,2E0,1E0,3E0,2E0,2E0,1E0,2E0,2.0918937E-3,1E0,1E0,3E0,1E0,1E0,1E0,1E0,3E0,8.005694E-3,4E0,7.1797627E-3,4.886599E-3,